digraph Tree {
node [shape=box, style="filled, rounded", color="black", fontname=helvetica] ;
edge [fontname=helvetica] ;
0 [label="X[0] <= 0.299\nentropy = 0.414\nsamples = 4000\nvalue = [3666, 334]\nclass = y[0]", fillcolor="#e58139e8"] ;
1 [label="X[0] <= -0.381\nentropy = 0.102\nsamples = 3545\nvalue = [3498, 47]\nclass = y[0]", fillcolor="#e58139fc"] ;
0 -> 1 [labeldistance=2.5, labelangle=45, headlabel="True"] ;
2 [label="X[0] <= -1.379\nentropy = 0.048\nsamples = 2780\nvalue = [2765, 15]\nclass = y[0]", fillcolor="#e58139fe"] ;
1 -> 2 ;
3 [label="entropy = 0.0\nsamples = 602\nvalue = [602, 0]\nclass = y[0]", fillcolor="#e58139ff"] ;
2 -> 3 ;
4 [label="X[0] <= -1.378\nentropy = 0.059\nsamples = 2178\nvalue = [2163, 15]\nclass = y[0]", fillcolor="#e58139fd"] ;
2 -> 4 ;
5 [label="entropy = 0.0\nsamples = 1\nvalue = [0, 1]\nclass = y[1]", fillcolor="#399de5ff"] ;
4 -> 5 ;
6 [label="X[1] <= -1.723\nentropy = 0.056\nsamples = 2177\nvalue = [2163, 14]\nclass = y[0]", fillcolor="#e58139fd"] ;
4 -> 6 ;
7 [label="X[1] <= -1.724\nentropy = 0.207\nsamples = 123\nvalue = [119, 4]\nclass = y[0]", fillcolor="#e58139f6"] ;
6 -> 7 ;
8 [label="X[1] <= -1.751\nentropy = 0.166\nsamples = 122\nvalue = [119, 3]\nclass = y[0]", fillcolor="#e58139f9"] ;
7 -> 8 ;
9 [label="X[0] <= -1.003\nentropy = 0.127\nsamples = 115\nvalue = [113, 2]\nclass = y[0]", fillcolor="#e58139fa"] ;
8 -> 9 ;
10 [label="X[0] <= -1.004\nentropy = 0.208\nsamples = 61\nvalue = [59, 2]\nclass = y[0]", fillcolor="#e58139f6"] ;
9 -> 10 ;
11 [label="X[1] <= -2.423\nentropy = 0.122\nsamples = 60\nvalue = [59, 1]\nclass = y[0]", fillcolor="#e58139fb"] ;
10 -> 11 ;
12 [label="X[1] <= -2.434\nentropy = 0.391\nsamples = 13\nvalue = [12, 1]\nclass = y[0]", fillcolor="#e58139ea"] ;
11 -> 12 ;
13 [label="entropy = 0.0\nsamples = 12\nvalue = [12, 0]\nclass = y[0]", fillcolor="#e58139ff"] ;
12 -> 13 ;
14 [label="entropy = 0.0\nsamples = 1\nvalue = [0, 1]\nclass = y[1]", fillcolor="#399de5ff"] ;
12 -> 14 ;
15 [label="entropy = 0.0\nsamples = 47\nvalue = [47, 0]\nclass = y[0]", fillcolor="#e58139ff"] ;
11 -> 15 ;
16 [label="entropy = 0.0\nsamples = 1\nvalue = [0, 1]\nclass = y[1]", fillcolor="#399de5ff"] ;
10 -> 16 ;
17 [label="entropy = 0.0\nsamples = 54\nvalue = [54, 0]\nclass = y[0]", fillcolor="#e58139ff"] ;
9 -> 17 ;
18 [label="X[1] <= -1.747\nentropy = 0.592\nsamples = 7\nvalue = [6, 1]\nclass = y[0]", fillcolor="#e58139d4"] ;
8 -> 18 ;
19 [label="entropy = 0.0\nsamples = 1\nvalue = [0, 1]\nclass = y[1]", fillcolor="#399de5ff"] ;
18 -> 19 ;
20 [label="entropy = 0.0\nsamples = 6\nvalue = [6, 0]\nclass = y[0]", fillcolor="#e58139ff"] ;
18 -> 20 ;
21 [label="entropy = 0.0\nsamples = 1\nvalue = [0, 1]\nclass = y[1]", fillcolor="#399de5ff"] ;
7 -> 21 ;
22 [label="X[0] <= -1.133\nentropy = 0.044\nsamples = 2054\nvalue = [2044, 10]\nclass = y[0]", fillcolor="#e58139fe"] ;
6 -> 22 ;
23 [label="entropy = 0.0\nsamples = 406\nvalue = [406, 0]\nclass = y[0]", fillcolor="#e58139ff"] ;
22 -> 23 ;
24 [label="X[0] <= -1.132\nentropy = 0.053\nsamples = 1648\nvalue = [1638, 10]\nclass = y[0]", fillcolor="#e58139fd"] ;
22 -> 24 ;
25 [label="entropy = 0.0\nsamples = 1\nvalue = [0, 1]\nclass = y[1]", fillcolor="#399de5ff"] ;
24 -> 25 ;
26 [label="X[0] <= -0.535\nentropy = 0.049\nsamples = 1647\nvalue = [1638, 9]\nclass = y[0]", fillcolor="#e58139fe"] ;
24 -> 26 ;
27 [label="X[0] <= -0.535\nentropy = 0.059\nsamples = 1324\nvalue = [1315, 9]\nclass = y[0]", fillcolor="#e58139fd"] ;
26 -> 27 ;
28 [label="X[0] <= -0.602\nentropy = 0.053\nsamples = 1323\nvalue = [1315, 8]\nclass = y[0]", fillcolor="#e58139fd"] ;
27 -> 28 ;
29 [label="X[0] <= -0.603\nentropy = 0.059\nsamples = 1166\nvalue = [1158, 8]\nclass = y[0]", fillcolor="#e58139fd"] ;
28 -> 29 ;
30 [label="X[0] <= -0.71\nentropy = 0.053\nsamples = 1165\nvalue = [1158, 7]\nclass = y[0]", fillcolor="#e58139fd"] ;
29 -> 30 ;
31 [label="X[0] <= -0.711\nentropy = 0.063\nsamples = 940\nvalue = [933, 7]\nclass = y[0]", fillcolor="#e58139fd"] ;
30 -> 31 ;
32 [label="X[1] <= 0.527\nentropy = 0.056\nsamples = 939\nvalue = [933, 6]\nclass = y[0]", fillcolor="#e58139fd"] ;
31 -> 32 ;
33 [label="X[1] <= 0.525\nentropy = 0.072\nsamples = 689\nvalue = [683, 6]\nclass = y[0]", fillcolor="#e58139fd"] ;
32 -> 33 ;
34 [label="X[1] <= -1.297\nentropy = 0.062\nsamples = 688\nvalue = [683, 5]\nclass = y[0]", fillcolor="#e58139fd"] ;
33 -> 34 ;
35 [label="entropy = 0.0\nsamples = 119\nvalue = [119, 0]\nclass = y[0]", fillcolor="#e58139ff"] ;
34 -> 35 ;
36 [label="X[1] <= -1.294\nentropy = 0.073\nsamples = 569\nvalue = [564, 5]\nclass = y[0]", fillcolor="#e58139fd"] ;
34 -> 36 ;
37 [label="entropy = 0.0\nsamples = 1\nvalue = [0, 1]\nclass = y[1]", fillcolor="#399de5ff"] ;
36 -> 37 ;
38 [label="X[0] <= -0.973\nentropy = 0.06\nsamples = 568\nvalue = [564, 4]\nclass = y[0]", fillcolor="#e58139fd"] ;
36 -> 38 ;
39 [label="entropy = 0.0\nsamples = 220\nvalue = [220, 0]\nclass = y[0]", fillcolor="#e58139ff"] ;
38 -> 39 ;
40 [label="X[0] <= -0.973\nentropy = 0.091\nsamples = 348\nvalue = [344, 4]\nclass = y[0]", fillcolor="#e58139fc"] ;
38 -> 40 ;
41 [label="entropy = 0.0\nsamples = 1\nvalue = [0, 1]\nclass = y[1]", fillcolor="#399de5ff"] ;
40 -> 41 ;
42 [label="X[1] <= -1.18\nentropy = 0.072\nsamples = 347\nvalue = [344, 3]\nclass = y[0]", fillcolor="#e58139fd"] ;
40 -> 42 ;
43 [label="X[1] <= -1.187\nentropy = 0.31\nsamples = 18\nvalue = [17, 1]\nclass = y[0]", fillcolor="#e58139f0"] ;
42 -> 43 ;
44 [label="entropy = 0.0\nsamples = 17\nvalue = [17, 0]\nclass = y[0]", fillcolor="#e58139ff"] ;
43 -> 44 ;
45 [label="entropy = 0.0\nsamples = 1\nvalue = [0, 1]\nclass = y[1]", fillcolor="#399de5ff"] ;
43 -> 45 ;
46 [label="X[1] <= -0.087\nentropy = 0.053\nsamples = 329\nvalue = [327, 2]\nclass = y[0]", fillcolor="#e58139fd"] ;
42 -> 46 ;
47 [label="entropy = 0.0\nsamples = 218\nvalue = [218, 0]\nclass = y[0]", fillcolor="#e58139ff"] ;
46 -> 47 ;
48 [label="X[1] <= -0.081\nentropy = 0.13\nsamples = 111\nvalue = [109, 2]\nclass = y[0]", fillcolor="#e58139fa"] ;
46 -> 48 ;
49 [label="entropy = 0.0\nsamples = 1\nvalue = [0, 1]\nclass = y[1]", fillcolor="#399de5ff"] ;
48 -> 49 ;
50 [label="X[0] <= -0.747\nentropy = 0.075\nsamples = 110\nvalue = [109, 1]\nclass = y[0]", fillcolor="#e58139fd"] ;
48 -> 50 ;
51 [label="entropy = 0.0\nsamples = 99\nvalue = [99, 0]\nclass = y[0]", fillcolor="#e58139ff"] ;
50 -> 51 ;
52 [label="X[0] <= -0.744\nentropy = 0.439\nsamples = 11\nvalue = [10, 1]\nclass = y[0]", fillcolor="#e58139e6"] ;
50 -> 52 ;
53 [label="entropy = 0.0\nsamples = 1\nvalue = [0, 1]\nclass = y[1]", fillcolor="#399de5ff"] ;
52 -> 53 ;
54 [label="entropy = 0.0\nsamples = 10\nvalue = [10, 0]\nclass = y[0]", fillcolor="#e58139ff"] ;
52 -> 54 ;
55 [label="entropy = 0.0\nsamples = 1\nvalue = [0, 1]\nclass = y[1]", fillcolor="#399de5ff"] ;
33 -> 55 ;
56 [label="entropy = 0.0\nsamples = 250\nvalue = [250, 0]\nclass = y[0]", fillcolor="#e58139ff"] ;
32 -> 56 ;
57 [label="entropy = 0.0\nsamples = 1\nvalue = [0, 1]\nclass = y[1]", fillcolor="#399de5ff"] ;
31 -> 57 ;
58 [label="entropy = 0.0\nsamples = 225\nvalue = [225, 0]\nclass = y[0]", fillcolor="#e58139ff"] ;
30 -> 58 ;
59 [label="entropy = 0.0\nsamples = 1\nvalue = [0, 1]\nclass = y[1]", fillcolor="#399de5ff"] ;
29 -> 59 ;
60 [label="entropy = 0.0\nsamples = 157\nvalue = [157, 0]\nclass = y[0]", fillcolor="#e58139ff"] ;
28 -> 60 ;
61 [label="entropy = 0.0\nsamples = 1\nvalue = [0, 1]\nclass = y[1]", fillcolor="#399de5ff"] ;
27 -> 61 ;
62 [label="entropy = 0.0\nsamples = 323\nvalue = [323, 0]\nclass = y[0]", fillcolor="#e58139ff"] ;
26 -> 62 ;
63 [label="X[1] <= 1.566\nentropy = 0.251\nsamples = 765\nvalue = [733, 32]\nclass = y[0]", fillcolor="#e58139f4"] ;
1 -> 63 ;
64 [label="X[1] <= 0.026\nentropy = 0.339\nsamples = 477\nvalue = [447, 30]\nclass = y[0]", fillcolor="#e58139ee"] ;
63 -> 64 ;
65 [label="X[1] <= -1.791\nentropy = 0.1\nsamples = 232\nvalue = [229, 3]\nclass = y[0]", fillcolor="#e58139fc"] ;
64 -> 65 ;
66 [label="X[0] <= 0.052\nentropy = 0.863\nsamples = 7\nvalue = [5, 2]\nclass = y[0]", fillcolor="#e5813999"] ;
65 -> 66 ;
67 [label="entropy = 0.0\nsamples = 5\nvalue = [5, 0]\nclass = y[0]", fillcolor="#e58139ff"] ;
66 -> 67 ;
68 [label="entropy = 0.0\nsamples = 2\nvalue = [0, 2]\nclass = y[1]", fillcolor="#399de5ff"] ;
66 -> 68 ;
69 [label="X[1] <= -1.104\nentropy = 0.041\nsamples = 225\nvalue = [224, 1]\nclass = y[0]", fillcolor="#e58139fe"] ;
65 -> 69 ;
70 [label="X[1] <= -1.115\nentropy = 0.183\nsamples = 36\nvalue = [35, 1]\nclass = y[0]", fillcolor="#e58139f8"] ;
69 -> 70 ;
71 [label="entropy = 0.0\nsamples = 35\nvalue = [35, 0]\nclass = y[0]", fillcolor="#e58139ff"] ;
70 -> 71 ;
72 [label="entropy = 0.0\nsamples = 1\nvalue = [0, 1]\nclass = y[1]", fillcolor="#399de5ff"] ;
70 -> 72 ;
73 [label="entropy = 0.0\nsamples = 189\nvalue = [189, 0]\nclass = y[0]", fillcolor="#e58139ff"] ;
69 -> 73 ;
74 [label="X[0] <= -0.049\nentropy = 0.501\nsamples = 245\nvalue = [218, 27]\nclass = y[0]", fillcolor="#e58139df"] ;
64 -> 74 ;
75 [label="X[0] <= -0.376\nentropy = 0.333\nsamples = 179\nvalue = [168, 11]\nclass = y[0]", fillcolor="#e58139ee"] ;
74 -> 75 ;
76 [label="entropy = 0.0\nsamples = 2\nvalue = [0, 2]\nclass = y[1]", fillcolor="#399de5ff"] ;
75 -> 76 ;
77 [label="X[1] <= 1.047\nentropy = 0.29\nsamples = 177\nvalue = [168, 9]\nclass = y[0]", fillcolor="#e58139f1"] ;
75 -> 77 ;
78 [label="X[1] <= 0.469\nentropy = 0.433\nsamples = 90\nvalue = [82, 8]\nclass = y[0]", fillcolor="#e58139e6"] ;
77 -> 78 ;
79 [label="entropy = 0.0\nsamples = 34\nvalue = [34, 0]\nclass = y[0]", fillcolor="#e58139ff"] ;
78 -> 79 ;
80 [label="X[0] <= -0.163\nentropy = 0.592\nsamples = 56\nvalue = [48, 8]\nclass = y[0]", fillcolor="#e58139d4"] ;
78 -> 80 ;
81 [label="X[0] <= -0.307\nentropy = 0.742\nsamples = 38\nvalue = [30, 8]\nclass = y[0]", fillcolor="#e58139bb"] ;
80 -> 81 ;
82 [label="entropy = 0.0\nsamples = 8\nvalue = [8, 0]\nclass = y[0]", fillcolor="#e58139ff"] ;
81 -> 82 ;
83 [label="X[1] <= 0.979\nentropy = 0.837\nsamples = 30\nvalue = [22, 8]\nclass = y[0]", fillcolor="#e58139a2"] ;
81 -> 83 ;
84 [label="X[0] <= -0.29\nentropy = 0.75\nsamples = 28\nvalue = [22, 6]\nclass = y[0]", fillcolor="#e58139b9"] ;
83 -> 84 ;
85 [label="X[1] <= 0.643\nentropy = 0.918\nsamples = 3\nvalue = [1, 2]\nclass = y[1]", fillcolor="#399de57f"] ;
84 -> 85 ;
86 [label="entropy = 0.0\nsamples = 2\nvalue = [0, 2]\nclass = y[1]", fillcolor="#399de5ff"] ;
85 -> 86 ;
87 [label="entropy = 0.0\nsamples = 1\nvalue = [1, 0]\nclass = y[0]", fillcolor="#e58139ff"] ;
85 -> 87 ;
88 [label="X[0] <= -0.173\nentropy = 0.634\nsamples = 25\nvalue = [21, 4]\nclass = y[0]", fillcolor="#e58139ce"] ;
84 -> 88 ;
89 [label="X[0] <= -0.205\nentropy = 0.544\nsamples = 24\nvalue = [21, 3]\nclass = y[0]", fillcolor="#e58139db"] ;
88 -> 89 ;
90 [label="X[1] <= 0.534\nentropy = 0.323\nsamples = 17\nvalue = [16, 1]\nclass = y[0]", fillcolor="#e58139ef"] ;
89 -> 90 ;
91 [label="X[1] <= 0.52\nentropy = 0.918\nsamples = 3\nvalue = [2, 1]\nclass = y[0]", fillcolor="#e581397f"] ;
90 -> 91 ;
92 [label="entropy = 0.0\nsamples = 2\nvalue = [2, 0]\nclass = y[0]", fillcolor="#e58139ff"] ;
91 -> 92 ;
93 [label="entropy = 0.0\nsamples = 1\nvalue = [0, 1]\nclass = y[1]", fillcolor="#399de5ff"] ;
91 -> 93 ;
94 [label="entropy = 0.0\nsamples = 14\nvalue = [14, 0]\nclass = y[0]", fillcolor="#e58139ff"] ;
90 -> 94 ;
95 [label="X[1] <= 0.652\nentropy = 0.863\nsamples = 7\nvalue = [5, 2]\nclass = y[0]", fillcolor="#e5813999"] ;
89 -> 95 ;
96 [label="entropy = 0.0\nsamples = 4\nvalue = [4, 0]\nclass = y[0]", fillcolor="#e58139ff"] ;
95 -> 96 ;
97 [label="X[0] <= -0.186\nentropy = 0.918\nsamples = 3\nvalue = [1, 2]\nclass = y[1]", fillcolor="#399de57f"] ;
95 -> 97 ;
98 [label="entropy = 0.0\nsamples = 2\nvalue = [0, 2]\nclass = y[1]", fillcolor="#399de5ff"] ;
97 -> 98 ;
99 [label="entropy = 0.0\nsamples = 1\nvalue = [1, 0]\nclass = y[0]", fillcolor="#e58139ff"] ;
97 -> 99 ;
100 [label="entropy = 0.0\nsamples = 1\nvalue = [0, 1]\nclass = y[1]", fillcolor="#399de5ff"] ;
88 -> 100 ;
101 [label="entropy = 0.0\nsamples = 2\nvalue = [0, 2]\nclass = y[1]", fillcolor="#399de5ff"] ;
83 -> 101 ;
102 [label="entropy = 0.0\nsamples = 18\nvalue = [18, 0]\nclass = y[0]", fillcolor="#e58139ff"] ;
80 -> 102 ;
103 [label="X[1] <= 1.565\nentropy = 0.091\nsamples = 87\nvalue = [86, 1]\nclass = y[0]", fillcolor="#e58139fc"] ;
77 -> 103 ;
104 [label="entropy = 0.0\nsamples = 86\nvalue = [86, 0]\nclass = y[0]", fillcolor="#e58139ff"] ;
103 -> 104 ;
105 [label="entropy = 0.0\nsamples = 1\nvalue = [0, 1]\nclass = y[1]", fillcolor="#399de5ff"] ;
103 -> 105 ;
106 [label="X[1] <= 0.453\nentropy = 0.799\nsamples = 66\nvalue = [50, 16]\nclass = y[0]", fillcolor="#e58139ad"] ;
74 -> 106 ;
107 [label="X[1] <= 0.029\nentropy = 0.48\nsamples = 29\nvalue = [26, 3]\nclass = y[0]", fillcolor="#e58139e2"] ;
106 -> 107 ;
108 [label="entropy = 0.0\nsamples = 1\nvalue = [0, 1]\nclass = y[1]", fillcolor="#399de5ff"] ;
107 -> 108 ;
109 [label="X[1] <= 0.166\nentropy = 0.371\nsamples = 28\nvalue = [26, 2]\nclass = y[0]", fillcolor="#e58139eb"] ;
107 -> 109 ;
110 [label="X[1] <= 0.11\nentropy = 0.619\nsamples = 13\nvalue = [11, 2]\nclass = y[0]", fillcolor="#e58139d1"] ;
109 -> 110 ;
111 [label="X[0] <= 0.115\nentropy = 0.414\nsamples = 12\nvalue = [11, 1]\nclass = y[0]", fillcolor="#e58139e8"] ;
110 -> 111 ;
112 [label="X[0] <= 0.054\nentropy = 0.65\nsamples = 6\nvalue = [5, 1]\nclass = y[0]", fillcolor="#e58139cc"] ;
111 -> 112 ;
113 [label="entropy = 0.0\nsamples = 5\nvalue = [5, 0]\nclass = y[0]", fillcolor="#e58139ff"] ;
112 -> 113 ;
114 [label="entropy = 0.0\nsamples = 1\nvalue = [0, 1]\nclass = y[1]", fillcolor="#399de5ff"] ;
112 -> 114 ;
115 [label="entropy = 0.0\nsamples = 6\nvalue = [6, 0]\nclass = y[0]", fillcolor="#e58139ff"] ;
111 -> 115 ;
116 [label="entropy = 0.0\nsamples = 1\nvalue = [0, 1]\nclass = y[1]", fillcolor="#399de5ff"] ;
110 -> 116 ;
117 [label="entropy = 0.0\nsamples = 15\nvalue = [15, 0]\nclass = y[0]", fillcolor="#e58139ff"] ;
109 -> 117 ;
118 [label="X[1] <= 1.214\nentropy = 0.935\nsamples = 37\nvalue = [24, 13]\nclass = y[0]", fillcolor="#e5813975"] ;
106 -> 118 ;
119 [label="X[1] <= 0.484\nentropy = 0.999\nsamples = 25\nvalue = [13, 12]\nclass = y[0]", fillcolor="#e5813914"] ;
118 -> 119 ;
120 [label="entropy = 0.0\nsamples = 2\nvalue = [0, 2]\nclass = y[1]", fillcolor="#399de5ff"] ;
119 -> 120 ;
121 [label="X[1] <= 0.606\nentropy = 0.988\nsamples = 23\nvalue = [13, 10]\nclass = y[0]", fillcolor="#e581393b"] ;
119 -> 121 ;
122 [label="X[0] <= 0.01\nentropy = 0.592\nsamples = 7\nvalue = [6, 1]\nclass = y[0]", fillcolor="#e58139d4"] ;
121 -> 122 ;
123 [label="X[1] <= 0.513\nentropy = 1.0\nsamples = 2\nvalue = [1, 1]\nclass = y[0]", fillcolor="#e5813900"] ;
122 -> 123 ;
124 [label="entropy = 0.0\nsamples = 1\nvalue = [0, 1]\nclass = y[1]", fillcolor="#399de5ff"] ;
123 -> 124 ;
125 [label="entropy = 0.0\nsamples = 1\nvalue = [1, 0]\nclass = y[0]", fillcolor="#e58139ff"] ;
123 -> 125 ;
126 [label="entropy = 0.0\nsamples = 5\nvalue = [5, 0]\nclass = y[0]", fillcolor="#e58139ff"] ;
122 -> 126 ;
127 [label="X[0] <= 0.253\nentropy = 0.989\nsamples = 16\nvalue = [7, 9]\nclass = y[1]", fillcolor="#399de539"] ;
121 -> 127 ;
128 [label="X[1] <= 0.759\nentropy = 0.94\nsamples = 14\nvalue = [5, 9]\nclass = y[1]", fillcolor="#399de571"] ;
127 -> 128 ;
129 [label="entropy = 0.0\nsamples = 4\nvalue = [0, 4]\nclass = y[1]", fillcolor="#399de5ff"] ;
128 -> 129 ;
130 [label="X[1] <= 0.774\nentropy = 1.0\nsamples = 10\nvalue = [5, 5]\nclass = y[0]", fillcolor="#e5813900"] ;
128 -> 130 ;
131 [label="entropy = 0.0\nsamples = 2\nvalue = [2, 0]\nclass = y[0]", fillcolor="#e58139ff"] ;
130 -> 131 ;
132 [label="X[1] <= 0.993\nentropy = 0.954\nsamples = 8\nvalue = [3, 5]\nclass = y[1]", fillcolor="#399de566"] ;
130 -> 132 ;
133 [label="entropy = 0.0\nsamples = 3\nvalue = [0, 3]\nclass = y[1]", fillcolor="#399de5ff"] ;
132 -> 133 ;
134 [label="X[1] <= 1.18\nentropy = 0.971\nsamples = 5\nvalue = [3, 2]\nclass = y[0]", fillcolor="#e5813955"] ;
132 -> 134 ;
135 [label="X[0] <= 0.03\nentropy = 0.811\nsamples = 4\nvalue = [3, 1]\nclass = y[0]", fillcolor="#e58139aa"] ;
134 -> 135 ;
136 [label="X[0] <= -0.007\nentropy = 1.0\nsamples = 2\nvalue = [1, 1]\nclass = y[0]", fillcolor="#e5813900"] ;
135 -> 136 ;
137 [label="entropy = 0.0\nsamples = 1\nvalue = [1, 0]\nclass = y[0]", fillcolor="#e58139ff"] ;
136 -> 137 ;
138 [label="entropy = 0.0\nsamples = 1\nvalue = [0, 1]\nclass = y[1]", fillcolor="#399de5ff"] ;
136 -> 138 ;
139 [label="entropy = 0.0\nsamples = 2\nvalue = [2, 0]\nclass = y[0]", fillcolor="#e58139ff"] ;
135 -> 139 ;
140 [label="entropy = 0.0\nsamples = 1\nvalue = [0, 1]\nclass = y[1]", fillcolor="#399de5ff"] ;
134 -> 140 ;
141 [label="entropy = 0.0\nsamples = 2\nvalue = [2, 0]\nclass = y[0]", fillcolor="#e58139ff"] ;
127 -> 141 ;
142 [label="X[1] <= 1.514\nentropy = 0.414\nsamples = 12\nvalue = [11, 1]\nclass = y[0]", fillcolor="#e58139e8"] ;
118 -> 142 ;
143 [label="entropy = 0.0\nsamples = 11\nvalue = [11, 0]\nclass = y[0]", fillcolor="#e58139ff"] ;
142 -> 143 ;
144 [label="entropy = 0.0\nsamples = 1\nvalue = [0, 1]\nclass = y[1]", fillcolor="#399de5ff"] ;
142 -> 144 ;
145 [label="X[1] <= 2.095\nentropy = 0.06\nsamples = 288\nvalue = [286, 2]\nclass = y[0]", fillcolor="#e58139fd"] ;
63 -> 145 ;
146 [label="X[1] <= 2.084\nentropy = 0.095\nsamples = 163\nvalue = [161, 2]\nclass = y[0]", fillcolor="#e58139fc"] ;
145 -> 146 ;
147 [label="X[0] <= 0.017\nentropy = 0.054\nsamples = 162\nvalue = [161, 1]\nclass = y[0]", fillcolor="#e58139fd"] ;
146 -> 147 ;
148 [label="entropy = 0.0\nsamples = 127\nvalue = [127, 0]\nclass = y[0]", fillcolor="#e58139ff"] ;
147 -> 148 ;
149 [label="X[0] <= 0.02\nentropy = 0.187\nsamples = 35\nvalue = [34, 1]\nclass = y[0]", fillcolor="#e58139f8"] ;
147 -> 149 ;
150 [label="entropy = 0.0\nsamples = 1\nvalue = [0, 1]\nclass = y[1]", fillcolor="#399de5ff"] ;
149 -> 150 ;
151 [label="entropy = 0.0\nsamples = 34\nvalue = [34, 0]\nclass = y[0]", fillcolor="#e58139ff"] ;
149 -> 151 ;
152 [label="entropy = 0.0\nsamples = 1\nvalue = [0, 1]\nclass = y[1]", fillcolor="#399de5ff"] ;
146 -> 152 ;
153 [label="entropy = 0.0\nsamples = 125\nvalue = [125, 0]\nclass = y[0]", fillcolor="#e58139ff"] ;
145 -> 153 ;
154 [label="X[1] <= 1.914\nentropy = 0.95\nsamples = 455\nvalue = [168, 287]\nclass = y[1]", fillcolor="#399de56a"] ;
0 -> 154 [labeldistance=2.5, labelangle=-45, headlabel="False"] ;
155 [label="X[0] <= 0.633\nentropy = 0.381\nsamples = 310\nvalue = [23, 287]\nclass = y[1]", fillcolor="#399de5eb"] ;
154 -> 155 ;
156 [label="X[1] <= -0.688\nentropy = 0.787\nsamples = 85\nvalue = [20, 65]\nclass = y[1]", fillcolor="#399de5b1"] ;
155 -> 156 ;
157 [label="X[0] <= 0.388\nentropy = 0.176\nsamples = 38\nvalue = [1, 37]\nclass = y[1]", fillcolor="#399de5f8"] ;
156 -> 157 ;
158 [label="X[0] <= 0.381\nentropy = 0.544\nsamples = 8\nvalue = [1, 7]\nclass = y[1]", fillcolor="#399de5db"] ;
157 -> 158 ;
159 [label="entropy = 0.0\nsamples = 7\nvalue = [0, 7]\nclass = y[1]", fillcolor="#399de5ff"] ;
158 -> 159 ;
160 [label="entropy = 0.0\nsamples = 1\nvalue = [1, 0]\nclass = y[0]", fillcolor="#e58139ff"] ;
158 -> 160 ;
161 [label="entropy = 0.0\nsamples = 30\nvalue = [0, 30]\nclass = y[1]", fillcolor="#399de5ff"] ;
157 -> 161 ;
162 [label="X[1] <= 0.278\nentropy = 0.973\nsamples = 47\nvalue = [19, 28]\nclass = y[1]", fillcolor="#399de552"] ;
156 -> 162 ;
163 [label="X[1] <= 0.106\nentropy = 0.837\nsamples = 15\nvalue = [11, 4]\nclass = y[0]", fillcolor="#e58139a2"] ;
162 -> 163 ;
164 [label="X[0] <= 0.394\nentropy = 0.946\nsamples = 11\nvalue = [7, 4]\nclass = y[0]", fillcolor="#e581396d"] ;
163 -> 164 ;
165 [label="X[0] <= 0.307\nentropy = 0.65\nsamples = 6\nvalue = [5, 1]\nclass = y[0]", fillcolor="#e58139cc"] ;
164 -> 165 ;
166 [label="entropy = 0.0\nsamples = 1\nvalue = [0, 1]\nclass = y[1]", fillcolor="#399de5ff"] ;
165 -> 166 ;
167 [label="entropy = 0.0\nsamples = 5\nvalue = [5, 0]\nclass = y[0]", fillcolor="#e58139ff"] ;
165 -> 167 ;
168 [label="X[1] <= -0.102\nentropy = 0.971\nsamples = 5\nvalue = [2, 3]\nclass = y[1]", fillcolor="#399de555"] ;
164 -> 168 ;
169 [label="X[1] <= -0.504\nentropy = 0.918\nsamples = 3\nvalue = [2, 1]\nclass = y[0]", fillcolor="#e581397f"] ;
168 -> 169 ;
170 [label="entropy = 0.0\nsamples = 1\nvalue = [0, 1]\nclass = y[1]", fillcolor="#399de5ff"] ;
169 -> 170 ;
171 [label="entropy = 0.0\nsamples = 2\nvalue = [2, 0]\nclass = y[0]", fillcolor="#e58139ff"] ;
169 -> 171 ;
172 [label="entropy = 0.0\nsamples = 2\nvalue = [0, 2]\nclass = y[1]", fillcolor="#399de5ff"] ;
168 -> 172 ;
173 [label="entropy = 0.0\nsamples = 4\nvalue = [4, 0]\nclass = y[0]", fillcolor="#e58139ff"] ;
163 -> 173 ;
174 [label="X[1] <= 1.681\nentropy = 0.811\nsamples = 32\nvalue = [8, 24]\nclass = y[1]", fillcolor="#399de5aa"] ;
162 -> 174 ;
175 [label="X[1] <= 1.122\nentropy = 0.677\nsamples = 28\nvalue = [5, 23]\nclass = y[1]", fillcolor="#399de5c8"] ;
174 -> 175 ;
176 [label="X[1] <= 0.94\nentropy = 0.773\nsamples = 22\nvalue = [5, 17]\nclass = y[1]", fillcolor="#399de5b4"] ;
175 -> 176 ;
177 [label="X[1] <= 0.69\nentropy = 0.702\nsamples = 21\nvalue = [4, 17]\nclass = y[1]", fillcolor="#399de5c3"] ;
176 -> 177 ;
178 [label="X[1] <= 0.388\nentropy = 0.863\nsamples = 14\nvalue = [4, 10]\nclass = y[1]", fillcolor="#399de599"] ;
177 -> 178 ;
179 [label="entropy = 0.0\nsamples = 4\nvalue = [0, 4]\nclass = y[1]", fillcolor="#399de5ff"] ;
178 -> 179 ;
180 [label="X[1] <= 0.457\nentropy = 0.971\nsamples = 10\nvalue = [4, 6]\nclass = y[1]", fillcolor="#399de555"] ;
178 -> 180 ;
181 [label="entropy = 0.0\nsamples = 2\nvalue = [2, 0]\nclass = y[0]", fillcolor="#e58139ff"] ;
180 -> 181 ;
182 [label="X[1] <= 0.574\nentropy = 0.811\nsamples = 8\nvalue = [2, 6]\nclass = y[1]", fillcolor="#399de5aa"] ;
180 -> 182 ;
183 [label="entropy = 0.0\nsamples = 4\nvalue = [0, 4]\nclass = y[1]", fillcolor="#399de5ff"] ;
182 -> 183 ;
184 [label="X[0] <= 0.444\nentropy = 1.0\nsamples = 4\nvalue = [2, 2]\nclass = y[0]", fillcolor="#e5813900"] ;
182 -> 184 ;
185 [label="entropy = 0.0\nsamples = 1\nvalue = [1, 0]\nclass = y[0]", fillcolor="#e58139ff"] ;
184 -> 185 ;
186 [label="X[1] <= 0.604\nentropy = 0.918\nsamples = 3\nvalue = [1, 2]\nclass = y[1]", fillcolor="#399de57f"] ;
184 -> 186 ;
187 [label="entropy = 0.0\nsamples = 1\nvalue = [1, 0]\nclass = y[0]", fillcolor="#e58139ff"] ;
186 -> 187 ;
188 [label="entropy = 0.0\nsamples = 2\nvalue = [0, 2]\nclass = y[1]", fillcolor="#399de5ff"] ;
186 -> 188 ;
189 [label="entropy = 0.0\nsamples = 7\nvalue = [0, 7]\nclass = y[1]", fillcolor="#399de5ff"] ;
177 -> 189 ;
190 [label="entropy = 0.0\nsamples = 1\nvalue = [1, 0]\nclass = y[0]", fillcolor="#e58139ff"] ;
176 -> 190 ;
191 [label="entropy = 0.0\nsamples = 6\nvalue = [0, 6]\nclass = y[1]", fillcolor="#399de5ff"] ;
175 -> 191 ;
192 [label="X[0] <= 0.372\nentropy = 0.811\nsamples = 4\nvalue = [3, 1]\nclass = y[0]", fillcolor="#e58139aa"] ;
174 -> 192 ;
193 [label="X[0] <= 0.358\nentropy = 1.0\nsamples = 2\nvalue = [1, 1]\nclass = y[0]", fillcolor="#e5813900"] ;
192 -> 193 ;
194 [label="entropy = 0.0\nsamples = 1\nvalue = [1, 0]\nclass = y[0]", fillcolor="#e58139ff"] ;
193 -> 194 ;
195 [label="entropy = 0.0\nsamples = 1\nvalue = [0, 1]\nclass = y[1]", fillcolor="#399de5ff"] ;
193 -> 195 ;
196 [label="entropy = 0.0\nsamples = 2\nvalue = [2, 0]\nclass = y[0]", fillcolor="#e58139ff"] ;
192 -> 196 ;
197 [label="X[1] <= 0.454\nentropy = 0.102\nsamples = 225\nvalue = [3, 222]\nclass = y[1]", fillcolor="#399de5fc"] ;
155 -> 197 ;
198 [label="entropy = 0.0\nsamples = 136\nvalue = [0, 136]\nclass = y[1]", fillcolor="#399de5ff"] ;
197 -> 198 ;
199 [label="X[1] <= 0.469\nentropy = 0.213\nsamples = 89\nvalue = [3, 86]\nclass = y[1]", fillcolor="#399de5f6"] ;
197 -> 199 ;
200 [label="entropy = 0.0\nsamples = 1\nvalue = [1, 0]\nclass = y[0]", fillcolor="#e58139ff"] ;
199 -> 200 ;
201 [label="X[1] <= 0.831\nentropy = 0.156\nsamples = 88\nvalue = [2, 86]\nclass = y[1]", fillcolor="#399de5f9"] ;
199 -> 201 ;
202 [label="X[1] <= 0.826\nentropy = 0.362\nsamples = 29\nvalue = [2, 27]\nclass = y[1]", fillcolor="#399de5ec"] ;
201 -> 202 ;
203 [label="X[0] <= 0.791\nentropy = 0.222\nsamples = 28\nvalue = [1, 27]\nclass = y[1]", fillcolor="#399de5f6"] ;
202 -> 203 ;
204 [label="entropy = 0.0\nsamples = 1\nvalue = [1, 0]\nclass = y[0]", fillcolor="#e58139ff"] ;
203 -> 204 ;
205 [label="entropy = 0.0\nsamples = 27\nvalue = [0, 27]\nclass = y[1]", fillcolor="#399de5ff"] ;
203 -> 205 ;
206 [label="entropy = 0.0\nsamples = 1\nvalue = [1, 0]\nclass = y[0]", fillcolor="#e58139ff"] ;
202 -> 206 ;
207 [label="entropy = 0.0\nsamples = 59\nvalue = [0, 59]\nclass = y[1]", fillcolor="#399de5ff"] ;
201 -> 207 ;
208 [label="entropy = 0.0\nsamples = 145\nvalue = [145, 0]\nclass = y[0]", fillcolor="#e58139ff"] ;
154 -> 208 ;
}