digraph Tree {
node [shape=box, style="filled, rounded", color="black", fontname=helvetica] ;
edge [fontname=helvetica] ;
0 [label="X[1] <= 0.206\nentropy = 0.79\nsamples = 4000\nvalue = [3051, 949]\nclass = y[0]", fillcolor="#e58139b0"] ;
1 [label="X[1] <= -0.182\nentropy = 0.512\nsamples = 2967\nvalue = [2629, 338]\nclass = y[0]", fillcolor="#e58139de"] ;
0 -> 1 [labeldistance=2.5, labelangle=45, headlabel="True"] ;
2 [label="X[1] <= -0.75\nentropy = 0.409\nsamples = 2298\nvalue = [2110, 188]\nclass = y[0]", fillcolor="#e58139e8"] ;
1 -> 2 ;
3 [label="X[0] <= 0.219\nentropy = 0.314\nsamples = 1077\nvalue = [1016, 61]\nclass = y[0]", fillcolor="#e58139f0"] ;
2 -> 3 ;
4 [label="X[1] <= -1.921\nentropy = 0.286\nsamples = 983\nvalue = [934, 49]\nclass = y[0]", fillcolor="#e58139f2"] ;
3 -> 4 ;
5 [label="entropy = 0.0\nsamples = 45\nvalue = [45, 0]\nclass = y[0]", fillcolor="#e58139ff"] ;
4 -> 5 ;
6 [label="entropy = 0.296\nsamples = 938\nvalue = [889, 49]\nclass = y[0]", fillcolor="#e58139f1"] ;
4 -> 6 ;
7 [label="X[1] <= -0.886\nentropy = 0.551\nsamples = 94\nvalue = [82, 12]\nclass = y[0]", fillcolor="#e58139da"] ;
3 -> 7 ;
8 [label="entropy = 0.878\nsamples = 37\nvalue = [26, 11]\nclass = y[0]", fillcolor="#e5813993"] ;
7 -> 8 ;
9 [label="entropy = 0.127\nsamples = 57\nvalue = [56, 1]\nclass = y[0]", fillcolor="#e58139fa"] ;
7 -> 9 ;
10 [label="X[0] <= -0.794\nentropy = 0.482\nsamples = 1221\nvalue = [1094, 127]\nclass = y[0]", fillcolor="#e58139e1"] ;
2 -> 10 ;
11 [label="X[0] <= -1.255\nentropy = 0.345\nsamples = 233\nvalue = [218, 15]\nclass = y[0]", fillcolor="#e58139ed"] ;
10 -> 11 ;
12 [label="entropy = 0.521\nsamples = 94\nvalue = [83, 11]\nclass = y[0]", fillcolor="#e58139dd"] ;
11 -> 12 ;
13 [label="entropy = 0.188\nsamples = 139\nvalue = [135, 4]\nclass = y[0]", fillcolor="#e58139f7"] ;
11 -> 13 ;
14 [label="X[0] <= -0.766\nentropy = 0.51\nsamples = 988\nvalue = [876, 112]\nclass = y[0]", fillcolor="#e58139de"] ;
10 -> 14 ;
15 [label="entropy = 1.0\nsamples = 6\nvalue = [3, 3]\nclass = y[0]", fillcolor="#e5813900"] ;
14 -> 15 ;
16 [label="entropy = 0.503\nsamples = 982\nvalue = [873, 109]\nclass = y[0]", fillcolor="#e58139df"] ;
14 -> 16 ;
17 [label="X[0] <= 0.45\nentropy = 0.768\nsamples = 669\nvalue = [519, 150]\nclass = y[0]", fillcolor="#e58139b5"] ;
1 -> 17 ;
18 [label="X[0] <= -1.143\nentropy = 0.944\nsamples = 310\nvalue = [198, 112]\nclass = y[0]", fillcolor="#e581396f"] ;
17 -> 18 ;
19 [label="X[1] <= 0.019\nentropy = 0.953\nsamples = 59\nvalue = [22, 37]\nclass = y[1]", fillcolor="#399de567"] ;
18 -> 19 ;
20 [label="entropy = 0.958\nsamples = 29\nvalue = [18, 11]\nclass = y[0]", fillcolor="#e5813963"] ;
19 -> 20 ;
21 [label="entropy = 0.567\nsamples = 30\nvalue = [4, 26]\nclass = y[1]", fillcolor="#399de5d8"] ;
19 -> 21 ;
22 [label="X[0] <= 0.073\nentropy = 0.88\nsamples = 251\nvalue = [176, 75]\nclass = y[0]", fillcolor="#e5813992"] ;
18 -> 22 ;
23 [label="entropy = 0.811\nsamples = 184\nvalue = [138, 46]\nclass = y[0]", fillcolor="#e58139aa"] ;
22 -> 23 ;
24 [label="entropy = 0.987\nsamples = 67\nvalue = [38, 29]\nclass = y[0]", fillcolor="#e581393c"] ;
22 -> 24 ;
25 [label="X[0] <= 1.566\nentropy = 0.487\nsamples = 359\nvalue = [321, 38]\nclass = y[0]", fillcolor="#e58139e1"] ;
17 -> 25 ;
26 [label="X[0] <= 1.561\nentropy = 0.547\nsamples = 293\nvalue = [256, 37]\nclass = y[0]", fillcolor="#e58139da"] ;
25 -> 26 ;
27 [label="entropy = 0.539\nsamples = 292\nvalue = [256, 36]\nclass = y[0]", fillcolor="#e58139db"] ;
26 -> 27 ;
28 [label="entropy = 0.0\nsamples = 1\nvalue = [0, 1]\nclass = y[1]", fillcolor="#399de5ff"] ;
26 -> 28 ;
29 [label="X[0] <= 1.915\nentropy = 0.113\nsamples = 66\nvalue = [65, 1]\nclass = y[0]", fillcolor="#e58139fb"] ;
25 -> 29 ;
30 [label="entropy = 0.0\nsamples = 49\nvalue = [49, 0]\nclass = y[0]", fillcolor="#e58139ff"] ;
29 -> 30 ;
31 [label="entropy = 0.323\nsamples = 17\nvalue = [16, 1]\nclass = y[0]", fillcolor="#e58139ef"] ;
29 -> 31 ;
32 [label="X[0] <= 1.547\nentropy = 0.976\nsamples = 1033\nvalue = [422, 611]\nclass = y[1]", fillcolor="#399de54f"] ;
0 -> 32 [labeldistance=2.5, labelangle=-45, headlabel="False"] ;
33 [label="X[1] <= 0.536\nentropy = 0.811\nsamples = 780\nvalue = [195, 585]\nclass = y[1]", fillcolor="#399de5aa"] ;
32 -> 33 ;
34 [label="X[0] <= -0.732\nentropy = 0.96\nsamples = 386\nvalue = [148, 238]\nclass = y[1]", fillcolor="#399de560"] ;
33 -> 34 ;
35 [label="X[0] <= -1.293\nentropy = 0.521\nsamples = 94\nvalue = [11, 83]\nclass = y[1]", fillcolor="#399de5dd"] ;
34 -> 35 ;
36 [label="entropy = 0.0\nsamples = 34\nvalue = [0, 34]\nclass = y[1]", fillcolor="#399de5ff"] ;
35 -> 36 ;
37 [label="entropy = 0.687\nsamples = 60\nvalue = [11, 49]\nclass = y[1]", fillcolor="#399de5c6"] ;
35 -> 37 ;
38 [label="X[0] <= 0.125\nentropy = 0.997\nsamples = 292\nvalue = [137, 155]\nclass = y[1]", fillcolor="#399de51e"] ;
34 -> 38 ;
39 [label="entropy = 0.937\nsamples = 147\nvalue = [52, 95]\nclass = y[1]", fillcolor="#399de573"] ;
38 -> 39 ;
40 [label="entropy = 0.978\nsamples = 145\nvalue = [85, 60]\nclass = y[0]", fillcolor="#e581394b"] ;
38 -> 40 ;
41 [label="X[1] <= 0.75\nentropy = 0.527\nsamples = 394\nvalue = [47, 347]\nclass = y[1]", fillcolor="#399de5dc"] ;
33 -> 41 ;
42 [label="X[1] <= 0.566\nentropy = 0.692\nsamples = 167\nvalue = [31, 136]\nclass = y[1]", fillcolor="#399de5c5"] ;
41 -> 42 ;
43 [label="entropy = 0.0\nsamples = 22\nvalue = [0, 22]\nclass = y[1]", fillcolor="#399de5ff"] ;
42 -> 43 ;
44 [label="entropy = 0.749\nsamples = 145\nvalue = [31, 114]\nclass = y[1]", fillcolor="#399de5ba"] ;
42 -> 44 ;
45 [label="X[0] <= 1.249\nentropy = 0.368\nsamples = 227\nvalue = [16, 211]\nclass = y[1]", fillcolor="#399de5ec"] ;
41 -> 45 ;
46 [label="entropy = 0.401\nsamples = 201\nvalue = [16, 185]\nclass = y[1]", fillcolor="#399de5e9"] ;
45 -> 46 ;
47 [label="entropy = 0.0\nsamples = 26\nvalue = [0, 26]\nclass = y[1]", fillcolor="#399de5ff"] ;
45 -> 47 ;
48 [label="X[1] <= 2.041\nentropy = 0.478\nsamples = 253\nvalue = [227, 26]\nclass = y[0]", fillcolor="#e58139e2"] ;
32 -> 48 ;
49 [label="X[0] <= 1.752\nentropy = 0.466\nsamples = 252\nvalue = [227, 25]\nclass = y[0]", fillcolor="#e58139e3"] ;
48 -> 49 ;
50 [label="X[1] <= 0.829\nentropy = 0.712\nsamples = 41\nvalue = [33, 8]\nclass = y[0]", fillcolor="#e58139c1"] ;
49 -> 50 ;
51 [label="entropy = 0.414\nsamples = 36\nvalue = [33, 3]\nclass = y[0]", fillcolor="#e58139e8"] ;
50 -> 51 ;
52 [label="entropy = 0.0\nsamples = 5\nvalue = [0, 5]\nclass = y[1]", fillcolor="#399de5ff"] ;
50 -> 52 ;
53 [label="X[0] <= 1.827\nentropy = 0.404\nsamples = 211\nvalue = [194, 17]\nclass = y[0]", fillcolor="#e58139e9"] ;
49 -> 53 ;
54 [label="entropy = 0.0\nsamples = 21\nvalue = [21, 0]\nclass = y[0]", fillcolor="#e58139ff"] ;
53 -> 54 ;
55 [label="entropy = 0.435\nsamples = 190\nvalue = [173, 17]\nclass = y[0]", fillcolor="#e58139e6"] ;
53 -> 55 ;
56 [label="entropy = 0.0\nsamples = 1\nvalue = [0, 1]\nclass = y[1]", fillcolor="#399de5ff"] ;
48 -> 56 ;
}