digraph Tree {
node [shape=box, style="filled, rounded", color="black", fontname=helvetica] ;
edge [fontname=helvetica] ;
0 [label="X[1] <= 0.057\nentropy = 0.886\nsamples = 3049\nvalue = [2122, 927]\nclass = y[0]", fillcolor="#e5813990"] ;
1 [label="X[1] <= -0.344\nentropy = 0.544\nsamples = 2101\nvalue = [1838, 263]\nclass = y[0]", fillcolor="#e58139db"] ;
0 -> 1 [labeldistance=2.5, labelangle=45, headlabel="True"] ;
2 [label="X[0] <= -0.001\nentropy = 0.444\nsamples = 1560\nvalue = [1416, 144]\nclass = y[0]", fillcolor="#e58139e5"] ;
1 -> 2 ;
3 [label="X[1] <= -1.087\nentropy = 0.368\nsamples = 1105\nvalue = [1027, 78]\nclass = y[0]", fillcolor="#e58139ec"] ;
2 -> 3 ;
4 [label="X[1] <= -1.156\nentropy = 0.216\nsamples = 436\nvalue = [421, 15]\nclass = y[0]", fillcolor="#e58139f6"] ;
3 -> 4 ;
5 [label="entropy = 0.239\nsamples = 382\nvalue = [367, 15]\nclass = y[0]", fillcolor="#e58139f5"] ;
4 -> 5 ;
6 [label="entropy = 0.0\nsamples = 54\nvalue = [54, 0]\nclass = y[0]", fillcolor="#e58139ff"] ;
4 -> 6 ;
7 [label="X[1] <= -1.084\nentropy = 0.45\nsamples = 669\nvalue = [606, 63]\nclass = y[0]", fillcolor="#e58139e4"] ;
3 -> 7 ;
8 [label="entropy = 0.0\nsamples = 3\nvalue = [0, 3]\nclass = y[1]", fillcolor="#399de5ff"] ;
7 -> 8 ;
9 [label="entropy = 0.437\nsamples = 666\nvalue = [606, 60]\nclass = y[0]", fillcolor="#e58139e6"] ;
7 -> 9 ;
10 [label="X[1] <= -1.258\nentropy = 0.597\nsamples = 455\nvalue = [389, 66]\nclass = y[0]", fillcolor="#e58139d4"] ;
2 -> 10 ;
11 [label="entropy = 0.0\nsamples = 4\nvalue = [0, 4]\nclass = y[1]", fillcolor="#399de5ff"] ;
10 -> 11 ;
12 [label="X[0] <= 1.037\nentropy = 0.578\nsamples = 451\nvalue = [389, 62]\nclass = y[0]", fillcolor="#e58139d6"] ;
10 -> 12 ;
13 [label="entropy = 0.601\nsamples = 423\nvalue = [361, 62]\nclass = y[0]", fillcolor="#e58139d3"] ;
12 -> 13 ;
14 [label="entropy = 0.0\nsamples = 28\nvalue = [28, 0]\nclass = y[0]", fillcolor="#e58139ff"] ;
12 -> 14 ;
15 [label="X[0] <= -1.463\nentropy = 0.76\nsamples = 541\nvalue = [422, 119]\nclass = y[0]", fillcolor="#e58139b7"] ;
1 -> 15 ;
16 [label="entropy = 0.0\nsamples = 16\nvalue = [0, 16]\nclass = y[1]", fillcolor="#399de5ff"] ;
15 -> 16 ;
17 [label="X[0] <= 0.962\nentropy = 0.714\nsamples = 525\nvalue = [422, 103]\nclass = y[0]", fillcolor="#e58139c1"] ;
15 -> 17 ;
18 [label="X[1] <= 0.019\nentropy = 0.814\nsamples = 354\nvalue = [265, 89]\nclass = y[0]", fillcolor="#e58139a9"] ;
17 -> 18 ;
19 [label="entropy = 0.782\nsamples = 336\nvalue = [258, 78]\nclass = y[0]", fillcolor="#e58139b2"] ;
18 -> 19 ;
20 [label="entropy = 0.964\nsamples = 18\nvalue = [7, 11]\nclass = y[1]", fillcolor="#399de55d"] ;
18 -> 20 ;
21 [label="X[1] <= 0.004\nentropy = 0.409\nsamples = 171\nvalue = [157, 14]\nclass = y[0]", fillcolor="#e58139e8"] ;
17 -> 21 ;
22 [label="entropy = 0.469\nsamples = 140\nvalue = [126, 14]\nclass = y[0]", fillcolor="#e58139e3"] ;
21 -> 22 ;
23 [label="entropy = 0.0\nsamples = 31\nvalue = [31, 0]\nclass = y[0]", fillcolor="#e58139ff"] ;
21 -> 23 ;
24 [label="X[0] <= 1.113\nentropy = 0.881\nsamples = 948\nvalue = [284, 664]\nclass = y[1]", fillcolor="#399de592"] ;
0 -> 24 [labeldistance=2.5, labelangle=-45, headlabel="False"] ;
25 [label="X[1] <= 0.335\nentropy = 0.273\nsamples = 619\nvalue = [29, 590]\nclass = y[1]", fillcolor="#399de5f2"] ;
24 -> 25 ;
26 [label="X[0] <= -0.88\nentropy = 0.617\nsamples = 183\nvalue = [28, 155]\nclass = y[1]", fillcolor="#399de5d1"] ;
25 -> 26 ;
27 [label="entropy = 0.0\nsamples = 66\nvalue = [0, 66]\nclass = y[1]", fillcolor="#399de5ff"] ;
26 -> 27 ;
28 [label="X[1] <= 0.216\nentropy = 0.794\nsamples = 117\nvalue = [28, 89]\nclass = y[1]", fillcolor="#399de5af"] ;
26 -> 28 ;
29 [label="entropy = 0.928\nsamples = 64\nvalue = [22, 42]\nclass = y[1]", fillcolor="#399de579"] ;
28 -> 29 ;
30 [label="entropy = 0.51\nsamples = 53\nvalue = [6, 47]\nclass = y[1]", fillcolor="#399de5de"] ;
28 -> 30 ;
31 [label="X[0] <= 0.39\nentropy = 0.023\nsamples = 436\nvalue = [1, 435]\nclass = y[1]", fillcolor="#399de5fe"] ;
25 -> 31 ;
32 [label="entropy = 0.0\nsamples = 299\nvalue = [0, 299]\nclass = y[1]", fillcolor="#399de5ff"] ;
31 -> 32 ;
33 [label="X[0] <= 0.394\nentropy = 0.062\nsamples = 137\nvalue = [1, 136]\nclass = y[1]", fillcolor="#399de5fd"] ;
31 -> 33 ;
34 [label="entropy = 0.0\nsamples = 1\nvalue = [1, 0]\nclass = y[0]", fillcolor="#e58139ff"] ;
33 -> 34 ;
35 [label="entropy = 0.0\nsamples = 136\nvalue = [0, 136]\nclass = y[1]", fillcolor="#399de5ff"] ;
33 -> 35 ;
36 [label="X[0] <= 1.583\nentropy = 0.769\nsamples = 329\nvalue = [255, 74]\nclass = y[0]", fillcolor="#e58139b5"] ;
24 -> 36 ;
37 [label="X[1] <= 0.413\nentropy = 0.996\nsamples = 99\nvalue = [53, 46]\nclass = y[0]", fillcolor="#e5813922"] ;
36 -> 37 ;
38 [label="X[0] <= 1.341\nentropy = 0.52\nsamples = 60\nvalue = [53, 7]\nclass = y[0]", fillcolor="#e58139dd"] ;
37 -> 38 ;
39 [label="entropy = 0.211\nsamples = 30\nvalue = [29, 1]\nclass = y[0]", fillcolor="#e58139f6"] ;
38 -> 39 ;
40 [label="entropy = 0.722\nsamples = 30\nvalue = [24, 6]\nclass = y[0]", fillcolor="#e58139bf"] ;
38 -> 40 ;
41 [label="entropy = 0.0\nsamples = 39\nvalue = [0, 39]\nclass = y[1]", fillcolor="#399de5ff"] ;
37 -> 41 ;
42 [label="X[1] <= 1.384\nentropy = 0.534\nsamples = 230\nvalue = [202, 28]\nclass = y[0]", fillcolor="#e58139dc"] ;
36 -> 42 ;
43 [label="X[1] <= 0.405\nentropy = 0.476\nsamples = 215\nvalue = [193, 22]\nclass = y[0]", fillcolor="#e58139e2"] ;
42 -> 43 ;
44 [label="entropy = 0.276\nsamples = 84\nvalue = [80, 4]\nclass = y[0]", fillcolor="#e58139f2"] ;
43 -> 44 ;
45 [label="entropy = 0.577\nsamples = 131\nvalue = [113, 18]\nclass = y[0]", fillcolor="#e58139d6"] ;
43 -> 45 ;
46 [label="X[0] <= 2.587\nentropy = 0.971\nsamples = 15\nvalue = [9, 6]\nclass = y[0]", fillcolor="#e5813955"] ;
42 -> 46 ;
47 [label="entropy = 0.0\nsamples = 5\nvalue = [0, 5]\nclass = y[1]", fillcolor="#399de5ff"] ;
46 -> 47 ;
48 [label="entropy = 0.469\nsamples = 10\nvalue = [9, 1]\nclass = y[0]", fillcolor="#e58139e3"] ;
46 -> 48 ;
}