digraph Tree {
node [shape=box, style="filled, rounded", color="black", fontname=helvetica] ;
edge [fontname=helvetica] ;
0 [label="X[1] <= 0.208\nentropy = 0.679\nsamples = 3155\nvalue = [2589, 566]\nclass = y[0]", fillcolor="#e58139c7"] ;
1 [label="X[1] <= -0.182\nentropy = 0.47\nsamples = 2580\nvalue = [2321, 259]\nclass = y[0]", fillcolor="#e58139e3"] ;
0 -> 1 [labeldistance=2.5, labelangle=45, headlabel="True"] ;
2 [label="X[1] <= -1.095\nentropy = 0.398\nsamples = 2084\nvalue = [1920, 164]\nclass = y[0]", fillcolor="#e58139e9"] ;
1 -> 2 ;
3 [label="X[1] <= -1.921\nentropy = 0.24\nsamples = 505\nvalue = [485, 20]\nclass = y[0]", fillcolor="#e58139f4"] ;
2 -> 3 ;
4 [label="entropy = 0.0\nsamples = 44\nvalue = [44, 0]\nclass = y[0]", fillcolor="#e58139ff"] ;
3 -> 4 ;
5 [label="X[1] <= -1.907\nentropy = 0.258\nsamples = 461\nvalue = [441, 20]\nclass = y[0]", fillcolor="#e58139f3"] ;
3 -> 5 ;
6 [label="X[0] <= -1.689\nentropy = 0.811\nsamples = 4\nvalue = [1, 3]\nclass = y[1]", fillcolor="#399de5aa"] ;
5 -> 6 ;
7 [label="entropy = 0.0\nsamples = 3\nvalue = [0, 3]\nclass = y[1]", fillcolor="#399de5ff"] ;
6 -> 7 ;
8 [label="entropy = 0.0\nsamples = 1\nvalue = [1, 0]\nclass = y[0]", fillcolor="#e58139ff"] ;
6 -> 8 ;
9 [label="X[1] <= -1.534\nentropy = 0.229\nsamples = 457\nvalue = [440, 17]\nclass = y[0]", fillcolor="#e58139f5"] ;
5 -> 9 ;
10 [label="X[1] <= -1.765\nentropy = 0.083\nsamples = 97\nvalue = [96, 1]\nclass = y[0]", fillcolor="#e58139fc"] ;
9 -> 10 ;
11 [label="X[1] <= -1.767\nentropy = 0.235\nsamples = 26\nvalue = [25, 1]\nclass = y[0]", fillcolor="#e58139f5"] ;
10 -> 11 ;
12 [label="entropy = 0.0\nsamples = 25\nvalue = [25, 0]\nclass = y[0]", fillcolor="#e58139ff"] ;
11 -> 12 ;
13 [label="entropy = 0.0\nsamples = 1\nvalue = [0, 1]\nclass = y[1]", fillcolor="#399de5ff"] ;
11 -> 13 ;
14 [label="entropy = 0.0\nsamples = 71\nvalue = [71, 0]\nclass = y[0]", fillcolor="#e58139ff"] ;
10 -> 14 ;
15 [label="X[1] <= -1.532\nentropy = 0.262\nsamples = 360\nvalue = [344, 16]\nclass = y[0]", fillcolor="#e58139f3"] ;
9 -> 15 ;
16 [label="entropy = 0.0\nsamples = 2\nvalue = [0, 2]\nclass = y[1]", fillcolor="#399de5ff"] ;
15 -> 16 ;
17 [label="X[0] <= -1.571\nentropy = 0.238\nsamples = 358\nvalue = [344, 14]\nclass = y[0]", fillcolor="#e58139f5"] ;
15 -> 17 ;
18 [label="entropy = 0.0\nsamples = 39\nvalue = [39, 0]\nclass = y[0]", fillcolor="#e58139ff"] ;
17 -> 18 ;
19 [label="X[0] <= -1.54\nentropy = 0.26\nsamples = 319\nvalue = [305, 14]\nclass = y[0]", fillcolor="#e58139f3"] ;
17 -> 19 ;
20 [label="X[1] <= -1.414\nentropy = 0.918\nsamples = 3\nvalue = [1, 2]\nclass = y[1]", fillcolor="#399de57f"] ;
19 -> 20 ;
21 [label="entropy = 0.0\nsamples = 1\nvalue = [1, 0]\nclass = y[0]", fillcolor="#e58139ff"] ;
20 -> 21 ;
22 [label="entropy = 0.0\nsamples = 2\nvalue = [0, 2]\nclass = y[1]", fillcolor="#399de5ff"] ;
20 -> 22 ;
23 [label="X[1] <= -1.256\nentropy = 0.233\nsamples = 316\nvalue = [304, 12]\nclass = y[0]", fillcolor="#e58139f5"] ;
19 -> 23 ;
24 [label="X[1] <= -1.258\nentropy = 0.312\nsamples = 160\nvalue = [151, 9]\nclass = y[0]", fillcolor="#e58139f0"] ;
23 -> 24 ;
25 [label="X[0] <= -0.304\nentropy = 0.288\nsamples = 159\nvalue = [151, 8]\nclass = y[0]", fillcolor="#e58139f1"] ;
24 -> 25 ;
26 [label="X[0] <= -0.803\nentropy = 0.221\nsamples = 141\nvalue = [136, 5]\nclass = y[0]", fillcolor="#e58139f6"] ;
25 -> 26 ;
27 [label="X[0] <= -0.805\nentropy = 0.353\nsamples = 75\nvalue = [70, 5]\nclass = y[0]", fillcolor="#e58139ed"] ;
26 -> 27 ;
28 [label="X[1] <= -1.526\nentropy = 0.303\nsamples = 74\nvalue = [70, 4]\nclass = y[0]", fillcolor="#e58139f0"] ;
27 -> 28 ;
29 [label="entropy = 0.0\nsamples = 1\nvalue = [0, 1]\nclass = y[1]", fillcolor="#399de5ff"] ;
28 -> 29 ;
30 [label="X[1] <= -1.37\nentropy = 0.247\nsamples = 73\nvalue = [70, 3]\nclass = y[0]", fillcolor="#e58139f4"] ;
28 -> 30 ;
31 [label="entropy = 0.0\nsamples = 43\nvalue = [43, 0]\nclass = y[0]", fillcolor="#e58139ff"] ;
30 -> 31 ;
32 [label="X[1] <= -1.368\nentropy = 0.469\nsamples = 30\nvalue = [27, 3]\nclass = y[0]", fillcolor="#e58139e3"] ;
30 -> 32 ;
33 [label="entropy = 0.0\nsamples = 1\nvalue = [0, 1]\nclass = y[1]", fillcolor="#399de5ff"] ;
32 -> 33 ;
34 [label="X[1] <= -1.32\nentropy = 0.362\nsamples = 29\nvalue = [27, 2]\nclass = y[0]", fillcolor="#e58139ec"] ;
32 -> 34 ;
35 [label="entropy = 0.0\nsamples = 13\nvalue = [13, 0]\nclass = y[0]", fillcolor="#e58139ff"] ;
34 -> 35 ;
36 [label="X[1] <= -1.314\nentropy = 0.544\nsamples = 16\nvalue = [14, 2]\nclass = y[0]", fillcolor="#e58139db"] ;
34 -> 36 ;
37 [label="entropy = 0.0\nsamples = 1\nvalue = [0, 1]\nclass = y[1]", fillcolor="#399de5ff"] ;
36 -> 37 ;
38 [label="X[1] <= -1.273\nentropy = 0.353\nsamples = 15\nvalue = [14, 1]\nclass = y[0]", fillcolor="#e58139ed"] ;
36 -> 38 ;
39 [label="entropy = 0.0\nsamples = 11\nvalue = [11, 0]\nclass = y[0]", fillcolor="#e58139ff"] ;
38 -> 39 ;
40 [label="X[1] <= -1.268\nentropy = 0.811\nsamples = 4\nvalue = [3, 1]\nclass = y[0]", fillcolor="#e58139aa"] ;
38 -> 40 ;
41 [label="entropy = 0.0\nsamples = 1\nvalue = [0, 1]\nclass = y[1]", fillcolor="#399de5ff"] ;
40 -> 41 ;
42 [label="entropy = 0.0\nsamples = 3\nvalue = [3, 0]\nclass = y[0]", fillcolor="#e58139ff"] ;
40 -> 42 ;
43 [label="entropy = 0.0\nsamples = 1\nvalue = [0, 1]\nclass = y[1]", fillcolor="#399de5ff"] ;
27 -> 43 ;
44 [label="entropy = 0.0\nsamples = 66\nvalue = [66, 0]\nclass = y[0]", fillcolor="#e58139ff"] ;
26 -> 44 ;
45 [label="X[1] <= -1.393\nentropy = 0.65\nsamples = 18\nvalue = [15, 3]\nclass = y[0]", fillcolor="#e58139cc"] ;
25 -> 45 ;
46 [label="X[0] <= 0.282\nentropy = 0.918\nsamples = 3\nvalue = [1, 2]\nclass = y[1]", fillcolor="#399de57f"] ;
45 -> 46 ;
47 [label="entropy = 0.0\nsamples = 2\nvalue = [0, 2]\nclass = y[1]", fillcolor="#399de5ff"] ;
46 -> 47 ;
48 [label="entropy = 0.0\nsamples = 1\nvalue = [1, 0]\nclass = y[0]", fillcolor="#e58139ff"] ;
46 -> 48 ;
49 [label="X[0] <= -0.248\nentropy = 0.353\nsamples = 15\nvalue = [14, 1]\nclass = y[0]", fillcolor="#e58139ed"] ;
45 -> 49 ;
50 [label="entropy = 0.0\nsamples = 1\nvalue = [0, 1]\nclass = y[1]", fillcolor="#399de5ff"] ;
49 -> 50 ;
51 [label="entropy = 0.0\nsamples = 14\nvalue = [14, 0]\nclass = y[0]", fillcolor="#e58139ff"] ;
49 -> 51 ;
52 [label="entropy = 0.0\nsamples = 1\nvalue = [0, 1]\nclass = y[1]", fillcolor="#399de5ff"] ;
24 -> 52 ;
53 [label="X[0] <= -0.612\nentropy = 0.137\nsamples = 156\nvalue = [153, 3]\nclass = y[0]", fillcolor="#e58139fa"] ;
23 -> 53 ;
54 [label="entropy = 0.0\nsamples = 70\nvalue = [70, 0]\nclass = y[0]", fillcolor="#e58139ff"] ;
53 -> 54 ;
55 [label="X[0] <= -0.603\nentropy = 0.218\nsamples = 86\nvalue = [83, 3]\nclass = y[0]", fillcolor="#e58139f6"] ;
53 -> 55 ;
56 [label="entropy = 0.0\nsamples = 1\nvalue = [0, 1]\nclass = y[1]", fillcolor="#399de5ff"] ;
55 -> 56 ;
57 [label="X[1] <= -1.159\nentropy = 0.161\nsamples = 85\nvalue = [83, 2]\nclass = y[0]", fillcolor="#e58139f9"] ;
55 -> 57 ;
58 [label="entropy = 0.0\nsamples = 48\nvalue = [48, 0]\nclass = y[0]", fillcolor="#e58139ff"] ;
57 -> 58 ;
59 [label="X[1] <= -1.155\nentropy = 0.303\nsamples = 37\nvalue = [35, 2]\nclass = y[0]", fillcolor="#e58139f0"] ;
57 -> 59 ;
60 [label="entropy = 0.0\nsamples = 1\nvalue = [0, 1]\nclass = y[1]", fillcolor="#399de5ff"] ;
59 -> 60 ;
61 [label="X[0] <= -0.445\nentropy = 0.183\nsamples = 36\nvalue = [35, 1]\nclass = y[0]", fillcolor="#e58139f8"] ;
59 -> 61 ;
62 [label="X[0] <= -0.494\nentropy = 0.592\nsamples = 7\nvalue = [6, 1]\nclass = y[0]", fillcolor="#e58139d4"] ;
61 -> 62 ;
63 [label="entropy = 0.0\nsamples = 6\nvalue = [6, 0]\nclass = y[0]", fillcolor="#e58139ff"] ;
62 -> 63 ;
64 [label="entropy = 0.0\nsamples = 1\nvalue = [0, 1]\nclass = y[1]", fillcolor="#399de5ff"] ;
62 -> 64 ;
65 [label="entropy = 0.0\nsamples = 29\nvalue = [29, 0]\nclass = y[0]", fillcolor="#e58139ff"] ;
61 -> 65 ;
66 [label="X[0] <= 0.963\nentropy = 0.44\nsamples = 1579\nvalue = [1435, 144]\nclass = y[0]", fillcolor="#e58139e5"] ;
2 -> 66 ;
67 [label="X[0] <= 0.948\nentropy = 0.456\nsamples = 1461\nvalue = [1321, 140]\nclass = y[0]", fillcolor="#e58139e4"] ;
66 -> 67 ;
68 [label="X[1] <= -1.07\nentropy = 0.448\nsamples = 1456\nvalue = [1320, 136]\nclass = y[0]", fillcolor="#e58139e5"] ;
67 -> 68 ;
69 [label="X[0] <= -0.672\nentropy = 0.811\nsamples = 28\nvalue = [21, 7]\nclass = y[0]", fillcolor="#e58139aa"] ;
68 -> 69 ;
70 [label="X[0] <= -1.458\nentropy = 0.994\nsamples = 11\nvalue = [6, 5]\nclass = y[0]", fillcolor="#e581392a"] ;
69 -> 70 ;
71 [label="entropy = 0.0\nsamples = 5\nvalue = [5, 0]\nclass = y[0]", fillcolor="#e58139ff"] ;
70 -> 71 ;
72 [label="X[0] <= -1.063\nentropy = 0.65\nsamples = 6\nvalue = [1, 5]\nclass = y[1]", fillcolor="#399de5cc"] ;
70 -> 72 ;
73 [label="X[1] <= -1.078\nentropy = 1.0\nsamples = 2\nvalue = [1, 1]\nclass = y[0]", fillcolor="#e5813900"] ;
72 -> 73 ;
74 [label="entropy = 0.0\nsamples = 1\nvalue = [1, 0]\nclass = y[0]", fillcolor="#e58139ff"] ;
73 -> 74 ;
75 [label="entropy = 0.0\nsamples = 1\nvalue = [0, 1]\nclass = y[1]", fillcolor="#399de5ff"] ;
73 -> 75 ;
76 [label="entropy = 0.0\nsamples = 4\nvalue = [0, 4]\nclass = y[1]", fillcolor="#399de5ff"] ;
72 -> 76 ;
77 [label="X[0] <= 0.186\nentropy = 0.523\nsamples = 17\nvalue = [15, 2]\nclass = y[0]", fillcolor="#e58139dd"] ;
69 -> 77 ;
78 [label="X[0] <= -0.462\nentropy = 0.337\nsamples = 16\nvalue = [15, 1]\nclass = y[0]", fillcolor="#e58139ee"] ;
77 -> 78 ;
79 [label="X[0] <= -0.49\nentropy = 0.722\nsamples = 5\nvalue = [4, 1]\nclass = y[0]", fillcolor="#e58139bf"] ;
78 -> 79 ;
80 [label="entropy = 0.0\nsamples = 4\nvalue = [4, 0]\nclass = y[0]", fillcolor="#e58139ff"] ;
79 -> 80 ;
81 [label="entropy = 0.0\nsamples = 1\nvalue = [0, 1]\nclass = y[1]", fillcolor="#399de5ff"] ;
79 -> 81 ;
82 [label="entropy = 0.0\nsamples = 11\nvalue = [11, 0]\nclass = y[0]", fillcolor="#e58139ff"] ;
78 -> 82 ;
83 [label="entropy = 0.0\nsamples = 1\nvalue = [0, 1]\nclass = y[1]", fillcolor="#399de5ff"] ;
77 -> 83 ;
84 [label="X[1] <= -0.617\nentropy = 0.438\nsamples = 1428\nvalue = [1299, 129]\nclass = y[0]", fillcolor="#e58139e6"] ;
68 -> 84 ;
85 [label="X[1] <= -0.638\nentropy = 0.369\nsamples = 719\nvalue = [668, 51]\nclass = y[0]", fillcolor="#e58139ec"] ;
84 -> 85 ;
86 [label="X[1] <= -0.639\nentropy = 0.381\nsamples = 688\nvalue = [637, 51]\nclass = y[0]", fillcolor="#e58139eb"] ;
85 -> 86 ;
87 [label="X[1] <= -1.056\nentropy = 0.376\nsamples = 687\nvalue = [637, 50]\nclass = y[0]", fillcolor="#e58139eb"] ;
86 -> 87 ;
88 [label="entropy = 0.0\nsamples = 19\nvalue = [19, 0]\nclass = y[0]", fillcolor="#e58139ff"] ;
87 -> 88 ;
89 [label="X[1] <= -1.055\nentropy = 0.384\nsamples = 668\nvalue = [618, 50]\nclass = y[0]", fillcolor="#e58139ea"] ;
87 -> 89 ;
90 [label="entropy = 0.0\nsamples = 1\nvalue = [0, 1]\nclass = y[1]", fillcolor="#399de5ff"] ;
89 -> 90 ;
91 [label="X[0] <= 0.716\nentropy = 0.379\nsamples = 667\nvalue = [618, 49]\nclass = y[0]", fillcolor="#e58139eb"] ;
89 -> 91 ;
92 [label="X[0] <= -1.105\nentropy = 0.37\nsamples = 660\nvalue = [613, 47]\nclass = y[0]", fillcolor="#e58139eb"] ;
91 -> 92 ;
93 [label="X[0] <= -1.168\nentropy = 0.51\nsamples = 106\nvalue = [94, 12]\nclass = y[0]", fillcolor="#e58139de"] ;
92 -> 93 ;
94 [label="X[1] <= -0.72\nentropy = 0.405\nsamples = 99\nvalue = [91, 8]\nclass = y[0]", fillcolor="#e58139e9"] ;
93 -> 94 ;
95 [label="X[1] <= -0.727\nentropy = 0.494\nsamples = 74\nvalue = [66, 8]\nclass = y[0]", fillcolor="#e58139e0"] ;
94 -> 95 ;
96 [label="X[1] <= -0.808\nentropy = 0.456\nsamples = 73\nvalue = [66, 7]\nclass = y[0]", fillcolor="#e58139e4"] ;
95 -> 96 ;
97 [label="X[1] <= -0.816\nentropy = 0.544\nsamples = 56\nvalue = [49, 7]\nclass = y[0]", fillcolor="#e58139db"] ;
96 -> 97 ;
98 [label="X[1] <= -0.914\nentropy = 0.451\nsamples = 53\nvalue = [48, 5]\nclass = y[0]", fillcolor="#e58139e4"] ;
97 -> 98 ;
99 [label="X[1] <= -0.916\nentropy = 0.571\nsamples = 37\nvalue = [32, 5]\nclass = y[0]", fillcolor="#e58139d7"] ;
98 -> 99 ;
100 [label="X[1] <= -0.995\nentropy = 0.503\nsamples = 36\nvalue = [32, 4]\nclass = y[0]", fillcolor="#e58139df"] ;
99 -> 100 ;
101 [label="X[1] <= -1.01\nentropy = 0.811\nsamples = 12\nvalue = [9, 3]\nclass = y[0]", fillcolor="#e58139aa"] ;
100 -> 101 ;
102 [label="X[0] <= -1.28\nentropy = 0.684\nsamples = 11\nvalue = [9, 2]\nclass = y[0]", fillcolor="#e58139c6"] ;
101 -> 102 ;
103 [label="X[0] <= -1.404\nentropy = 0.811\nsamples = 8\nvalue = [6, 2]\nclass = y[0]", fillcolor="#e58139aa"] ;
102 -> 103 ;
104 [label="X[1] <= -1.036\nentropy = 0.592\nsamples = 7\nvalue = [6, 1]\nclass = y[0]", fillcolor="#e58139d4"] ;
103 -> 104 ;
105 [label="X[0] <= -2.041\nentropy = 1.0\nsamples = 2\nvalue = [1, 1]\nclass = y[0]", fillcolor="#e5813900"] ;
104 -> 105 ;
106 [label="entropy = 0.0\nsamples = 1\nvalue = [0, 1]\nclass = y[1]", fillcolor="#399de5ff"] ;
105 -> 106 ;
107 [label="entropy = 0.0\nsamples = 1\nvalue = [1, 0]\nclass = y[0]", fillcolor="#e58139ff"] ;
105 -> 107 ;
108 [label="entropy = 0.0\nsamples = 5\nvalue = [5, 0]\nclass = y[0]", fillcolor="#e58139ff"] ;
104 -> 108 ;
109 [label="entropy = 0.0\nsamples = 1\nvalue = [0, 1]\nclass = y[1]", fillcolor="#399de5ff"] ;
103 -> 109 ;
110 [label="entropy = 0.0\nsamples = 3\nvalue = [3, 0]\nclass = y[0]", fillcolor="#e58139ff"] ;
102 -> 110 ;
111 [label="entropy = 0.0\nsamples = 1\nvalue = [0, 1]\nclass = y[1]", fillcolor="#399de5ff"] ;
101 -> 111 ;
112 [label="X[1] <= -0.924\nentropy = 0.25\nsamples = 24\nvalue = [23, 1]\nclass = y[0]", fillcolor="#e58139f4"] ;
100 -> 112 ;
113 [label="entropy = 0.0\nsamples = 19\nvalue = [19, 0]\nclass = y[0]", fillcolor="#e58139ff"] ;
112 -> 113 ;
114 [label="X[1] <= -0.921\nentropy = 0.722\nsamples = 5\nvalue = [4, 1]\nclass = y[0]", fillcolor="#e58139bf"] ;
112 -> 114 ;
115 [label="entropy = 0.0\nsamples = 1\nvalue = [0, 1]\nclass = y[1]", fillcolor="#399de5ff"] ;
114 -> 115 ;
116 [label="entropy = 0.0\nsamples = 4\nvalue = [4, 0]\nclass = y[0]", fillcolor="#e58139ff"] ;
114 -> 116 ;
117 [label="entropy = 0.0\nsamples = 1\nvalue = [0, 1]\nclass = y[1]", fillcolor="#399de5ff"] ;
99 -> 117 ;
118 [label="entropy = 0.0\nsamples = 16\nvalue = [16, 0]\nclass = y[0]", fillcolor="#e58139ff"] ;
98 -> 118 ;
119 [label="X[0] <= -1.422\nentropy = 0.918\nsamples = 3\nvalue = [1, 2]\nclass = y[1]", fillcolor="#399de57f"] ;
97 -> 119 ;
120 [label="entropy = 0.0\nsamples = 1\nvalue = [1, 0]\nclass = y[0]", fillcolor="#e58139ff"] ;
119 -> 120 ;
121 [label="entropy = 0.0\nsamples = 2\nvalue = [0, 2]\nclass = y[1]", fillcolor="#399de5ff"] ;
119 -> 121 ;
122 [label="entropy = 0.0\nsamples = 17\nvalue = [17, 0]\nclass = y[0]", fillcolor="#e58139ff"] ;
96 -> 122 ;
123 [label="entropy = 0.0\nsamples = 1\nvalue = [0, 1]\nclass = y[1]", fillcolor="#399de5ff"] ;
95 -> 123 ;
124 [label="entropy = 0.0\nsamples = 25\nvalue = [25, 0]\nclass = y[0]", fillcolor="#e58139ff"] ;
94 -> 124 ;
125 [label="X[1] <= -0.75\nentropy = 0.985\nsamples = 7\nvalue = [3, 4]\nclass = y[1]", fillcolor="#399de540"] ;
93 -> 125 ;
126 [label="X[1] <= -1.029\nentropy = 0.722\nsamples = 5\nvalue = [1, 4]\nclass = y[1]", fillcolor="#399de5bf"] ;
125 -> 126 ;
127 [label="entropy = 0.0\nsamples = 1\nvalue = [1, 0]\nclass = y[0]", fillcolor="#e58139ff"] ;
126 -> 127 ;
128 [label="entropy = 0.0\nsamples = 4\nvalue = [0, 4]\nclass = y[1]", fillcolor="#399de5ff"] ;
126 -> 128 ;
129 [label="entropy = 0.0\nsamples = 2\nvalue = [2, 0]\nclass = y[0]", fillcolor="#e58139ff"] ;
125 -> 129 ;
130 [label="X[0] <= -0.952\nentropy = 0.34\nsamples = 554\nvalue = [519, 35]\nclass = y[0]", fillcolor="#e58139ee"] ;
92 -> 130 ;
131 [label="entropy = 0.0\nsamples = 29\nvalue = [29, 0]\nclass = y[0]", fillcolor="#e58139ff"] ;
130 -> 131 ;
132 [label="X[0] <= -0.95\nentropy = 0.353\nsamples = 525\nvalue = [490, 35]\nclass = y[0]", fillcolor="#e58139ed"] ;
130 -> 132 ;
133 [label="entropy = 0.0\nsamples = 1\nvalue = [0, 1]\nclass = y[1]", fillcolor="#399de5ff"] ;
132 -> 133 ;
134 [label="X[1] <= -0.926\nentropy = 0.347\nsamples = 524\nvalue = [490, 34]\nclass = y[0]", fillcolor="#e58139ed"] ;
132 -> 134 ;
135 [label="X[1] <= -1.042\nentropy = 0.194\nsamples = 134\nvalue = [130, 4]\nclass = y[0]", fillcolor="#e58139f7"] ;
134 -> 135 ;
136 [label="X[0] <= -0.836\nentropy = 0.65\nsamples = 12\nvalue = [10, 2]\nclass = y[0]", fillcolor="#e58139cc"] ;
135 -> 136 ;
137 [label="entropy = 0.0\nsamples = 1\nvalue = [0, 1]\nclass = y[1]", fillcolor="#399de5ff"] ;
136 -> 137 ;
138 [label="X[0] <= -0.095\nentropy = 0.439\nsamples = 11\nvalue = [10, 1]\nclass = y[0]", fillcolor="#e58139e6"] ;
136 -> 138 ;
139 [label="entropy = 0.0\nsamples = 7\nvalue = [7, 0]\nclass = y[0]", fillcolor="#e58139ff"] ;
138 -> 139 ;
140 [label="X[0] <= -0.012\nentropy = 0.811\nsamples = 4\nvalue = [3, 1]\nclass = y[0]", fillcolor="#e58139aa"] ;
138 -> 140 ;
141 [label="entropy = 0.0\nsamples = 1\nvalue = [0, 1]\nclass = y[1]", fillcolor="#399de5ff"] ;
140 -> 141 ;
142 [label="entropy = 0.0\nsamples = 3\nvalue = [3, 0]\nclass = y[0]", fillcolor="#e58139ff"] ;
140 -> 142 ;
143 [label="X[0] <= -0.339\nentropy = 0.121\nsamples = 122\nvalue = [120, 2]\nclass = y[0]", fillcolor="#e58139fb"] ;
135 -> 143 ;
144 [label="entropy = 0.0\nsamples = 62\nvalue = [62, 0]\nclass = y[0]", fillcolor="#e58139ff"] ;
143 -> 144 ;
145 [label="X[0] <= -0.325\nentropy = 0.211\nsamples = 60\nvalue = [58, 2]\nclass = y[0]", fillcolor="#e58139f6"] ;
143 -> 145 ;
146 [label="entropy = 0.0\nsamples = 1\nvalue = [0, 1]\nclass = y[1]", fillcolor="#399de5ff"] ;
145 -> 146 ;
147 [label="X[0] <= -0.147\nentropy = 0.124\nsamples = 59\nvalue = [58, 1]\nclass = y[0]", fillcolor="#e58139fb"] ;
145 -> 147 ;
148 [label="X[0] <= -0.148\nentropy = 0.414\nsamples = 12\nvalue = [11, 1]\nclass = y[0]", fillcolor="#e58139e8"] ;
147 -> 148 ;
149 [label="entropy = 0.0\nsamples = 11\nvalue = [11, 0]\nclass = y[0]", fillcolor="#e58139ff"] ;
148 -> 149 ;
150 [label="entropy = 0.0\nsamples = 1\nvalue = [0, 1]\nclass = y[1]", fillcolor="#399de5ff"] ;
148 -> 150 ;
151 [label="entropy = 0.0\nsamples = 47\nvalue = [47, 0]\nclass = y[0]", fillcolor="#e58139ff"] ;
147 -> 151 ;
152 [label="X[1] <= -0.887\nentropy = 0.391\nsamples = 390\nvalue = [360, 30]\nclass = y[0]", fillcolor="#e58139ea"] ;
134 -> 152 ;
153 [label="X[0] <= 0.11\nentropy = 0.764\nsamples = 36\nvalue = [28, 8]\nclass = y[0]", fillcolor="#e58139b6"] ;
152 -> 153 ;
154 [label="X[1] <= -0.923\nentropy = 0.579\nsamples = 29\nvalue = [25, 4]\nclass = y[0]", fillcolor="#e58139d6"] ;
153 -> 154 ;
155 [label="entropy = 0.0\nsamples = 1\nvalue = [0, 1]\nclass = y[1]", fillcolor="#399de5ff"] ;
154 -> 155 ;
156 [label="X[0] <= -0.037\nentropy = 0.491\nsamples = 28\nvalue = [25, 3]\nclass = y[0]", fillcolor="#e58139e0"] ;
154 -> 156 ;
157 [label="X[0] <= -0.086\nentropy = 0.629\nsamples = 19\nvalue = [16, 3]\nclass = y[0]", fillcolor="#e58139cf"] ;
156 -> 157 ;
158 [label="X[0] <= -0.609\nentropy = 0.503\nsamples = 18\nvalue = [16, 2]\nclass = y[0]", fillcolor="#e58139df"] ;
157 -> 158 ;
159 [label="entropy = 0.0\nsamples = 7\nvalue = [7, 0]\nclass = y[0]", fillcolor="#e58139ff"] ;
158 -> 159 ;
160 [label="X[0] <= -0.331\nentropy = 0.684\nsamples = 11\nvalue = [9, 2]\nclass = y[0]", fillcolor="#e58139c6"] ;
158 -> 160 ;
161 [label="X[1] <= -0.893\nentropy = 1.0\nsamples = 4\nvalue = [2, 2]\nclass = y[0]", fillcolor="#e5813900"] ;
160 -> 161 ;
162 [label="entropy = 0.0\nsamples = 2\nvalue = [0, 2]\nclass = y[1]", fillcolor="#399de5ff"] ;
161 -> 162 ;
163 [label="entropy = 0.0\nsamples = 2\nvalue = [2, 0]\nclass = y[0]", fillcolor="#e58139ff"] ;
161 -> 163 ;
164 [label="entropy = 0.0\nsamples = 7\nvalue = [7, 0]\nclass = y[0]", fillcolor="#e58139ff"] ;
160 -> 164 ;
165 [label="entropy = 0.0\nsamples = 1\nvalue = [0, 1]\nclass = y[1]", fillcolor="#399de5ff"] ;
157 -> 165 ;
166 [label="entropy = 0.0\nsamples = 9\nvalue = [9, 0]\nclass = y[0]", fillcolor="#e58139ff"] ;
156 -> 166 ;
167 [label="X[1] <= -0.911\nentropy = 0.985\nsamples = 7\nvalue = [3, 4]\nclass = y[1]", fillcolor="#399de540"] ;
153 -> 167 ;
168 [label="entropy = 0.0\nsamples = 1\nvalue = [1, 0]\nclass = y[0]", fillcolor="#e58139ff"] ;
167 -> 168 ;
169 [label="X[0] <= 0.167\nentropy = 0.918\nsamples = 6\nvalue = [2, 4]\nclass = y[1]", fillcolor="#399de57f"] ;
167 -> 169 ;
170 [label="entropy = 0.0\nsamples = 1\nvalue = [0, 1]\nclass = y[1]", fillcolor="#399de5ff"] ;
169 -> 170 ;
171 [label="X[0] <= 0.222\nentropy = 0.971\nsamples = 5\nvalue = [2, 3]\nclass = y[1]", fillcolor="#399de555"] ;
169 -> 171 ;
172 [label="entropy = 0.0\nsamples = 1\nvalue = [1, 0]\nclass = y[0]", fillcolor="#e58139ff"] ;
171 -> 172 ;
173 [label="X[0] <= 0.454\nentropy = 0.811\nsamples = 4\nvalue = [1, 3]\nclass = y[1]", fillcolor="#399de5aa"] ;
171 -> 173 ;
174 [label="entropy = 0.0\nsamples = 2\nvalue = [0, 2]\nclass = y[1]", fillcolor="#399de5ff"] ;
173 -> 174 ;
175 [label="X[0] <= 0.565\nentropy = 1.0\nsamples = 2\nvalue = [1, 1]\nclass = y[0]", fillcolor="#e5813900"] ;
173 -> 175 ;
176 [label="entropy = 0.0\nsamples = 1\nvalue = [1, 0]\nclass = y[0]", fillcolor="#e58139ff"] ;
175 -> 176 ;
177 [label="entropy = 0.0\nsamples = 1\nvalue = [0, 1]\nclass = y[1]", fillcolor="#399de5ff"] ;
175 -> 177 ;
178 [label="X[1] <= -0.798\nentropy = 0.336\nsamples = 354\nvalue = [332, 22]\nclass = y[0]", fillcolor="#e58139ee"] ;
152 -> 178 ;
179 [label="X[0] <= 0.054\nentropy = 0.156\nsamples = 133\nvalue = [130, 3]\nclass = y[0]", fillcolor="#e58139f9"] ;
178 -> 179 ;
180 [label="X[0] <= 0.034\nentropy = 0.22\nsamples = 85\nvalue = [82, 3]\nclass = y[0]", fillcolor="#e58139f6"] ;
179 -> 180 ;
181 [label="X[0] <= -0.357\nentropy = 0.162\nsamples = 84\nvalue = [82, 2]\nclass = y[0]", fillcolor="#e58139f9"] ;
180 -> 181 ;
182 [label="X[0] <= -0.383\nentropy = 0.292\nsamples = 39\nvalue = [37, 2]\nclass = y[0]", fillcolor="#e58139f1"] ;
181 -> 182 ;
183 [label="X[1] <= -0.834\nentropy = 0.176\nsamples = 38\nvalue = [37, 1]\nclass = y[0]", fillcolor="#e58139f8"] ;
182 -> 183 ;
184 [label="entropy = 0.0\nsamples = 28\nvalue = [28, 0]\nclass = y[0]", fillcolor="#e58139ff"] ;
183 -> 184 ;
185 [label="X[1] <= -0.831\nentropy = 0.469\nsamples = 10\nvalue = [9, 1]\nclass = y[0]", fillcolor="#e58139e3"] ;
183 -> 185 ;
186 [label="entropy = 0.0\nsamples = 1\nvalue = [0, 1]\nclass = y[1]", fillcolor="#399de5ff"] ;
185 -> 186 ;
187 [label="entropy = 0.0\nsamples = 9\nvalue = [9, 0]\nclass = y[0]", fillcolor="#e58139ff"] ;
185 -> 187 ;
188 [label="entropy = 0.0\nsamples = 1\nvalue = [0, 1]\nclass = y[1]", fillcolor="#399de5ff"] ;
182 -> 188 ;
189 [label="entropy = 0.0\nsamples = 45\nvalue = [45, 0]\nclass = y[0]", fillcolor="#e58139ff"] ;
181 -> 189 ;
190 [label="entropy = 0.0\nsamples = 1\nvalue = [0, 1]\nclass = y[1]", fillcolor="#399de5ff"] ;
180 -> 190 ;
191 [label="entropy = 0.0\nsamples = 48\nvalue = [48, 0]\nclass = y[0]", fillcolor="#e58139ff"] ;
179 -> 191 ;
192 [label="X[1] <= -0.797\nentropy = 0.423\nsamples = 221\nvalue = [202, 19]\nclass = y[0]", fillcolor="#e58139e7"] ;
178 -> 192 ;
193 [label="entropy = 0.0\nsamples = 2\nvalue = [0, 2]\nclass = y[1]", fillcolor="#399de5ff"] ;
192 -> 193 ;
194 [label="X[0] <= 0.229\nentropy = 0.394\nsamples = 219\nvalue = [202, 17]\nclass = y[0]", fillcolor="#e58139ea"] ;
192 -> 194 ;
195 [label="X[0] <= 0.227\nentropy = 0.449\nsamples = 160\nvalue = [145, 15]\nclass = y[0]", fillcolor="#e58139e5"] ;
194 -> 195 ;
196 [label="X[0] <= -0.803\nentropy = 0.43\nsamples = 159\nvalue = [145, 14]\nclass = y[0]", fillcolor="#e58139e6"] ;
195 -> 196 ;
197 [label="entropy = 0.0\nsamples = 14\nvalue = [14, 0]\nclass = y[0]", fillcolor="#e58139ff"] ;
196 -> 197 ;
198 [label="X[0] <= -0.792\nentropy = 0.458\nsamples = 145\nvalue = [131, 14]\nclass = y[0]", fillcolor="#e58139e4"] ;
196 -> 198 ;
199 [label="entropy = 0.0\nsamples = 1\nvalue = [0, 1]\nclass = y[1]", fillcolor="#399de5ff"] ;
198 -> 199 ;
200 [label="X[1] <= -0.727\nentropy = 0.437\nsamples = 144\nvalue = [131, 13]\nclass = y[0]", fillcolor="#e58139e6"] ;
198 -> 200 ;
201 [label="X[1] <= -0.729\nentropy = 0.612\nsamples = 53\nvalue = [45, 8]\nclass = y[0]", fillcolor="#e58139d2"] ;
200 -> 201 ;
202 [label="X[1] <= -0.741\nentropy = 0.523\nsamples = 51\nvalue = [45, 6]\nclass = y[0]", fillcolor="#e58139dd"] ;
201 -> 202 ;
203 [label="X[1] <= -0.742\nentropy = 0.601\nsamples = 41\nvalue = [35, 6]\nclass = y[0]", fillcolor="#e58139d3"] ;
202 -> 203 ;
204 [label="X[1] <= -0.788\nentropy = 0.544\nsamples = 40\nvalue = [35, 5]\nclass = y[0]", fillcolor="#e58139db"] ;
203 -> 204 ;
205 [label="entropy = 0.0\nsamples = 9\nvalue = [9, 0]\nclass = y[0]", fillcolor="#e58139ff"] ;
204 -> 205 ;
206 [label="X[1] <= -0.786\nentropy = 0.637\nsamples = 31\nvalue = [26, 5]\nclass = y[0]", fillcolor="#e58139ce"] ;
204 -> 206 ;
207 [label="entropy = 0.0\nsamples = 1\nvalue = [0, 1]\nclass = y[1]", fillcolor="#399de5ff"] ;
206 -> 207 ;
208 [label="X[0] <= 0.037\nentropy = 0.567\nsamples = 30\nvalue = [26, 4]\nclass = y[0]", fillcolor="#e58139d8"] ;
206 -> 208 ;
209 [label="X[0] <= -0.001\nentropy = 0.667\nsamples = 23\nvalue = [19, 4]\nclass = y[0]", fillcolor="#e58139c9"] ;
208 -> 209 ;
210 [label="X[1] <= -0.761\nentropy = 0.575\nsamples = 22\nvalue = [19, 3]\nclass = y[0]", fillcolor="#e58139d7"] ;
209 -> 210 ;
211 [label="X[1] <= -0.778\nentropy = 0.353\nsamples = 15\nvalue = [14, 1]\nclass = y[0]", fillcolor="#e58139ed"] ;
210 -> 211 ;
212 [label="X[1] <= -0.78\nentropy = 0.811\nsamples = 4\nvalue = [3, 1]\nclass = y[0]", fillcolor="#e58139aa"] ;
211 -> 212 ;
213 [label="entropy = 0.0\nsamples = 3\nvalue = [3, 0]\nclass = y[0]", fillcolor="#e58139ff"] ;
212 -> 213 ;
214 [label="entropy = 0.0\nsamples = 1\nvalue = [0, 1]\nclass = y[1]", fillcolor="#399de5ff"] ;
212 -> 214 ;
215 [label="entropy = 0.0\nsamples = 11\nvalue = [11, 0]\nclass = y[0]", fillcolor="#e58139ff"] ;
211 -> 215 ;
216 [label="X[0] <= -0.32\nentropy = 0.863\nsamples = 7\nvalue = [5, 2]\nclass = y[0]", fillcolor="#e5813999"] ;
210 -> 216 ;
217 [label="entropy = 0.0\nsamples = 1\nvalue = [0, 1]\nclass = y[1]", fillcolor="#399de5ff"] ;
216 -> 217 ;
218 [label="X[1] <= -0.759\nentropy = 0.65\nsamples = 6\nvalue = [5, 1]\nclass = y[0]", fillcolor="#e58139cc"] ;
216 -> 218 ;
219 [label="entropy = 0.0\nsamples = 1\nvalue = [0, 1]\nclass = y[1]", fillcolor="#399de5ff"] ;
218 -> 219 ;
220 [label="entropy = 0.0\nsamples = 5\nvalue = [5, 0]\nclass = y[0]", fillcolor="#e58139ff"] ;
218 -> 220 ;
221 [label="entropy = 0.0\nsamples = 1\nvalue = [0, 1]\nclass = y[1]", fillcolor="#399de5ff"] ;
209 -> 221 ;
222 [label="entropy = 0.0\nsamples = 7\nvalue = [7, 0]\nclass = y[0]", fillcolor="#e58139ff"] ;
208 -> 222 ;
223 [label="entropy = 0.0\nsamples = 1\nvalue = [0, 1]\nclass = y[1]", fillcolor="#399de5ff"] ;
203 -> 223 ;
224 [label="entropy = 0.0\nsamples = 10\nvalue = [10, 0]\nclass = y[0]", fillcolor="#e58139ff"] ;
202 -> 224 ;
225 [label="entropy = 0.0\nsamples = 2\nvalue = [0, 2]\nclass = y[1]", fillcolor="#399de5ff"] ;
201 -> 225 ;
226 [label="X[1] <= -0.695\nentropy = 0.307\nsamples = 91\nvalue = [86, 5]\nclass = y[0]", fillcolor="#e58139f0"] ;
200 -> 226 ;
227 [label="entropy = 0.0\nsamples = 47\nvalue = [47, 0]\nclass = y[0]", fillcolor="#e58139ff"] ;
226 -> 227 ;
228 [label="X[0] <= -0.413\nentropy = 0.511\nsamples = 44\nvalue = [39, 5]\nclass = y[0]", fillcolor="#e58139de"] ;
226 -> 228 ;
229 [label="entropy = 0.0\nsamples = 18\nvalue = [18, 0]\nclass = y[0]", fillcolor="#e58139ff"] ;
228 -> 229 ;
230 [label="X[0] <= -0.305\nentropy = 0.706\nsamples = 26\nvalue = [21, 5]\nclass = y[0]", fillcolor="#e58139c2"] ;
228 -> 230 ;
231 [label="entropy = 0.0\nsamples = 3\nvalue = [0, 3]\nclass = y[1]", fillcolor="#399de5ff"] ;
230 -> 231 ;
232 [label="X[1] <= -0.672\nentropy = 0.426\nsamples = 23\nvalue = [21, 2]\nclass = y[0]", fillcolor="#e58139e7"] ;
230 -> 232 ;
233 [label="X[1] <= -0.673\nentropy = 0.684\nsamples = 11\nvalue = [9, 2]\nclass = y[0]", fillcolor="#e58139c6"] ;
232 -> 233 ;
234 [label="X[1] <= -0.678\nentropy = 0.469\nsamples = 10\nvalue = [9, 1]\nclass = y[0]", fillcolor="#e58139e3"] ;
233 -> 234 ;
235 [label="entropy = 0.0\nsamples = 6\nvalue = [6, 0]\nclass = y[0]", fillcolor="#e58139ff"] ;
234 -> 235 ;
236 [label="X[1] <= -0.676\nentropy = 0.811\nsamples = 4\nvalue = [3, 1]\nclass = y[0]", fillcolor="#e58139aa"] ;
234 -> 236 ;
237 [label="entropy = 0.0\nsamples = 1\nvalue = [0, 1]\nclass = y[1]", fillcolor="#399de5ff"] ;
236 -> 237 ;
238 [label="entropy = 0.0\nsamples = 3\nvalue = [3, 0]\nclass = y[0]", fillcolor="#e58139ff"] ;
236 -> 238 ;
239 [label="entropy = 0.0\nsamples = 1\nvalue = [0, 1]\nclass = y[1]", fillcolor="#399de5ff"] ;
233 -> 239 ;
240 [label="entropy = 0.0\nsamples = 12\nvalue = [12, 0]\nclass = y[0]", fillcolor="#e58139ff"] ;
232 -> 240 ;
241 [label="entropy = 0.0\nsamples = 1\nvalue = [0, 1]\nclass = y[1]", fillcolor="#399de5ff"] ;
195 -> 241 ;
242 [label="X[0] <= 0.474\nentropy = 0.214\nsamples = 59\nvalue = [57, 2]\nclass = y[0]", fillcolor="#e58139f6"] ;
194 -> 242 ;
243 [label="entropy = 0.0\nsamples = 42\nvalue = [42, 0]\nclass = y[0]", fillcolor="#e58139ff"] ;
242 -> 243 ;
244 [label="X[0] <= 0.542\nentropy = 0.523\nsamples = 17\nvalue = [15, 2]\nclass = y[0]", fillcolor="#e58139dd"] ;
242 -> 244 ;
245 [label="X[1] <= -0.745\nentropy = 0.918\nsamples = 3\nvalue = [1, 2]\nclass = y[1]", fillcolor="#399de57f"] ;
244 -> 245 ;
246 [label="entropy = 0.0\nsamples = 1\nvalue = [1, 0]\nclass = y[0]", fillcolor="#e58139ff"] ;
245 -> 246 ;
247 [label="entropy = 0.0\nsamples = 2\nvalue = [0, 2]\nclass = y[1]", fillcolor="#399de5ff"] ;
245 -> 247 ;
248 [label="entropy = 0.0\nsamples = 14\nvalue = [14, 0]\nclass = y[0]", fillcolor="#e58139ff"] ;
244 -> 248 ;
249 [label="X[1] <= -0.714\nentropy = 0.863\nsamples = 7\nvalue = [5, 2]\nclass = y[0]", fillcolor="#e5813999"] ;
91 -> 249 ;
250 [label="X[0] <= 0.723\nentropy = 0.918\nsamples = 3\nvalue = [1, 2]\nclass = y[1]", fillcolor="#399de57f"] ;
249 -> 250 ;
251 [label="entropy = 0.0\nsamples = 1\nvalue = [0, 1]\nclass = y[1]", fillcolor="#399de5ff"] ;
250 -> 251 ;
252 [label="X[0] <= 0.774\nentropy = 1.0\nsamples = 2\nvalue = [1, 1]\nclass = y[0]", fillcolor="#e5813900"] ;
250 -> 252 ;
253 [label="entropy = 0.0\nsamples = 1\nvalue = [1, 0]\nclass = y[0]", fillcolor="#e58139ff"] ;
252 -> 253 ;
254 [label="entropy = 0.0\nsamples = 1\nvalue = [0, 1]\nclass = y[1]", fillcolor="#399de5ff"] ;
252 -> 254 ;
255 [label="entropy = 0.0\nsamples = 4\nvalue = [4, 0]\nclass = y[0]", fillcolor="#e58139ff"] ;
249 -> 255 ;
256 [label="entropy = 0.0\nsamples = 1\nvalue = [0, 1]\nclass = y[1]", fillcolor="#399de5ff"] ;
86 -> 256 ;
257 [label="entropy = 0.0\nsamples = 31\nvalue = [31, 0]\nclass = y[0]", fillcolor="#e58139ff"] ;
85 -> 257 ;
258 [label="X[0] <= 0.865\nentropy = 0.5\nsamples = 709\nvalue = [631, 78]\nclass = y[0]", fillcolor="#e58139df"] ;
84 -> 258 ;
259 [label="X[0] <= -0.662\nentropy = 0.512\nsamples = 683\nvalue = [605, 78]\nclass = y[0]", fillcolor="#e58139de"] ;
258 -> 259 ;
260 [label="X[0] <= -0.905\nentropy = 0.349\nsamples = 168\nvalue = [157, 11]\nclass = y[0]", fillcolor="#e58139ed"] ;
259 -> 260 ;
261 [label="X[0] <= -0.911\nentropy = 0.429\nsamples = 114\nvalue = [104, 10]\nclass = y[0]", fillcolor="#e58139e6"] ;
260 -> 261 ;
262 [label="X[1] <= -0.301\nentropy = 0.401\nsamples = 113\nvalue = [104, 9]\nclass = y[0]", fillcolor="#e58139e9"] ;
261 -> 262 ;
263 [label="X[1] <= -0.411\nentropy = 0.295\nsamples = 96\nvalue = [91, 5]\nclass = y[0]", fillcolor="#e58139f1"] ;
262 -> 263 ;
264 [label="X[1] <= -0.412\nentropy = 0.383\nsamples = 67\nvalue = [62, 5]\nclass = y[0]", fillcolor="#e58139ea"] ;
263 -> 264 ;
265 [label="X[0] <= -1.378\nentropy = 0.33\nsamples = 66\nvalue = [62, 4]\nclass = y[0]", fillcolor="#e58139ef"] ;
264 -> 265 ;
266 [label="entropy = 0.0\nsamples = 24\nvalue = [24, 0]\nclass = y[0]", fillcolor="#e58139ff"] ;
265 -> 266 ;
267 [label="X[0] <= -1.248\nentropy = 0.454\nsamples = 42\nvalue = [38, 4]\nclass = y[0]", fillcolor="#e58139e4"] ;
265 -> 267 ;
268 [label="X[1] <= -0.511\nentropy = 1.0\nsamples = 6\nvalue = [3, 3]\nclass = y[0]", fillcolor="#e5813900"] ;
267 -> 268 ;
269 [label="entropy = 0.0\nsamples = 2\nvalue = [0, 2]\nclass = y[1]", fillcolor="#399de5ff"] ;
268 -> 269 ;
270 [label="X[0] <= -1.268\nentropy = 0.811\nsamples = 4\nvalue = [3, 1]\nclass = y[0]", fillcolor="#e58139aa"] ;
268 -> 270 ;
271 [label="entropy = 0.0\nsamples = 3\nvalue = [3, 0]\nclass = y[0]", fillcolor="#e58139ff"] ;
270 -> 271 ;
272 [label="entropy = 0.0\nsamples = 1\nvalue = [0, 1]\nclass = y[1]", fillcolor="#399de5ff"] ;
270 -> 272 ;
273 [label="X[0] <= -0.995\nentropy = 0.183\nsamples = 36\nvalue = [35, 1]\nclass = y[0]", fillcolor="#e58139f8"] ;
267 -> 273 ;
274 [label="entropy = 0.0\nsamples = 29\nvalue = [29, 0]\nclass = y[0]", fillcolor="#e58139ff"] ;
273 -> 274 ;
275 [label="X[0] <= -0.968\nentropy = 0.592\nsamples = 7\nvalue = [6, 1]\nclass = y[0]", fillcolor="#e58139d4"] ;
273 -> 275 ;
276 [label="entropy = 0.0\nsamples = 1\nvalue = [0, 1]\nclass = y[1]", fillcolor="#399de5ff"] ;
275 -> 276 ;
277 [label="entropy = 0.0\nsamples = 6\nvalue = [6, 0]\nclass = y[0]", fillcolor="#e58139ff"] ;
275 -> 277 ;
278 [label="entropy = 0.0\nsamples = 1\nvalue = [0, 1]\nclass = y[1]", fillcolor="#399de5ff"] ;
264 -> 278 ;
279 [label="entropy = 0.0\nsamples = 29\nvalue = [29, 0]\nclass = y[0]", fillcolor="#e58139ff"] ;
263 -> 279 ;
280 [label="X[0] <= -0.96\nentropy = 0.787\nsamples = 17\nvalue = [13, 4]\nclass = y[0]", fillcolor="#e58139b1"] ;
262 -> 280 ;
281 [label="X[0] <= -1.475\nentropy = 0.946\nsamples = 11\nvalue = [7, 4]\nclass = y[0]", fillcolor="#e581396d"] ;
280 -> 281 ;
282 [label="entropy = 0.0\nsamples = 4\nvalue = [4, 0]\nclass = y[0]", fillcolor="#e58139ff"] ;
281 -> 282 ;
283 [label="X[0] <= -1.285\nentropy = 0.985\nsamples = 7\nvalue = [3, 4]\nclass = y[1]", fillcolor="#399de540"] ;
281 -> 283 ;
284 [label="entropy = 0.0\nsamples = 2\nvalue = [0, 2]\nclass = y[1]", fillcolor="#399de5ff"] ;
283 -> 284 ;
285 [label="X[1] <= -0.254\nentropy = 0.971\nsamples = 5\nvalue = [3, 2]\nclass = y[0]", fillcolor="#e5813955"] ;
283 -> 285 ;
286 [label="entropy = 0.0\nsamples = 2\nvalue = [2, 0]\nclass = y[0]", fillcolor="#e58139ff"] ;
285 -> 286 ;
287 [label="X[0] <= -1.154\nentropy = 0.918\nsamples = 3\nvalue = [1, 2]\nclass = y[1]", fillcolor="#399de57f"] ;
285 -> 287 ;
288 [label="entropy = 0.0\nsamples = 1\nvalue = [1, 0]\nclass = y[0]", fillcolor="#e58139ff"] ;
287 -> 288 ;
289 [label="entropy = 0.0\nsamples = 2\nvalue = [0, 2]\nclass = y[1]", fillcolor="#399de5ff"] ;
287 -> 289 ;
290 [label="entropy = 0.0\nsamples = 6\nvalue = [6, 0]\nclass = y[0]", fillcolor="#e58139ff"] ;
280 -> 290 ;
291 [label="entropy = 0.0\nsamples = 1\nvalue = [0, 1]\nclass = y[1]", fillcolor="#399de5ff"] ;
261 -> 291 ;
292 [label="X[1] <= -0.533\nentropy = 0.133\nsamples = 54\nvalue = [53, 1]\nclass = y[0]", fillcolor="#e58139fa"] ;
260 -> 292 ;
293 [label="X[1] <= -0.538\nentropy = 0.469\nsamples = 10\nvalue = [9, 1]\nclass = y[0]", fillcolor="#e58139e3"] ;
292 -> 293 ;
294 [label="entropy = 0.0\nsamples = 9\nvalue = [9, 0]\nclass = y[0]", fillcolor="#e58139ff"] ;
293 -> 294 ;
295 [label="entropy = 0.0\nsamples = 1\nvalue = [0, 1]\nclass = y[1]", fillcolor="#399de5ff"] ;
293 -> 295 ;
296 [label="entropy = 0.0\nsamples = 44\nvalue = [44, 0]\nclass = y[0]", fillcolor="#e58139ff"] ;
292 -> 296 ;
297 [label="X[0] <= -0.185\nentropy = 0.558\nsamples = 515\nvalue = [448, 67]\nclass = y[0]", fillcolor="#e58139d9"] ;
259 -> 297 ;
298 [label="X[1] <= -0.221\nentropy = 0.748\nsamples = 117\nvalue = [92, 25]\nclass = y[0]", fillcolor="#e58139ba"] ;
297 -> 298 ;
299 [label="X[0] <= -0.192\nentropy = 0.693\nsamples = 113\nvalue = [92, 21]\nclass = y[0]", fillcolor="#e58139c5"] ;
298 -> 299 ;
300 [label="X[1] <= -0.25\nentropy = 0.66\nsamples = 111\nvalue = [92, 19]\nclass = y[0]", fillcolor="#e58139ca"] ;
299 -> 300 ;
301 [label="X[0] <= -0.657\nentropy = 0.616\nsamples = 105\nvalue = [89, 16]\nclass = y[0]", fillcolor="#e58139d1"] ;
300 -> 301 ;
302 [label="entropy = 0.0\nsamples = 1\nvalue = [0, 1]\nclass = y[1]", fillcolor="#399de5ff"] ;
301 -> 302 ;
303 [label="X[1] <= -0.552\nentropy = 0.595\nsamples = 104\nvalue = [89, 15]\nclass = y[0]", fillcolor="#e58139d4"] ;
301 -> 303 ;
304 [label="X[0] <= -0.282\nentropy = 0.896\nsamples = 16\nvalue = [11, 5]\nclass = y[0]", fillcolor="#e581398b"] ;
303 -> 304 ;
305 [label="X[1] <= -0.561\nentropy = 0.619\nsamples = 13\nvalue = [11, 2]\nclass = y[0]", fillcolor="#e58139d1"] ;
304 -> 305 ;
306 [label="entropy = 0.0\nsamples = 9\nvalue = [9, 0]\nclass = y[0]", fillcolor="#e58139ff"] ;
305 -> 306 ;
307 [label="X[0] <= -0.499\nentropy = 1.0\nsamples = 4\nvalue = [2, 2]\nclass = y[0]", fillcolor="#e5813900"] ;
305 -> 307 ;
308 [label="entropy = 0.0\nsamples = 1\nvalue = [0, 1]\nclass = y[1]", fillcolor="#399de5ff"] ;
307 -> 308 ;
309 [label="X[1] <= -0.555\nentropy = 0.918\nsamples = 3\nvalue = [2, 1]\nclass = y[0]", fillcolor="#e581397f"] ;
307 -> 309 ;
310 [label="entropy = 0.0\nsamples = 2\nvalue = [2, 0]\nclass = y[0]", fillcolor="#e58139ff"] ;
309 -> 310 ;
311 [label="entropy = 0.0\nsamples = 1\nvalue = [0, 1]\nclass = y[1]", fillcolor="#399de5ff"] ;
309 -> 311 ;
312 [label="entropy = 0.0\nsamples = 3\nvalue = [0, 3]\nclass = y[1]", fillcolor="#399de5ff"] ;
304 -> 312 ;
313 [label="X[1] <= -0.471\nentropy = 0.511\nsamples = 88\nvalue = [78, 10]\nclass = y[0]", fillcolor="#e58139de"] ;
303 -> 313 ;
314 [label="entropy = 0.0\nsamples = 31\nvalue = [31, 0]\nclass = y[0]", fillcolor="#e58139ff"] ;
313 -> 314 ;
315 [label="X[1] <= -0.462\nentropy = 0.67\nsamples = 57\nvalue = [47, 10]\nclass = y[0]", fillcolor="#e58139c9"] ;
313 -> 315 ;
316 [label="entropy = 0.0\nsamples = 1\nvalue = [0, 1]\nclass = y[1]", fillcolor="#399de5ff"] ;
315 -> 316 ;
317 [label="X[1] <= -0.421\nentropy = 0.636\nsamples = 56\nvalue = [47, 9]\nclass = y[0]", fillcolor="#e58139ce"] ;
315 -> 317 ;
318 [label="entropy = 0.0\nsamples = 9\nvalue = [9, 0]\nclass = y[0]", fillcolor="#e58139ff"] ;
317 -> 318 ;
319 [label="X[1] <= -0.416\nentropy = 0.705\nsamples = 47\nvalue = [38, 9]\nclass = y[0]", fillcolor="#e58139c3"] ;
317 -> 319 ;
320 [label="entropy = 0.0\nsamples = 1\nvalue = [0, 1]\nclass = y[1]", fillcolor="#399de5ff"] ;
319 -> 320 ;
321 [label="X[1] <= -0.262\nentropy = 0.667\nsamples = 46\nvalue = [38, 8]\nclass = y[0]", fillcolor="#e58139c9"] ;
319 -> 321 ;
322 [label="X[1] <= -0.267\nentropy = 0.722\nsamples = 40\nvalue = [32, 8]\nclass = y[0]", fillcolor="#e58139bf"] ;
321 -> 322 ;
323 [label="X[0] <= -0.259\nentropy = 0.679\nsamples = 39\nvalue = [32, 7]\nclass = y[0]", fillcolor="#e58139c7"] ;
322 -> 323 ;
324 [label="X[0] <= -0.316\nentropy = 0.722\nsamples = 35\nvalue = [28, 7]\nclass = y[0]", fillcolor="#e58139bf"] ;
323 -> 324 ;
325 [label="X[0] <= -0.441\nentropy = 0.614\nsamples = 33\nvalue = [28, 5]\nclass = y[0]", fillcolor="#e58139d1"] ;
324 -> 325 ;
326 [label="X[0] <= -0.446\nentropy = 0.755\nsamples = 23\nvalue = [18, 5]\nclass = y[0]", fillcolor="#e58139b8"] ;
325 -> 326 ;
327 [label="X[1] <= -0.398\nentropy = 0.684\nsamples = 22\nvalue = [18, 4]\nclass = y[0]", fillcolor="#e58139c6"] ;
326 -> 327 ;
328 [label="X[0] <= -0.595\nentropy = 1.0\nsamples = 4\nvalue = [2, 2]\nclass = y[0]", fillcolor="#e5813900"] ;
327 -> 328 ;
329 [label="entropy = 0.0\nsamples = 1\nvalue = [1, 0]\nclass = y[0]", fillcolor="#e58139ff"] ;
328 -> 329 ;
330 [label="X[0] <= -0.5\nentropy = 0.918\nsamples = 3\nvalue = [1, 2]\nclass = y[1]", fillcolor="#399de57f"] ;
328 -> 330 ;
331 [label="entropy = 0.0\nsamples = 2\nvalue = [0, 2]\nclass = y[1]", fillcolor="#399de5ff"] ;
330 -> 331 ;
332 [label="entropy = 0.0\nsamples = 1\nvalue = [1, 0]\nclass = y[0]", fillcolor="#e58139ff"] ;
330 -> 332 ;
333 [label="X[1] <= -0.324\nentropy = 0.503\nsamples = 18\nvalue = [16, 2]\nclass = y[0]", fillcolor="#e58139df"] ;
327 -> 333 ;
334 [label="entropy = 0.0\nsamples = 11\nvalue = [11, 0]\nclass = y[0]", fillcolor="#e58139ff"] ;
333 -> 334 ;
335 [label="X[0] <= -0.617\nentropy = 0.863\nsamples = 7\nvalue = [5, 2]\nclass = y[0]", fillcolor="#e5813999"] ;
333 -> 335 ;
336 [label="entropy = 0.0\nsamples = 1\nvalue = [0, 1]\nclass = y[1]", fillcolor="#399de5ff"] ;
335 -> 336 ;
337 [label="X[0] <= -0.495\nentropy = 0.65\nsamples = 6\nvalue = [5, 1]\nclass = y[0]", fillcolor="#e58139cc"] ;
335 -> 337 ;
338 [label="entropy = 0.0\nsamples = 5\nvalue = [5, 0]\nclass = y[0]", fillcolor="#e58139ff"] ;
337 -> 338 ;
339 [label="entropy = 0.0\nsamples = 1\nvalue = [0, 1]\nclass = y[1]", fillcolor="#399de5ff"] ;
337 -> 339 ;
340 [label="entropy = 0.0\nsamples = 1\nvalue = [0, 1]\nclass = y[1]", fillcolor="#399de5ff"] ;
326 -> 340 ;
341 [label="entropy = 0.0\nsamples = 10\nvalue = [10, 0]\nclass = y[0]", fillcolor="#e58139ff"] ;
325 -> 341 ;
342 [label="entropy = 0.0\nsamples = 2\nvalue = [0, 2]\nclass = y[1]", fillcolor="#399de5ff"] ;
324 -> 342 ;
343 [label="entropy = 0.0\nsamples = 4\nvalue = [4, 0]\nclass = y[0]", fillcolor="#e58139ff"] ;
323 -> 343 ;
344 [label="entropy = 0.0\nsamples = 1\nvalue = [0, 1]\nclass = y[1]", fillcolor="#399de5ff"] ;
322 -> 344 ;
345 [label="entropy = 0.0\nsamples = 6\nvalue = [6, 0]\nclass = y[0]", fillcolor="#e58139ff"] ;
321 -> 345 ;
346 [label="X[0] <= -0.462\nentropy = 1.0\nsamples = 6\nvalue = [3, 3]\nclass = y[0]", fillcolor="#e5813900"] ;
300 -> 346 ;
347 [label="entropy = 0.0\nsamples = 2\nvalue = [2, 0]\nclass = y[0]", fillcolor="#e58139ff"] ;
346 -> 347 ;
348 [label="X[0] <= -0.23\nentropy = 0.811\nsamples = 4\nvalue = [1, 3]\nclass = y[1]", fillcolor="#399de5aa"] ;
346 -> 348 ;
349 [label="entropy = 0.0\nsamples = 3\nvalue = [0, 3]\nclass = y[1]", fillcolor="#399de5ff"] ;
348 -> 349 ;
350 [label="entropy = 0.0\nsamples = 1\nvalue = [1, 0]\nclass = y[0]", fillcolor="#e58139ff"] ;
348 -> 350 ;
351 [label="entropy = 0.0\nsamples = 2\nvalue = [0, 2]\nclass = y[1]", fillcolor="#399de5ff"] ;
299 -> 351 ;
352 [label="entropy = 0.0\nsamples = 4\nvalue = [0, 4]\nclass = y[1]", fillcolor="#399de5ff"] ;
298 -> 352 ;
353 [label="X[1] <= -0.392\nentropy = 0.486\nsamples = 398\nvalue = [356, 42]\nclass = y[0]", fillcolor="#e58139e1"] ;
297 -> 353 ;
354 [label="X[0] <= 0.532\nentropy = 0.577\nsamples = 226\nvalue = [195, 31]\nclass = y[0]", fillcolor="#e58139d6"] ;
353 -> 354 ;
355 [label="X[0] <= 0.426\nentropy = 0.445\nsamples = 173\nvalue = [157, 16]\nclass = y[0]", fillcolor="#e58139e5"] ;
354 -> 355 ;
356 [label="X[1] <= -0.416\nentropy = 0.51\nsamples = 141\nvalue = [125, 16]\nclass = y[0]", fillcolor="#e58139de"] ;
355 -> 356 ;
357 [label="X[1] <= -0.61\nentropy = 0.444\nsamples = 130\nvalue = [118, 12]\nclass = y[0]", fillcolor="#e58139e5"] ;
356 -> 357 ;
358 [label="X[0] <= 0.058\nentropy = 0.954\nsamples = 8\nvalue = [5, 3]\nclass = y[0]", fillcolor="#e5813966"] ;
357 -> 358 ;
359 [label="entropy = 0.0\nsamples = 2\nvalue = [0, 2]\nclass = y[1]", fillcolor="#399de5ff"] ;
358 -> 359 ;
360 [label="X[1] <= -0.616\nentropy = 0.65\nsamples = 6\nvalue = [5, 1]\nclass = y[0]", fillcolor="#e58139cc"] ;
358 -> 360 ;
361 [label="entropy = 0.0\nsamples = 1\nvalue = [0, 1]\nclass = y[1]", fillcolor="#399de5ff"] ;
360 -> 361 ;
362 [label="entropy = 0.0\nsamples = 5\nvalue = [5, 0]\nclass = y[0]", fillcolor="#e58139ff"] ;
360 -> 362 ;
363 [label="X[1] <= -0.529\nentropy = 0.38\nsamples = 122\nvalue = [113, 9]\nclass = y[0]", fillcolor="#e58139eb"] ;
357 -> 363 ;
364 [label="X[1] <= -0.59\nentropy = 0.208\nsamples = 61\nvalue = [59, 2]\nclass = y[0]", fillcolor="#e58139f6"] ;
363 -> 364 ;
365 [label="X[1] <= -0.593\nentropy = 0.523\nsamples = 17\nvalue = [15, 2]\nclass = y[0]", fillcolor="#e58139dd"] ;
364 -> 365 ;
366 [label="entropy = 0.0\nsamples = 14\nvalue = [14, 0]\nclass = y[0]", fillcolor="#e58139ff"] ;
365 -> 366 ;
367 [label="X[0] <= 0.032\nentropy = 0.918\nsamples = 3\nvalue = [1, 2]\nclass = y[1]", fillcolor="#399de57f"] ;
365 -> 367 ;
368 [label="entropy = 0.0\nsamples = 1\nvalue = [0, 1]\nclass = y[1]", fillcolor="#399de5ff"] ;
367 -> 368 ;
369 [label="X[1] <= -0.591\nentropy = 1.0\nsamples = 2\nvalue = [1, 1]\nclass = y[0]", fillcolor="#e5813900"] ;
367 -> 369 ;
370 [label="entropy = 0.0\nsamples = 1\nvalue = [1, 0]\nclass = y[0]", fillcolor="#e58139ff"] ;
369 -> 370 ;
371 [label="entropy = 0.0\nsamples = 1\nvalue = [0, 1]\nclass = y[1]", fillcolor="#399de5ff"] ;
369 -> 371 ;
372 [label="entropy = 0.0\nsamples = 44\nvalue = [44, 0]\nclass = y[0]", fillcolor="#e58139ff"] ;
364 -> 372 ;
373 [label="X[1] <= -0.51\nentropy = 0.514\nsamples = 61\nvalue = [54, 7]\nclass = y[0]", fillcolor="#e58139de"] ;
363 -> 373 ;
374 [label="X[0] <= 0.258\nentropy = 0.985\nsamples = 7\nvalue = [4, 3]\nclass = y[0]", fillcolor="#e5813940"] ;
373 -> 374 ;
375 [label="X[1] <= -0.521\nentropy = 0.971\nsamples = 5\nvalue = [2, 3]\nclass = y[1]", fillcolor="#399de555"] ;
374 -> 375 ;
376 [label="X[0] <= -0.013\nentropy = 0.918\nsamples = 3\nvalue = [2, 1]\nclass = y[0]", fillcolor="#e581397f"] ;
375 -> 376 ;
377 [label="entropy = 0.0\nsamples = 1\nvalue = [0, 1]\nclass = y[1]", fillcolor="#399de5ff"] ;
376 -> 377 ;
378 [label="entropy = 0.0\nsamples = 2\nvalue = [2, 0]\nclass = y[0]", fillcolor="#e58139ff"] ;
376 -> 378 ;
379 [label="entropy = 0.0\nsamples = 2\nvalue = [0, 2]\nclass = y[1]", fillcolor="#399de5ff"] ;
375 -> 379 ;
380 [label="entropy = 0.0\nsamples = 2\nvalue = [2, 0]\nclass = y[0]", fillcolor="#e58139ff"] ;
374 -> 380 ;
381 [label="X[0] <= 0.41\nentropy = 0.381\nsamples = 54\nvalue = [50, 4]\nclass = y[0]", fillcolor="#e58139eb"] ;
373 -> 381 ;
382 [label="X[1] <= -0.488\nentropy = 0.314\nsamples = 53\nvalue = [50, 3]\nclass = y[0]", fillcolor="#e58139f0"] ;
381 -> 382 ;
383 [label="entropy = 0.0\nsamples = 19\nvalue = [19, 0]\nclass = y[0]", fillcolor="#e58139ff"] ;
382 -> 383 ;
384 [label="X[1] <= -0.487\nentropy = 0.431\nsamples = 34\nvalue = [31, 3]\nclass = y[0]", fillcolor="#e58139e6"] ;
382 -> 384 ;
385 [label="entropy = 0.0\nsamples = 1\nvalue = [0, 1]\nclass = y[1]", fillcolor="#399de5ff"] ;
384 -> 385 ;
386 [label="X[1] <= -0.448\nentropy = 0.33\nsamples = 33\nvalue = [31, 2]\nclass = y[0]", fillcolor="#e58139ef"] ;
384 -> 386 ;
387 [label="entropy = 0.0\nsamples = 17\nvalue = [17, 0]\nclass = y[0]", fillcolor="#e58139ff"] ;
386 -> 387 ;
388 [label="X[1] <= -0.439\nentropy = 0.544\nsamples = 16\nvalue = [14, 2]\nclass = y[0]", fillcolor="#e58139db"] ;
386 -> 388 ;
389 [label="X[1] <= -0.446\nentropy = 1.0\nsamples = 4\nvalue = [2, 2]\nclass = y[0]", fillcolor="#e5813900"] ;
388 -> 389 ;
390 [label="entropy = 0.0\nsamples = 1\nvalue = [0, 1]\nclass = y[1]", fillcolor="#399de5ff"] ;
389 -> 390 ;
391 [label="X[1] <= -0.443\nentropy = 0.918\nsamples = 3\nvalue = [2, 1]\nclass = y[0]", fillcolor="#e581397f"] ;
389 -> 391 ;
392 [label="entropy = 0.0\nsamples = 2\nvalue = [2, 0]\nclass = y[0]", fillcolor="#e58139ff"] ;
391 -> 392 ;
393 [label="entropy = 0.0\nsamples = 1\nvalue = [0, 1]\nclass = y[1]", fillcolor="#399de5ff"] ;
391 -> 393 ;
394 [label="entropy = 0.0\nsamples = 12\nvalue = [12, 0]\nclass = y[0]", fillcolor="#e58139ff"] ;
388 -> 394 ;
395 [label="entropy = 0.0\nsamples = 1\nvalue = [0, 1]\nclass = y[1]", fillcolor="#399de5ff"] ;
381 -> 395 ;
396 [label="X[0] <= 0.178\nentropy = 0.946\nsamples = 11\nvalue = [7, 4]\nclass = y[0]", fillcolor="#e581396d"] ;
356 -> 396 ;
397 [label="entropy = 0.0\nsamples = 5\nvalue = [5, 0]\nclass = y[0]", fillcolor="#e58139ff"] ;
396 -> 397 ;
398 [label="X[1] <= -0.402\nentropy = 0.918\nsamples = 6\nvalue = [2, 4]\nclass = y[1]", fillcolor="#399de57f"] ;
396 -> 398 ;
399 [label="entropy = 0.0\nsamples = 3\nvalue = [0, 3]\nclass = y[1]", fillcolor="#399de5ff"] ;
398 -> 399 ;
400 [label="X[0] <= 0.268\nentropy = 0.918\nsamples = 3\nvalue = [2, 1]\nclass = y[0]", fillcolor="#e581397f"] ;
398 -> 400 ;
401 [label="entropy = 0.0\nsamples = 1\nvalue = [0, 1]\nclass = y[1]", fillcolor="#399de5ff"] ;
400 -> 401 ;
402 [label="entropy = 0.0\nsamples = 2\nvalue = [2, 0]\nclass = y[0]", fillcolor="#e58139ff"] ;
400 -> 402 ;
403 [label="entropy = 0.0\nsamples = 32\nvalue = [32, 0]\nclass = y[0]", fillcolor="#e58139ff"] ;
355 -> 403 ;
404 [label="X[0] <= 0.538\nentropy = 0.86\nsamples = 53\nvalue = [38, 15]\nclass = y[0]", fillcolor="#e581399a"] ;
354 -> 404 ;
405 [label="entropy = 0.0\nsamples = 2\nvalue = [0, 2]\nclass = y[1]", fillcolor="#399de5ff"] ;
404 -> 405 ;
406 [label="X[1] <= -0.583\nentropy = 0.819\nsamples = 51\nvalue = [38, 13]\nclass = y[0]", fillcolor="#e58139a8"] ;
404 -> 406 ;
407 [label="entropy = 0.0\nsamples = 6\nvalue = [6, 0]\nclass = y[0]", fillcolor="#e58139ff"] ;
406 -> 407 ;
408 [label="X[1] <= -0.555\nentropy = 0.867\nsamples = 45\nvalue = [32, 13]\nclass = y[0]", fillcolor="#e5813997"] ;
406 -> 408 ;
409 [label="entropy = 0.0\nsamples = 3\nvalue = [0, 3]\nclass = y[1]", fillcolor="#399de5ff"] ;
408 -> 409 ;
410 [label="X[0] <= 0.812\nentropy = 0.792\nsamples = 42\nvalue = [32, 10]\nclass = y[0]", fillcolor="#e58139af"] ;
408 -> 410 ;
411 [label="X[1] <= -0.519\nentropy = 0.722\nsamples = 40\nvalue = [32, 8]\nclass = y[0]", fillcolor="#e58139bf"] ;
410 -> 411 ;
412 [label="entropy = 0.0\nsamples = 7\nvalue = [7, 0]\nclass = y[0]", fillcolor="#e58139ff"] ;
411 -> 412 ;
413 [label="X[1] <= -0.515\nentropy = 0.799\nsamples = 33\nvalue = [25, 8]\nclass = y[0]", fillcolor="#e58139ad"] ;
411 -> 413 ;
414 [label="entropy = 0.0\nsamples = 2\nvalue = [0, 2]\nclass = y[1]", fillcolor="#399de5ff"] ;
413 -> 414 ;
415 [label="X[0] <= 0.583\nentropy = 0.709\nsamples = 31\nvalue = [25, 6]\nclass = y[0]", fillcolor="#e58139c2"] ;
413 -> 415 ;
416 [label="X[1] <= -0.459\nentropy = 0.985\nsamples = 7\nvalue = [4, 3]\nclass = y[0]", fillcolor="#e5813940"] ;
415 -> 416 ;
417 [label="entropy = 0.0\nsamples = 3\nvalue = [0, 3]\nclass = y[1]", fillcolor="#399de5ff"] ;
416 -> 417 ;
418 [label="entropy = 0.0\nsamples = 4\nvalue = [4, 0]\nclass = y[0]", fillcolor="#e58139ff"] ;
416 -> 418 ;
419 [label="X[0] <= 0.704\nentropy = 0.544\nsamples = 24\nvalue = [21, 3]\nclass = y[0]", fillcolor="#e58139db"] ;
415 -> 419 ;
420 [label="entropy = 0.0\nsamples = 15\nvalue = [15, 0]\nclass = y[0]", fillcolor="#e58139ff"] ;
419 -> 420 ;
421 [label="X[0] <= 0.724\nentropy = 0.918\nsamples = 9\nvalue = [6, 3]\nclass = y[0]", fillcolor="#e581397f"] ;
419 -> 421 ;
422 [label="entropy = 0.0\nsamples = 1\nvalue = [0, 1]\nclass = y[1]", fillcolor="#399de5ff"] ;
421 -> 422 ;
423 [label="X[0] <= 0.754\nentropy = 0.811\nsamples = 8\nvalue = [6, 2]\nclass = y[0]", fillcolor="#e58139aa"] ;
421 -> 423 ;
424 [label="entropy = 0.0\nsamples = 4\nvalue = [4, 0]\nclass = y[0]", fillcolor="#e58139ff"] ;
423 -> 424 ;
425 [label="X[1] <= -0.476\nentropy = 1.0\nsamples = 4\nvalue = [2, 2]\nclass = y[0]", fillcolor="#e5813900"] ;
423 -> 425 ;
426 [label="entropy = 0.0\nsamples = 2\nvalue = [2, 0]\nclass = y[0]", fillcolor="#e58139ff"] ;
425 -> 426 ;
427 [label="entropy = 0.0\nsamples = 2\nvalue = [0, 2]\nclass = y[1]", fillcolor="#399de5ff"] ;
425 -> 427 ;
428 [label="entropy = 0.0\nsamples = 2\nvalue = [0, 2]\nclass = y[1]", fillcolor="#399de5ff"] ;
410 -> 428 ;
429 [label="X[0] <= 0.862\nentropy = 0.343\nsamples = 172\nvalue = [161, 11]\nclass = y[0]", fillcolor="#e58139ee"] ;
353 -> 429 ;
430 [label="X[1] <= -0.348\nentropy = 0.321\nsamples = 171\nvalue = [161, 10]\nclass = y[0]", fillcolor="#e58139ef"] ;
429 -> 430 ;
431 [label="entropy = 0.0\nsamples = 36\nvalue = [36, 0]\nclass = y[0]", fillcolor="#e58139ff"] ;
430 -> 431 ;
432 [label="X[1] <= -0.348\nentropy = 0.381\nsamples = 135\nvalue = [125, 10]\nclass = y[0]", fillcolor="#e58139eb"] ;
430 -> 432 ;
433 [label="entropy = 0.0\nsamples = 1\nvalue = [0, 1]\nclass = y[1]", fillcolor="#399de5ff"] ;
432 -> 433 ;
434 [label="X[1] <= -0.28\nentropy = 0.355\nsamples = 134\nvalue = [125, 9]\nclass = y[0]", fillcolor="#e58139ed"] ;
432 -> 434 ;
435 [label="X[1] <= -0.283\nentropy = 0.498\nsamples = 64\nvalue = [57, 7]\nclass = y[0]", fillcolor="#e58139e0"] ;
434 -> 435 ;
436 [label="X[0] <= 0.207\nentropy = 0.404\nsamples = 62\nvalue = [57, 5]\nclass = y[0]", fillcolor="#e58139e9"] ;
435 -> 436 ;
437 [label="entropy = 0.0\nsamples = 17\nvalue = [17, 0]\nclass = y[0]", fillcolor="#e58139ff"] ;
436 -> 437 ;
438 [label="X[0] <= 0.247\nentropy = 0.503\nsamples = 45\nvalue = [40, 5]\nclass = y[0]", fillcolor="#e58139df"] ;
436 -> 438 ;
439 [label="entropy = 0.0\nsamples = 1\nvalue = [0, 1]\nclass = y[1]", fillcolor="#399de5ff"] ;
438 -> 439 ;
440 [label="X[0] <= 0.305\nentropy = 0.439\nsamples = 44\nvalue = [40, 4]\nclass = y[0]", fillcolor="#e58139e6"] ;
438 -> 440 ;
441 [label="X[1] <= -0.313\nentropy = 0.918\nsamples = 3\nvalue = [2, 1]\nclass = y[0]", fillcolor="#e581397f"] ;
440 -> 441 ;
442 [label="entropy = 0.0\nsamples = 2\nvalue = [2, 0]\nclass = y[0]", fillcolor="#e58139ff"] ;
441 -> 442 ;
443 [label="entropy = 0.0\nsamples = 1\nvalue = [0, 1]\nclass = y[1]", fillcolor="#399de5ff"] ;
441 -> 443 ;
444 [label="X[1] <= -0.307\nentropy = 0.378\nsamples = 41\nvalue = [38, 3]\nclass = y[0]", fillcolor="#e58139eb"] ;
440 -> 444 ;
445 [label="X[1] <= -0.31\nentropy = 0.559\nsamples = 23\nvalue = [20, 3]\nclass = y[0]", fillcolor="#e58139d9"] ;
444 -> 445 ;
446 [label="X[0] <= 0.69\nentropy = 0.439\nsamples = 22\nvalue = [20, 2]\nclass = y[0]", fillcolor="#e58139e6"] ;
445 -> 446 ;
447 [label="X[0] <= 0.638\nentropy = 0.65\nsamples = 12\nvalue = [10, 2]\nclass = y[0]", fillcolor="#e58139cc"] ;
446 -> 447 ;
448 [label="X[1] <= -0.319\nentropy = 0.439\nsamples = 11\nvalue = [10, 1]\nclass = y[0]", fillcolor="#e58139e6"] ;
447 -> 448 ;
449 [label="entropy = 0.0\nsamples = 8\nvalue = [8, 0]\nclass = y[0]", fillcolor="#e58139ff"] ;
448 -> 449 ;
450 [label="X[1] <= -0.316\nentropy = 0.918\nsamples = 3\nvalue = [2, 1]\nclass = y[0]", fillcolor="#e581397f"] ;
448 -> 450 ;
451 [label="entropy = 0.0\nsamples = 1\nvalue = [0, 1]\nclass = y[1]", fillcolor="#399de5ff"] ;
450 -> 451 ;
452 [label="entropy = 0.0\nsamples = 2\nvalue = [2, 0]\nclass = y[0]", fillcolor="#e58139ff"] ;
450 -> 452 ;
453 [label="entropy = 0.0\nsamples = 1\nvalue = [0, 1]\nclass = y[1]", fillcolor="#399de5ff"] ;
447 -> 453 ;
454 [label="entropy = 0.0\nsamples = 10\nvalue = [10, 0]\nclass = y[0]", fillcolor="#e58139ff"] ;
446 -> 454 ;
455 [label="entropy = 0.0\nsamples = 1\nvalue = [0, 1]\nclass = y[1]", fillcolor="#399de5ff"] ;
445 -> 455 ;
456 [label="entropy = 0.0\nsamples = 18\nvalue = [18, 0]\nclass = y[0]", fillcolor="#e58139ff"] ;
444 -> 456 ;
457 [label="entropy = 0.0\nsamples = 2\nvalue = [0, 2]\nclass = y[1]", fillcolor="#399de5ff"] ;
435 -> 457 ;
458 [label="X[0] <= 0.23\nentropy = 0.187\nsamples = 70\nvalue = [68, 2]\nclass = y[0]", fillcolor="#e58139f8"] ;
434 -> 458 ;
459 [label="entropy = 0.0\nsamples = 24\nvalue = [24, 0]\nclass = y[0]", fillcolor="#e58139ff"] ;
458 -> 459 ;
460 [label="X[0] <= 0.287\nentropy = 0.258\nsamples = 46\nvalue = [44, 2]\nclass = y[0]", fillcolor="#e58139f3"] ;
458 -> 460 ;
461 [label="entropy = 0.0\nsamples = 1\nvalue = [0, 1]\nclass = y[1]", fillcolor="#399de5ff"] ;
460 -> 461 ;
462 [label="X[0] <= 0.794\nentropy = 0.154\nsamples = 45\nvalue = [44, 1]\nclass = y[0]", fillcolor="#e58139f9"] ;
460 -> 462 ;
463 [label="entropy = 0.0\nsamples = 36\nvalue = [36, 0]\nclass = y[0]", fillcolor="#e58139ff"] ;
462 -> 463 ;
464 [label="X[0] <= 0.806\nentropy = 0.503\nsamples = 9\nvalue = [8, 1]\nclass = y[0]", fillcolor="#e58139df"] ;
462 -> 464 ;
465 [label="entropy = 0.0\nsamples = 1\nvalue = [0, 1]\nclass = y[1]", fillcolor="#399de5ff"] ;
464 -> 465 ;
466 [label="entropy = 0.0\nsamples = 8\nvalue = [8, 0]\nclass = y[0]", fillcolor="#e58139ff"] ;
464 -> 466 ;
467 [label="entropy = 0.0\nsamples = 1\nvalue = [0, 1]\nclass = y[1]", fillcolor="#399de5ff"] ;
429 -> 467 ;
468 [label="entropy = 0.0\nsamples = 26\nvalue = [26, 0]\nclass = y[0]", fillcolor="#e58139ff"] ;
258 -> 468 ;
469 [label="X[1] <= -0.439\nentropy = 0.722\nsamples = 5\nvalue = [1, 4]\nclass = y[1]", fillcolor="#399de5bf"] ;
67 -> 469 ;
470 [label="entropy = 0.0\nsamples = 1\nvalue = [1, 0]\nclass = y[0]", fillcolor="#e58139ff"] ;
469 -> 470 ;
471 [label="entropy = 0.0\nsamples = 4\nvalue = [0, 4]\nclass = y[1]", fillcolor="#399de5ff"] ;
469 -> 471 ;
472 [label="X[1] <= -0.282\nentropy = 0.214\nsamples = 118\nvalue = [114, 4]\nclass = y[0]", fillcolor="#e58139f6"] ;
66 -> 472 ;
473 [label="X[1] <= -0.292\nentropy = 0.319\nsamples = 69\nvalue = [65, 4]\nclass = y[0]", fillcolor="#e58139ef"] ;
472 -> 473 ;
474 [label="X[1] <= -0.426\nentropy = 0.198\nsamples = 65\nvalue = [63, 2]\nclass = y[0]", fillcolor="#e58139f7"] ;
473 -> 474 ;
475 [label="entropy = 0.0\nsamples = 31\nvalue = [31, 0]\nclass = y[0]", fillcolor="#e58139ff"] ;
474 -> 475 ;
476 [label="X[1] <= -0.426\nentropy = 0.323\nsamples = 34\nvalue = [32, 2]\nclass = y[0]", fillcolor="#e58139ef"] ;
474 -> 476 ;
477 [label="entropy = 0.0\nsamples = 1\nvalue = [0, 1]\nclass = y[1]", fillcolor="#399de5ff"] ;
476 -> 477 ;
478 [label="X[0] <= 1.198\nentropy = 0.196\nsamples = 33\nvalue = [32, 1]\nclass = y[0]", fillcolor="#e58139f7"] ;
476 -> 478 ;
479 [label="entropy = 0.0\nsamples = 25\nvalue = [25, 0]\nclass = y[0]", fillcolor="#e58139ff"] ;
478 -> 479 ;
480 [label="X[0] <= 1.242\nentropy = 0.544\nsamples = 8\nvalue = [7, 1]\nclass = y[0]", fillcolor="#e58139db"] ;
478 -> 480 ;
481 [label="entropy = 0.0\nsamples = 1\nvalue = [0, 1]\nclass = y[1]", fillcolor="#399de5ff"] ;
480 -> 481 ;
482 [label="entropy = 0.0\nsamples = 7\nvalue = [7, 0]\nclass = y[0]", fillcolor="#e58139ff"] ;
480 -> 482 ;
483 [label="X[0] <= 1.114\nentropy = 1.0\nsamples = 4\nvalue = [2, 2]\nclass = y[0]", fillcolor="#e5813900"] ;
473 -> 483 ;
484 [label="entropy = 0.0\nsamples = 1\nvalue = [1, 0]\nclass = y[0]", fillcolor="#e58139ff"] ;
483 -> 484 ;
485 [label="X[1] <= -0.289\nentropy = 0.918\nsamples = 3\nvalue = [1, 2]\nclass = y[1]", fillcolor="#399de57f"] ;
483 -> 485 ;
486 [label="entropy = 0.0\nsamples = 1\nvalue = [0, 1]\nclass = y[1]", fillcolor="#399de5ff"] ;
485 -> 486 ;
487 [label="X[0] <= 1.533\nentropy = 1.0\nsamples = 2\nvalue = [1, 1]\nclass = y[0]", fillcolor="#e5813900"] ;
485 -> 487 ;
488 [label="entropy = 0.0\nsamples = 1\nvalue = [1, 0]\nclass = y[0]", fillcolor="#e58139ff"] ;
487 -> 488 ;
489 [label="entropy = 0.0\nsamples = 1\nvalue = [0, 1]\nclass = y[1]", fillcolor="#399de5ff"] ;
487 -> 489 ;
490 [label="entropy = 0.0\nsamples = 49\nvalue = [49, 0]\nclass = y[0]", fillcolor="#e58139ff"] ;
472 -> 490 ;
491 [label="X[0] <= -0.996\nentropy = 0.705\nsamples = 496\nvalue = [401, 95]\nclass = y[0]", fillcolor="#e58139c3"] ;
1 -> 491 ;
492 [label="X[1] <= 0.036\nentropy = 0.91\nsamples = 40\nvalue = [13, 27]\nclass = y[1]", fillcolor="#399de584"] ;
491 -> 492 ;
493 [label="X[0] <= -1.822\nentropy = 0.934\nsamples = 20\nvalue = [13, 7]\nclass = y[0]", fillcolor="#e5813976"] ;
492 -> 493 ;
494 [label="X[1] <= -0.159\nentropy = 0.811\nsamples = 4\nvalue = [1, 3]\nclass = y[1]", fillcolor="#399de5aa"] ;
493 -> 494 ;
495 [label="entropy = 0.0\nsamples = 1\nvalue = [1, 0]\nclass = y[0]", fillcolor="#e58139ff"] ;
494 -> 495 ;
496 [label="entropy = 0.0\nsamples = 3\nvalue = [0, 3]\nclass = y[1]", fillcolor="#399de5ff"] ;
494 -> 496 ;
497 [label="X[1] <= -0.074\nentropy = 0.811\nsamples = 16\nvalue = [12, 4]\nclass = y[0]", fillcolor="#e58139aa"] ;
493 -> 497 ;
498 [label="X[1] <= -0.116\nentropy = 0.991\nsamples = 9\nvalue = [5, 4]\nclass = y[0]", fillcolor="#e5813933"] ;
497 -> 498 ;
499 [label="X[1] <= -0.155\nentropy = 0.65\nsamples = 6\nvalue = [5, 1]\nclass = y[0]", fillcolor="#e58139cc"] ;
498 -> 499 ;
500 [label="X[1] <= -0.176\nentropy = 1.0\nsamples = 2\nvalue = [1, 1]\nclass = y[0]", fillcolor="#e5813900"] ;
499 -> 500 ;
501 [label="entropy = 0.0\nsamples = 1\nvalue = [1, 0]\nclass = y[0]", fillcolor="#e58139ff"] ;
500 -> 501 ;
502 [label="entropy = 0.0\nsamples = 1\nvalue = [0, 1]\nclass = y[1]", fillcolor="#399de5ff"] ;
500 -> 502 ;
503 [label="entropy = 0.0\nsamples = 4\nvalue = [4, 0]\nclass = y[0]", fillcolor="#e58139ff"] ;
499 -> 503 ;
504 [label="entropy = 0.0\nsamples = 3\nvalue = [0, 3]\nclass = y[1]", fillcolor="#399de5ff"] ;
498 -> 504 ;
505 [label="entropy = 0.0\nsamples = 7\nvalue = [7, 0]\nclass = y[0]", fillcolor="#e58139ff"] ;
497 -> 505 ;
506 [label="entropy = 0.0\nsamples = 20\nvalue = [0, 20]\nclass = y[1]", fillcolor="#399de5ff"] ;
492 -> 506 ;
507 [label="X[0] <= 0.704\nentropy = 0.608\nsamples = 456\nvalue = [388, 68]\nclass = y[0]", fillcolor="#e58139d2"] ;
491 -> 507 ;
508 [label="X[1] <= 0.018\nentropy = 0.777\nsamples = 192\nvalue = [148, 44]\nclass = y[0]", fillcolor="#e58139b3"] ;
507 -> 508 ;
509 [label="X[0] <= 0.037\nentropy = 0.64\nsamples = 123\nvalue = [103, 20]\nclass = y[0]", fillcolor="#e58139cd"] ;
508 -> 509 ;
510 [label="X[1] <= -0.178\nentropy = 0.414\nsamples = 84\nvalue = [77, 7]\nclass = y[0]", fillcolor="#e58139e8"] ;
509 -> 510 ;
511 [label="entropy = 0.0\nsamples = 1\nvalue = [0, 1]\nclass = y[1]", fillcolor="#399de5ff"] ;
510 -> 511 ;
512 [label="X[0] <= -0.158\nentropy = 0.374\nsamples = 83\nvalue = [77, 6]\nclass = y[0]", fillcolor="#e58139eb"] ;
510 -> 512 ;
513 [label="X[0] <= -0.163\nentropy = 0.464\nsamples = 61\nvalue = [55, 6]\nclass = y[0]", fillcolor="#e58139e3"] ;
512 -> 513 ;
514 [label="X[1] <= -0.148\nentropy = 0.414\nsamples = 60\nvalue = [55, 5]\nclass = y[0]", fillcolor="#e58139e8"] ;
513 -> 514 ;
515 [label="entropy = 0.0\nsamples = 10\nvalue = [10, 0]\nclass = y[0]", fillcolor="#e58139ff"] ;
514 -> 515 ;
516 [label="X[1] <= -0.143\nentropy = 0.469\nsamples = 50\nvalue = [45, 5]\nclass = y[0]", fillcolor="#e58139e3"] ;
514 -> 516 ;
517 [label="entropy = 0.0\nsamples = 1\nvalue = [0, 1]\nclass = y[1]", fillcolor="#399de5ff"] ;
516 -> 517 ;
518 [label="X[1] <= -0.105\nentropy = 0.408\nsamples = 49\nvalue = [45, 4]\nclass = y[0]", fillcolor="#e58139e8"] ;
516 -> 518 ;
519 [label="entropy = 0.0\nsamples = 15\nvalue = [15, 0]\nclass = y[0]", fillcolor="#e58139ff"] ;
518 -> 519 ;
520 [label="X[1] <= -0.103\nentropy = 0.523\nsamples = 34\nvalue = [30, 4]\nclass = y[0]", fillcolor="#e58139dd"] ;
518 -> 520 ;
521 [label="entropy = 0.0\nsamples = 1\nvalue = [0, 1]\nclass = y[1]", fillcolor="#399de5ff"] ;
520 -> 521 ;
522 [label="X[1] <= -0.081\nentropy = 0.439\nsamples = 33\nvalue = [30, 3]\nclass = y[0]", fillcolor="#e58139e6"] ;
520 -> 522 ;
523 [label="X[1] <= -0.085\nentropy = 0.764\nsamples = 9\nvalue = [7, 2]\nclass = y[0]", fillcolor="#e58139b6"] ;
522 -> 523 ;
524 [label="entropy = 0.0\nsamples = 7\nvalue = [7, 0]\nclass = y[0]", fillcolor="#e58139ff"] ;
523 -> 524 ;
525 [label="entropy = 0.0\nsamples = 2\nvalue = [0, 2]\nclass = y[1]", fillcolor="#399de5ff"] ;
523 -> 525 ;
526 [label="X[1] <= 0.002\nentropy = 0.25\nsamples = 24\nvalue = [23, 1]\nclass = y[0]", fillcolor="#e58139f4"] ;
522 -> 526 ;
527 [label="entropy = 0.0\nsamples = 21\nvalue = [21, 0]\nclass = y[0]", fillcolor="#e58139ff"] ;
526 -> 527 ;
528 [label="X[1] <= 0.005\nentropy = 0.918\nsamples = 3\nvalue = [2, 1]\nclass = y[0]", fillcolor="#e581397f"] ;
526 -> 528 ;
529 [label="entropy = 0.0\nsamples = 1\nvalue = [0, 1]\nclass = y[1]", fillcolor="#399de5ff"] ;
528 -> 529 ;
530 [label="entropy = 0.0\nsamples = 2\nvalue = [2, 0]\nclass = y[0]", fillcolor="#e58139ff"] ;
528 -> 530 ;
531 [label="entropy = 0.0\nsamples = 1\nvalue = [0, 1]\nclass = y[1]", fillcolor="#399de5ff"] ;
513 -> 531 ;
532 [label="entropy = 0.0\nsamples = 22\nvalue = [22, 0]\nclass = y[0]", fillcolor="#e58139ff"] ;
512 -> 532 ;
533 [label="X[0] <= 0.427\nentropy = 0.918\nsamples = 39\nvalue = [26, 13]\nclass = y[0]", fillcolor="#e581397f"] ;
509 -> 533 ;
534 [label="X[1] <= -0.154\nentropy = 0.94\nsamples = 14\nvalue = [5, 9]\nclass = y[1]", fillcolor="#399de571"] ;
533 -> 534 ;
535 [label="entropy = 0.0\nsamples = 3\nvalue = [0, 3]\nclass = y[1]", fillcolor="#399de5ff"] ;
534 -> 535 ;
536 [label="X[1] <= -0.13\nentropy = 0.994\nsamples = 11\nvalue = [5, 6]\nclass = y[1]", fillcolor="#399de52a"] ;
534 -> 536 ;
537 [label="entropy = 0.0\nsamples = 2\nvalue = [2, 0]\nclass = y[0]", fillcolor="#e58139ff"] ;
536 -> 537 ;
538 [label="X[0] <= 0.186\nentropy = 0.918\nsamples = 9\nvalue = [3, 6]\nclass = y[1]", fillcolor="#399de57f"] ;
536 -> 538 ;
539 [label="entropy = 0.0\nsamples = 4\nvalue = [0, 4]\nclass = y[1]", fillcolor="#399de5ff"] ;
538 -> 539 ;
540 [label="X[1] <= -0.118\nentropy = 0.971\nsamples = 5\nvalue = [3, 2]\nclass = y[0]", fillcolor="#e5813955"] ;
538 -> 540 ;
541 [label="entropy = 0.0\nsamples = 1\nvalue = [0, 1]\nclass = y[1]", fillcolor="#399de5ff"] ;
540 -> 541 ;
542 [label="X[0] <= 0.339\nentropy = 0.811\nsamples = 4\nvalue = [3, 1]\nclass = y[0]", fillcolor="#e58139aa"] ;
540 -> 542 ;
543 [label="entropy = 0.0\nsamples = 3\nvalue = [3, 0]\nclass = y[0]", fillcolor="#e58139ff"] ;
542 -> 543 ;
544 [label="entropy = 0.0\nsamples = 1\nvalue = [0, 1]\nclass = y[1]", fillcolor="#399de5ff"] ;
542 -> 544 ;
545 [label="X[0] <= 0.615\nentropy = 0.634\nsamples = 25\nvalue = [21, 4]\nclass = y[0]", fillcolor="#e58139ce"] ;
533 -> 545 ;
546 [label="entropy = 0.0\nsamples = 19\nvalue = [19, 0]\nclass = y[0]", fillcolor="#e58139ff"] ;
545 -> 546 ;
547 [label="X[1] <= -0.175\nentropy = 0.918\nsamples = 6\nvalue = [2, 4]\nclass = y[1]", fillcolor="#399de57f"] ;
545 -> 547 ;
548 [label="entropy = 0.0\nsamples = 1\nvalue = [1, 0]\nclass = y[0]", fillcolor="#e58139ff"] ;
547 -> 548 ;
549 [label="X[1] <= -0.058\nentropy = 0.722\nsamples = 5\nvalue = [1, 4]\nclass = y[1]", fillcolor="#399de5bf"] ;
547 -> 549 ;
550 [label="entropy = 0.0\nsamples = 4\nvalue = [0, 4]\nclass = y[1]", fillcolor="#399de5ff"] ;
549 -> 550 ;
551 [label="entropy = 0.0\nsamples = 1\nvalue = [1, 0]\nclass = y[0]", fillcolor="#e58139ff"] ;
549 -> 551 ;
552 [label="X[1] <= 0.188\nentropy = 0.932\nsamples = 69\nvalue = [45, 24]\nclass = y[0]", fillcolor="#e5813977"] ;
508 -> 552 ;
553 [label="X[1] <= 0.023\nentropy = 0.971\nsamples = 60\nvalue = [36, 24]\nclass = y[0]", fillcolor="#e5813955"] ;
552 -> 553 ;
554 [label="entropy = 0.0\nsamples = 2\nvalue = [0, 2]\nclass = y[1]", fillcolor="#399de5ff"] ;
553 -> 554 ;
555 [label="X[0] <= 0.484\nentropy = 0.958\nsamples = 58\nvalue = [36, 22]\nclass = y[0]", fillcolor="#e5813963"] ;
553 -> 555 ;
556 [label="X[0] <= 0.385\nentropy = 0.992\nsamples = 47\nvalue = [26, 21]\nclass = y[0]", fillcolor="#e5813931"] ;
555 -> 556 ;
557 [label="X[0] <= 0.283\nentropy = 0.976\nsamples = 44\nvalue = [26, 18]\nclass = y[0]", fillcolor="#e581394e"] ;
556 -> 557 ;
558 [label="X[0] <= 0.15\nentropy = 0.993\nsamples = 40\nvalue = [22, 18]\nclass = y[0]", fillcolor="#e581392e"] ;
557 -> 558 ;
559 [label="X[0] <= 0.077\nentropy = 0.974\nsamples = 37\nvalue = [22, 15]\nclass = y[0]", fillcolor="#e5813951"] ;
558 -> 559 ;
560 [label="X[0] <= 0.063\nentropy = 0.985\nsamples = 35\nvalue = [20, 15]\nclass = y[0]", fillcolor="#e5813940"] ;
559 -> 560 ;
561 [label="X[0] <= -0.704\nentropy = 0.967\nsamples = 33\nvalue = [20, 13]\nclass = y[0]", fillcolor="#e5813959"] ;
560 -> 561 ;
562 [label="X[1] <= 0.122\nentropy = 0.918\nsamples = 6\nvalue = [2, 4]\nclass = y[1]", fillcolor="#399de57f"] ;
561 -> 562 ;
563 [label="entropy = 0.0\nsamples = 4\nvalue = [0, 4]\nclass = y[1]", fillcolor="#399de5ff"] ;
562 -> 563 ;
564 [label="entropy = 0.0\nsamples = 2\nvalue = [2, 0]\nclass = y[0]", fillcolor="#e58139ff"] ;
562 -> 564 ;
565 [label="X[0] <= -0.549\nentropy = 0.918\nsamples = 27\nvalue = [18, 9]\nclass = y[0]", fillcolor="#e581397f"] ;
561 -> 565 ;
566 [label="entropy = 0.0\nsamples = 9\nvalue = [9, 0]\nclass = y[0]", fillcolor="#e58139ff"] ;
565 -> 566 ;
567 [label="X[1] <= 0.084\nentropy = 1.0\nsamples = 18\nvalue = [9, 9]\nclass = y[0]", fillcolor="#e5813900"] ;
565 -> 567 ;
568 [label="X[1] <= 0.054\nentropy = 0.592\nsamples = 7\nvalue = [6, 1]\nclass = y[0]", fillcolor="#e58139d4"] ;
567 -> 568 ;
569 [label="X[1] <= 0.052\nentropy = 0.918\nsamples = 3\nvalue = [2, 1]\nclass = y[0]", fillcolor="#e581397f"] ;
568 -> 569 ;
570 [label="entropy = 0.0\nsamples = 2\nvalue = [2, 0]\nclass = y[0]", fillcolor="#e58139ff"] ;
569 -> 570 ;
571 [label="entropy = 0.0\nsamples = 1\nvalue = [0, 1]\nclass = y[1]", fillcolor="#399de5ff"] ;
569 -> 571 ;
572 [label="entropy = 0.0\nsamples = 4\nvalue = [4, 0]\nclass = y[0]", fillcolor="#e58139ff"] ;
568 -> 572 ;
573 [label="X[1] <= 0.14\nentropy = 0.845\nsamples = 11\nvalue = [3, 8]\nclass = y[1]", fillcolor="#399de59f"] ;
567 -> 573 ;
574 [label="entropy = 0.0\nsamples = 6\nvalue = [0, 6]\nclass = y[1]", fillcolor="#399de5ff"] ;
573 -> 574 ;
575 [label="X[1] <= 0.164\nentropy = 0.971\nsamples = 5\nvalue = [3, 2]\nclass = y[0]", fillcolor="#e5813955"] ;
573 -> 575 ;
576 [label="entropy = 0.0\nsamples = 2\nvalue = [2, 0]\nclass = y[0]", fillcolor="#e58139ff"] ;
575 -> 576 ;
577 [label="X[0] <= -0.274\nentropy = 0.918\nsamples = 3\nvalue = [1, 2]\nclass = y[1]", fillcolor="#399de57f"] ;
575 -> 577 ;
578 [label="entropy = 0.0\nsamples = 1\nvalue = [0, 1]\nclass = y[1]", fillcolor="#399de5ff"] ;
577 -> 578 ;
579 [label="X[0] <= 0.023\nentropy = 1.0\nsamples = 2\nvalue = [1, 1]\nclass = y[0]", fillcolor="#e5813900"] ;
577 -> 579 ;
580 [label="entropy = 0.0\nsamples = 1\nvalue = [1, 0]\nclass = y[0]", fillcolor="#e58139ff"] ;
579 -> 580 ;
581 [label="entropy = 0.0\nsamples = 1\nvalue = [0, 1]\nclass = y[1]", fillcolor="#399de5ff"] ;
579 -> 581 ;
582 [label="entropy = 0.0\nsamples = 2\nvalue = [0, 2]\nclass = y[1]", fillcolor="#399de5ff"] ;
560 -> 582 ;
583 [label="entropy = 0.0\nsamples = 2\nvalue = [2, 0]\nclass = y[0]", fillcolor="#e58139ff"] ;
559 -> 583 ;
584 [label="entropy = 0.0\nsamples = 3\nvalue = [0, 3]\nclass = y[1]", fillcolor="#399de5ff"] ;
558 -> 584 ;
585 [label="entropy = 0.0\nsamples = 4\nvalue = [4, 0]\nclass = y[0]", fillcolor="#e58139ff"] ;
557 -> 585 ;
586 [label="entropy = 0.0\nsamples = 3\nvalue = [0, 3]\nclass = y[1]", fillcolor="#399de5ff"] ;
556 -> 586 ;
587 [label="X[0] <= 0.638\nentropy = 0.439\nsamples = 11\nvalue = [10, 1]\nclass = y[0]", fillcolor="#e58139e6"] ;
555 -> 587 ;
588 [label="entropy = 0.0\nsamples = 8\nvalue = [8, 0]\nclass = y[0]", fillcolor="#e58139ff"] ;
587 -> 588 ;
589 [label="X[1] <= 0.095\nentropy = 0.918\nsamples = 3\nvalue = [2, 1]\nclass = y[0]", fillcolor="#e581397f"] ;
587 -> 589 ;
590 [label="entropy = 0.0\nsamples = 1\nvalue = [0, 1]\nclass = y[1]", fillcolor="#399de5ff"] ;
589 -> 590 ;
591 [label="entropy = 0.0\nsamples = 2\nvalue = [2, 0]\nclass = y[0]", fillcolor="#e58139ff"] ;
589 -> 591 ;
592 [label="entropy = 0.0\nsamples = 9\nvalue = [9, 0]\nclass = y[0]", fillcolor="#e58139ff"] ;
552 -> 592 ;
593 [label="X[1] <= -0.078\nentropy = 0.439\nsamples = 264\nvalue = [240, 24]\nclass = y[0]", fillcolor="#e58139e6"] ;
507 -> 593 ;
594 [label="X[1] <= -0.081\nentropy = 0.687\nsamples = 60\nvalue = [49, 11]\nclass = y[0]", fillcolor="#e58139c6"] ;
593 -> 594 ;
595 [label="X[0] <= 0.848\nentropy = 0.623\nsamples = 58\nvalue = [49, 9]\nclass = y[0]", fillcolor="#e58139d0"] ;
594 -> 595 ;
596 [label="entropy = 0.0\nsamples = 8\nvalue = [8, 0]\nclass = y[0]", fillcolor="#e58139ff"] ;
595 -> 596 ;
597 [label="X[0] <= 0.907\nentropy = 0.68\nsamples = 50\nvalue = [41, 9]\nclass = y[0]", fillcolor="#e58139c7"] ;
595 -> 597 ;
598 [label="entropy = 0.0\nsamples = 2\nvalue = [0, 2]\nclass = y[1]", fillcolor="#399de5ff"] ;
597 -> 598 ;
599 [label="X[1] <= -0.18\nentropy = 0.599\nsamples = 48\nvalue = [41, 7]\nclass = y[0]", fillcolor="#e58139d3"] ;
597 -> 599 ;
600 [label="X[1] <= -0.182\nentropy = 1.0\nsamples = 4\nvalue = [2, 2]\nclass = y[0]", fillcolor="#e5813900"] ;
599 -> 600 ;
601 [label="entropy = 0.0\nsamples = 2\nvalue = [2, 0]\nclass = y[0]", fillcolor="#e58139ff"] ;
600 -> 601 ;
602 [label="entropy = 0.0\nsamples = 2\nvalue = [0, 2]\nclass = y[1]", fillcolor="#399de5ff"] ;
600 -> 602 ;
603 [label="X[1] <= -0.099\nentropy = 0.511\nsamples = 44\nvalue = [39, 5]\nclass = y[0]", fillcolor="#e58139de"] ;
599 -> 603 ;
604 [label="X[0] <= 1.078\nentropy = 0.316\nsamples = 35\nvalue = [33, 2]\nclass = y[0]", fillcolor="#e58139f0"] ;
603 -> 604 ;
605 [label="entropy = 0.0\nsamples = 17\nvalue = [17, 0]\nclass = y[0]", fillcolor="#e58139ff"] ;
604 -> 605 ;
606 [label="X[0] <= 1.214\nentropy = 0.503\nsamples = 18\nvalue = [16, 2]\nclass = y[0]", fillcolor="#e58139df"] ;
604 -> 606 ;
607 [label="X[0] <= 1.14\nentropy = 0.918\nsamples = 3\nvalue = [1, 2]\nclass = y[1]", fillcolor="#399de57f"] ;
606 -> 607 ;
608 [label="entropy = 0.0\nsamples = 1\nvalue = [0, 1]\nclass = y[1]", fillcolor="#399de5ff"] ;
607 -> 608 ;
609 [label="X[1] <= -0.135\nentropy = 1.0\nsamples = 2\nvalue = [1, 1]\nclass = y[0]", fillcolor="#e5813900"] ;
607 -> 609 ;
610 [label="entropy = 0.0\nsamples = 1\nvalue = [1, 0]\nclass = y[0]", fillcolor="#e58139ff"] ;
609 -> 610 ;
611 [label="entropy = 0.0\nsamples = 1\nvalue = [0, 1]\nclass = y[1]", fillcolor="#399de5ff"] ;
609 -> 611 ;
612 [label="entropy = 0.0\nsamples = 15\nvalue = [15, 0]\nclass = y[0]", fillcolor="#e58139ff"] ;
606 -> 612 ;
613 [label="X[1] <= -0.096\nentropy = 0.918\nsamples = 9\nvalue = [6, 3]\nclass = y[0]", fillcolor="#e581397f"] ;
603 -> 613 ;
614 [label="entropy = 0.0\nsamples = 3\nvalue = [0, 3]\nclass = y[1]", fillcolor="#399de5ff"] ;
613 -> 614 ;
615 [label="entropy = 0.0\nsamples = 6\nvalue = [6, 0]\nclass = y[0]", fillcolor="#e58139ff"] ;
613 -> 615 ;
616 [label="entropy = 0.0\nsamples = 2\nvalue = [0, 2]\nclass = y[1]", fillcolor="#399de5ff"] ;
594 -> 616 ;
617 [label="X[0] <= 1.518\nentropy = 0.342\nsamples = 204\nvalue = [191, 13]\nclass = y[0]", fillcolor="#e58139ee"] ;
593 -> 617 ;
618 [label="X[0] <= 1.5\nentropy = 0.402\nsamples = 150\nvalue = [138, 12]\nclass = y[0]", fillcolor="#e58139e9"] ;
617 -> 618 ;
619 [label="X[1] <= -0.026\nentropy = 0.36\nsamples = 146\nvalue = [136, 10]\nclass = y[0]", fillcolor="#e58139ec"] ;
618 -> 619 ;
620 [label="entropy = 0.0\nsamples = 26\nvalue = [26, 0]\nclass = y[0]", fillcolor="#e58139ff"] ;
619 -> 620 ;
621 [label="X[1] <= -0.024\nentropy = 0.414\nsamples = 120\nvalue = [110, 10]\nclass = y[0]", fillcolor="#e58139e8"] ;
619 -> 621 ;
622 [label="entropy = 0.0\nsamples = 1\nvalue = [0, 1]\nclass = y[1]", fillcolor="#399de5ff"] ;
621 -> 622 ;
623 [label="X[0] <= 1.376\nentropy = 0.387\nsamples = 119\nvalue = [110, 9]\nclass = y[0]", fillcolor="#e58139ea"] ;
621 -> 623 ;
624 [label="X[0] <= 1.339\nentropy = 0.433\nsamples = 101\nvalue = [92, 9]\nclass = y[0]", fillcolor="#e58139e6"] ;
623 -> 624 ;
625 [label="X[0] <= 1.099\nentropy = 0.335\nsamples = 97\nvalue = [91, 6]\nclass = y[0]", fillcolor="#e58139ee"] ;
624 -> 625 ;
626 [label="X[0] <= 1.088\nentropy = 0.489\nsamples = 47\nvalue = [42, 5]\nclass = y[0]", fillcolor="#e58139e1"] ;
625 -> 626 ;
627 [label="X[0] <= 0.779\nentropy = 0.426\nsamples = 46\nvalue = [42, 4]\nclass = y[0]", fillcolor="#e58139e7"] ;
626 -> 627 ;
628 [label="entropy = 0.0\nsamples = 10\nvalue = [10, 0]\nclass = y[0]", fillcolor="#e58139ff"] ;
627 -> 628 ;
629 [label="X[0] <= 0.784\nentropy = 0.503\nsamples = 36\nvalue = [32, 4]\nclass = y[0]", fillcolor="#e58139df"] ;
627 -> 629 ;
630 [label="entropy = 0.0\nsamples = 1\nvalue = [0, 1]\nclass = y[1]", fillcolor="#399de5ff"] ;
629 -> 630 ;
631 [label="X[0] <= 0.995\nentropy = 0.422\nsamples = 35\nvalue = [32, 3]\nclass = y[0]", fillcolor="#e58139e7"] ;
629 -> 631 ;
632 [label="X[0] <= 0.829\nentropy = 0.242\nsamples = 25\nvalue = [24, 1]\nclass = y[0]", fillcolor="#e58139f4"] ;
631 -> 632 ;
633 [label="X[0] <= 0.826\nentropy = 0.503\nsamples = 9\nvalue = [8, 1]\nclass = y[0]", fillcolor="#e58139df"] ;
632 -> 633 ;
634 [label="entropy = 0.0\nsamples = 8\nvalue = [8, 0]\nclass = y[0]", fillcolor="#e58139ff"] ;
633 -> 634 ;
635 [label="entropy = 0.0\nsamples = 1\nvalue = [0, 1]\nclass = y[1]", fillcolor="#399de5ff"] ;
633 -> 635 ;
636 [label="entropy = 0.0\nsamples = 16\nvalue = [16, 0]\nclass = y[0]", fillcolor="#e58139ff"] ;
632 -> 636 ;
637 [label="X[0] <= 1.002\nentropy = 0.722\nsamples = 10\nvalue = [8, 2]\nclass = y[0]", fillcolor="#e58139bf"] ;
631 -> 637 ;
638 [label="entropy = 0.0\nsamples = 2\nvalue = [0, 2]\nclass = y[1]", fillcolor="#399de5ff"] ;
637 -> 638 ;
639 [label="entropy = 0.0\nsamples = 8\nvalue = [8, 0]\nclass = y[0]", fillcolor="#e58139ff"] ;
637 -> 639 ;
640 [label="entropy = 0.0\nsamples = 1\nvalue = [0, 1]\nclass = y[1]", fillcolor="#399de5ff"] ;
626 -> 640 ;
641 [label="X[1] <= -0.015\nentropy = 0.141\nsamples = 50\nvalue = [49, 1]\nclass = y[0]", fillcolor="#e58139fa"] ;
625 -> 641 ;
642 [label="X[1] <= -0.016\nentropy = 0.811\nsamples = 4\nvalue = [3, 1]\nclass = y[0]", fillcolor="#e58139aa"] ;
641 -> 642 ;
643 [label="entropy = 0.0\nsamples = 3\nvalue = [3, 0]\nclass = y[0]", fillcolor="#e58139ff"] ;
642 -> 643 ;
644 [label="entropy = 0.0\nsamples = 1\nvalue = [0, 1]\nclass = y[1]", fillcolor="#399de5ff"] ;
642 -> 644 ;
645 [label="entropy = 0.0\nsamples = 46\nvalue = [46, 0]\nclass = y[0]", fillcolor="#e58139ff"] ;
641 -> 645 ;
646 [label="X[1] <= 0.035\nentropy = 0.811\nsamples = 4\nvalue = [1, 3]\nclass = y[1]", fillcolor="#399de5aa"] ;
624 -> 646 ;
647 [label="entropy = 0.0\nsamples = 1\nvalue = [1, 0]\nclass = y[0]", fillcolor="#e58139ff"] ;
646 -> 647 ;
648 [label="entropy = 0.0\nsamples = 3\nvalue = [0, 3]\nclass = y[1]", fillcolor="#399de5ff"] ;
646 -> 648 ;
649 [label="entropy = 0.0\nsamples = 18\nvalue = [18, 0]\nclass = y[0]", fillcolor="#e58139ff"] ;
623 -> 649 ;
650 [label="X[0] <= 1.507\nentropy = 1.0\nsamples = 4\nvalue = [2, 2]\nclass = y[0]", fillcolor="#e5813900"] ;
618 -> 650 ;
651 [label="entropy = 0.0\nsamples = 1\nvalue = [0, 1]\nclass = y[1]", fillcolor="#399de5ff"] ;
650 -> 651 ;
652 [label="X[0] <= 1.514\nentropy = 0.918\nsamples = 3\nvalue = [2, 1]\nclass = y[0]", fillcolor="#e581397f"] ;
650 -> 652 ;
653 [label="entropy = 0.0\nsamples = 2\nvalue = [2, 0]\nclass = y[0]", fillcolor="#e58139ff"] ;
652 -> 653 ;
654 [label="entropy = 0.0\nsamples = 1\nvalue = [0, 1]\nclass = y[1]", fillcolor="#399de5ff"] ;
652 -> 654 ;
655 [label="X[0] <= 1.89\nentropy = 0.133\nsamples = 54\nvalue = [53, 1]\nclass = y[0]", fillcolor="#e58139fa"] ;
617 -> 655 ;
656 [label="entropy = 0.0\nsamples = 42\nvalue = [42, 0]\nclass = y[0]", fillcolor="#e58139ff"] ;
655 -> 656 ;
657 [label="X[0] <= 1.941\nentropy = 0.414\nsamples = 12\nvalue = [11, 1]\nclass = y[0]", fillcolor="#e58139e8"] ;
655 -> 657 ;
658 [label="entropy = 0.0\nsamples = 1\nvalue = [0, 1]\nclass = y[1]", fillcolor="#399de5ff"] ;
657 -> 658 ;
659 [label="entropy = 0.0\nsamples = 11\nvalue = [11, 0]\nclass = y[0]", fillcolor="#e58139ff"] ;
657 -> 659 ;
660 [label="X[0] <= 1.394\nentropy = 0.997\nsamples = 575\nvalue = [268, 307]\nclass = y[1]", fillcolor="#399de520"] ;
0 -> 660 [labeldistance=2.5, labelangle=-45, headlabel="False"] ;
661 [label="X[1] <= 0.421\nentropy = 0.552\nsamples = 320\nvalue = [41, 279]\nclass = y[1]", fillcolor="#399de5da"] ;
660 -> 661 ;
662 [label="X[0] <= -0.473\nentropy = 0.943\nsamples = 111\nvalue = [40, 71]\nclass = y[1]", fillcolor="#399de56f"] ;
661 -> 662 ;
663 [label="X[1] <= 0.217\nentropy = 0.146\nsamples = 48\nvalue = [1, 47]\nclass = y[1]", fillcolor="#399de5fa"] ;
662 -> 663 ;
664 [label="X[1] <= 0.212\nentropy = 0.811\nsamples = 4\nvalue = [1, 3]\nclass = y[1]", fillcolor="#399de5aa"] ;
663 -> 664 ;
665 [label="entropy = 0.0\nsamples = 3\nvalue = [0, 3]\nclass = y[1]", fillcolor="#399de5ff"] ;
664 -> 665 ;
666 [label="entropy = 0.0\nsamples = 1\nvalue = [1, 0]\nclass = y[0]", fillcolor="#e58139ff"] ;
664 -> 666 ;
667 [label="entropy = 0.0\nsamples = 44\nvalue = [0, 44]\nclass = y[1]", fillcolor="#399de5ff"] ;
663 -> 667 ;
668 [label="X[0] <= 1.065\nentropy = 0.959\nsamples = 63\nvalue = [39, 24]\nclass = y[0]", fillcolor="#e5813962"] ;
662 -> 668 ;
669 [label="X[0] <= -0.384\nentropy = 0.999\nsamples = 50\nvalue = [26, 24]\nclass = y[0]", fillcolor="#e5813914"] ;
668 -> 669 ;
670 [label="entropy = 0.0\nsamples = 7\nvalue = [7, 0]\nclass = y[0]", fillcolor="#e58139ff"] ;
669 -> 670 ;
671 [label="X[0] <= 0.915\nentropy = 0.99\nsamples = 43\nvalue = [19, 24]\nclass = y[1]", fillcolor="#399de535"] ;
669 -> 671 ;
672 [label="X[0] <= 0.694\nentropy = 1.0\nsamples = 39\nvalue = [19, 20]\nclass = y[1]", fillcolor="#399de50d"] ;
671 -> 672 ;
673 [label="X[0] <= 0.379\nentropy = 0.963\nsamples = 31\nvalue = [12, 19]\nclass = y[1]", fillcolor="#399de55e"] ;
672 -> 673 ;
674 [label="X[0] <= 0.169\nentropy = 0.999\nsamples = 23\nvalue = [12, 11]\nclass = y[0]", fillcolor="#e5813915"] ;
673 -> 674 ;
675 [label="X[1] <= 0.405\nentropy = 0.89\nsamples = 13\nvalue = [4, 9]\nclass = y[1]", fillcolor="#399de58e"] ;
674 -> 675 ;
676 [label="X[0] <= -0.301\nentropy = 0.811\nsamples = 12\nvalue = [3, 9]\nclass = y[1]", fillcolor="#399de5aa"] ;
675 -> 676 ;
677 [label="entropy = 0.0\nsamples = 2\nvalue = [0, 2]\nclass = y[1]", fillcolor="#399de5ff"] ;
676 -> 677 ;
678 [label="X[0] <= -0.245\nentropy = 0.881\nsamples = 10\nvalue = [3, 7]\nclass = y[1]", fillcolor="#399de592"] ;
676 -> 678 ;
679 [label="entropy = 0.0\nsamples = 1\nvalue = [1, 0]\nclass = y[0]", fillcolor="#e58139ff"] ;
678 -> 679 ;
680 [label="X[1] <= 0.248\nentropy = 0.764\nsamples = 9\nvalue = [2, 7]\nclass = y[1]", fillcolor="#399de5b6"] ;
678 -> 680 ;
681 [label="entropy = 0.0\nsamples = 2\nvalue = [0, 2]\nclass = y[1]", fillcolor="#399de5ff"] ;
680 -> 681 ;
682 [label="X[1] <= 0.261\nentropy = 0.863\nsamples = 7\nvalue = [2, 5]\nclass = y[1]", fillcolor="#399de599"] ;
680 -> 682 ;
683 [label="entropy = 0.0\nsamples = 1\nvalue = [1, 0]\nclass = y[0]", fillcolor="#e58139ff"] ;
682 -> 683 ;
684 [label="X[0] <= 0.113\nentropy = 0.65\nsamples = 6\nvalue = [1, 5]\nclass = y[1]", fillcolor="#399de5cc"] ;
682 -> 684 ;
685 [label="entropy = 0.0\nsamples = 4\nvalue = [0, 4]\nclass = y[1]", fillcolor="#399de5ff"] ;
684 -> 685 ;
686 [label="X[1] <= 0.317\nentropy = 1.0\nsamples = 2\nvalue = [1, 1]\nclass = y[0]", fillcolor="#e5813900"] ;
684 -> 686 ;
687 [label="entropy = 0.0\nsamples = 1\nvalue = [0, 1]\nclass = y[1]", fillcolor="#399de5ff"] ;
686 -> 687 ;
688 [label="entropy = 0.0\nsamples = 1\nvalue = [1, 0]\nclass = y[0]", fillcolor="#e58139ff"] ;
686 -> 688 ;
689 [label="entropy = 0.0\nsamples = 1\nvalue = [1, 0]\nclass = y[0]", fillcolor="#e58139ff"] ;
675 -> 689 ;
690 [label="X[1] <= 0.377\nentropy = 0.722\nsamples = 10\nvalue = [8, 2]\nclass = y[0]", fillcolor="#e58139bf"] ;
674 -> 690 ;
691 [label="X[1] <= 0.303\nentropy = 0.503\nsamples = 9\nvalue = [8, 1]\nclass = y[0]", fillcolor="#e58139df"] ;
690 -> 691 ;
692 [label="X[1] <= 0.271\nentropy = 0.918\nsamples = 3\nvalue = [2, 1]\nclass = y[0]", fillcolor="#e581397f"] ;
691 -> 692 ;
693 [label="entropy = 0.0\nsamples = 2\nvalue = [2, 0]\nclass = y[0]", fillcolor="#e58139ff"] ;
692 -> 693 ;
694 [label="entropy = 0.0\nsamples = 1\nvalue = [0, 1]\nclass = y[1]", fillcolor="#399de5ff"] ;
692 -> 694 ;
695 [label="entropy = 0.0\nsamples = 6\nvalue = [6, 0]\nclass = y[0]", fillcolor="#e58139ff"] ;
691 -> 695 ;
696 [label="entropy = 0.0\nsamples = 1\nvalue = [0, 1]\nclass = y[1]", fillcolor="#399de5ff"] ;
690 -> 696 ;
697 [label="entropy = 0.0\nsamples = 8\nvalue = [0, 8]\nclass = y[1]", fillcolor="#399de5ff"] ;
673 -> 697 ;
698 [label="X[0] <= 0.867\nentropy = 0.544\nsamples = 8\nvalue = [7, 1]\nclass = y[0]", fillcolor="#e58139db"] ;
672 -> 698 ;
699 [label="entropy = 0.0\nsamples = 6\nvalue = [6, 0]\nclass = y[0]", fillcolor="#e58139ff"] ;
698 -> 699 ;
700 [label="X[1] <= 0.278\nentropy = 1.0\nsamples = 2\nvalue = [1, 1]\nclass = y[0]", fillcolor="#e5813900"] ;
698 -> 700 ;
701 [label="entropy = 0.0\nsamples = 1\nvalue = [0, 1]\nclass = y[1]", fillcolor="#399de5ff"] ;
700 -> 701 ;
702 [label="entropy = 0.0\nsamples = 1\nvalue = [1, 0]\nclass = y[0]", fillcolor="#e58139ff"] ;
700 -> 702 ;
703 [label="entropy = 0.0\nsamples = 4\nvalue = [0, 4]\nclass = y[1]", fillcolor="#399de5ff"] ;
671 -> 703 ;
704 [label="entropy = 0.0\nsamples = 13\nvalue = [13, 0]\nclass = y[0]", fillcolor="#e58139ff"] ;
668 -> 704 ;
705 [label="X[1] <= 0.446\nentropy = 0.044\nsamples = 209\nvalue = [1, 208]\nclass = y[1]", fillcolor="#399de5fe"] ;
661 -> 705 ;
706 [label="X[1] <= 0.444\nentropy = 0.337\nsamples = 16\nvalue = [1, 15]\nclass = y[1]", fillcolor="#399de5ee"] ;
705 -> 706 ;
707 [label="entropy = 0.0\nsamples = 15\nvalue = [0, 15]\nclass = y[1]", fillcolor="#399de5ff"] ;
706 -> 707 ;
708 [label="entropy = 0.0\nsamples = 1\nvalue = [1, 0]\nclass = y[0]", fillcolor="#e58139ff"] ;
706 -> 708 ;
709 [label="entropy = 0.0\nsamples = 193\nvalue = [0, 193]\nclass = y[1]", fillcolor="#399de5ff"] ;
705 -> 709 ;
710 [label="X[1] <= 0.347\nentropy = 0.499\nsamples = 255\nvalue = [227, 28]\nclass = y[0]", fillcolor="#e58139e0"] ;
660 -> 710 ;
711 [label="X[1] <= 0.209\nentropy = 0.214\nsamples = 59\nvalue = [57, 2]\nclass = y[0]", fillcolor="#e58139f6"] ;
710 -> 711 ;
712 [label="entropy = 0.0\nsamples = 1\nvalue = [0, 1]\nclass = y[1]", fillcolor="#399de5ff"] ;
711 -> 712 ;
713 [label="X[1] <= 0.241\nentropy = 0.126\nsamples = 58\nvalue = [57, 1]\nclass = y[0]", fillcolor="#e58139fb"] ;
711 -> 713 ;
714 [label="X[1] <= 0.24\nentropy = 0.391\nsamples = 13\nvalue = [12, 1]\nclass = y[0]", fillcolor="#e58139ea"] ;
713 -> 714 ;
715 [label="entropy = 0.0\nsamples = 12\nvalue = [12, 0]\nclass = y[0]", fillcolor="#e58139ff"] ;
714 -> 715 ;
716 [label="entropy = 0.0\nsamples = 1\nvalue = [0, 1]\nclass = y[1]", fillcolor="#399de5ff"] ;
714 -> 716 ;
717 [label="entropy = 0.0\nsamples = 45\nvalue = [45, 0]\nclass = y[0]", fillcolor="#e58139ff"] ;
713 -> 717 ;
718 [label="X[0] <= 1.604\nentropy = 0.565\nsamples = 196\nvalue = [170, 26]\nclass = y[0]", fillcolor="#e58139d8"] ;
710 -> 718 ;
719 [label="X[1] <= 0.512\nentropy = 0.994\nsamples = 11\nvalue = [5, 6]\nclass = y[1]", fillcolor="#399de52a"] ;
718 -> 719 ;
720 [label="entropy = 0.0\nsamples = 5\nvalue = [5, 0]\nclass = y[0]", fillcolor="#e58139ff"] ;
719 -> 720 ;
721 [label="entropy = 0.0\nsamples = 6\nvalue = [0, 6]\nclass = y[1]", fillcolor="#399de5ff"] ;
719 -> 721 ;
722 [label="X[1] <= 0.35\nentropy = 0.494\nsamples = 185\nvalue = [165, 20]\nclass = y[0]", fillcolor="#e58139e0"] ;
718 -> 722 ;
723 [label="entropy = 0.0\nsamples = 1\nvalue = [0, 1]\nclass = y[1]", fillcolor="#399de5ff"] ;
722 -> 723 ;
724 [label="X[0] <= 1.763\nentropy = 0.479\nsamples = 184\nvalue = [165, 19]\nclass = y[0]", fillcolor="#e58139e2"] ;
722 -> 724 ;
725 [label="X[1] <= 0.929\nentropy = 0.755\nsamples = 23\nvalue = [18, 5]\nclass = y[0]", fillcolor="#e58139b8"] ;
724 -> 725 ;
726 [label="X[0] <= 1.719\nentropy = 0.297\nsamples = 19\nvalue = [18, 1]\nclass = y[0]", fillcolor="#e58139f1"] ;
725 -> 726 ;
727 [label="entropy = 0.0\nsamples = 16\nvalue = [16, 0]\nclass = y[0]", fillcolor="#e58139ff"] ;
726 -> 727 ;
728 [label="X[1] <= 0.502\nentropy = 0.918\nsamples = 3\nvalue = [2, 1]\nclass = y[0]", fillcolor="#e581397f"] ;
726 -> 728 ;
729 [label="entropy = 0.0\nsamples = 1\nvalue = [0, 1]\nclass = y[1]", fillcolor="#399de5ff"] ;
728 -> 729 ;
730 [label="entropy = 0.0\nsamples = 2\nvalue = [2, 0]\nclass = y[0]", fillcolor="#e58139ff"] ;
728 -> 730 ;
731 [label="entropy = 0.0\nsamples = 4\nvalue = [0, 4]\nclass = y[1]", fillcolor="#399de5ff"] ;
725 -> 731 ;
732 [label="X[1] <= 0.924\nentropy = 0.426\nsamples = 161\nvalue = [147, 14]\nclass = y[0]", fillcolor="#e58139e7"] ;
724 -> 732 ;
733 [label="X[0] <= 1.903\nentropy = 0.54\nsamples = 105\nvalue = [92, 13]\nclass = y[0]", fillcolor="#e58139db"] ;
732 -> 733 ;
734 [label="entropy = 0.0\nsamples = 19\nvalue = [19, 0]\nclass = y[0]", fillcolor="#e58139ff"] ;
733 -> 734 ;
735 [label="X[0] <= 1.93\nentropy = 0.613\nsamples = 86\nvalue = [73, 13]\nclass = y[0]", fillcolor="#e58139d2"] ;
733 -> 735 ;
736 [label="entropy = 0.0\nsamples = 2\nvalue = [0, 2]\nclass = y[1]", fillcolor="#399de5ff"] ;
735 -> 736 ;
737 [label="X[0] <= 2.069\nentropy = 0.56\nsamples = 84\nvalue = [73, 11]\nclass = y[0]", fillcolor="#e58139d9"] ;
735 -> 737 ;
738 [label="entropy = 0.0\nsamples = 17\nvalue = [17, 0]\nclass = y[0]", fillcolor="#e58139ff"] ;
737 -> 738 ;
739 [label="X[1] <= 0.529\nentropy = 0.644\nsamples = 67\nvalue = [56, 11]\nclass = y[0]", fillcolor="#e58139cd"] ;
737 -> 739 ;
740 [label="X[0] <= 2.116\nentropy = 1.0\nsamples = 10\nvalue = [5, 5]\nclass = y[0]", fillcolor="#e5813900"] ;
739 -> 740 ;
741 [label="entropy = 0.0\nsamples = 4\nvalue = [4, 0]\nclass = y[0]", fillcolor="#e58139ff"] ;
740 -> 741 ;
742 [label="X[1] <= 0.4\nentropy = 0.65\nsamples = 6\nvalue = [1, 5]\nclass = y[1]", fillcolor="#399de5cc"] ;
740 -> 742 ;
743 [label="X[0] <= 2.274\nentropy = 1.0\nsamples = 2\nvalue = [1, 1]\nclass = y[0]", fillcolor="#e5813900"] ;
742 -> 743 ;
744 [label="entropy = 0.0\nsamples = 1\nvalue = [0, 1]\nclass = y[1]", fillcolor="#399de5ff"] ;
743 -> 744 ;
745 [label="entropy = 0.0\nsamples = 1\nvalue = [1, 0]\nclass = y[0]", fillcolor="#e58139ff"] ;
743 -> 745 ;
746 [label="entropy = 0.0\nsamples = 4\nvalue = [0, 4]\nclass = y[1]", fillcolor="#399de5ff"] ;
742 -> 746 ;
747 [label="X[1] <= 0.711\nentropy = 0.485\nsamples = 57\nvalue = [51, 6]\nclass = y[0]", fillcolor="#e58139e1"] ;
739 -> 747 ;
748 [label="entropy = 0.0\nsamples = 30\nvalue = [30, 0]\nclass = y[0]", fillcolor="#e58139ff"] ;
747 -> 748 ;
749 [label="X[1] <= 0.725\nentropy = 0.764\nsamples = 27\nvalue = [21, 6]\nclass = y[0]", fillcolor="#e58139b6"] ;
747 -> 749 ;
750 [label="entropy = 0.0\nsamples = 2\nvalue = [0, 2]\nclass = y[1]", fillcolor="#399de5ff"] ;
749 -> 750 ;
751 [label="X[1] <= 0.843\nentropy = 0.634\nsamples = 25\nvalue = [21, 4]\nclass = y[0]", fillcolor="#e58139ce"] ;
749 -> 751 ;
752 [label="X[0] <= 2.129\nentropy = 0.297\nsamples = 19\nvalue = [18, 1]\nclass = y[0]", fillcolor="#e58139f1"] ;
751 -> 752 ;
753 [label="entropy = 0.0\nsamples = 1\nvalue = [0, 1]\nclass = y[1]", fillcolor="#399de5ff"] ;
752 -> 753 ;
754 [label="entropy = 0.0\nsamples = 18\nvalue = [18, 0]\nclass = y[0]", fillcolor="#e58139ff"] ;
752 -> 754 ;
755 [label="X[0] <= 2.453\nentropy = 1.0\nsamples = 6\nvalue = [3, 3]\nclass = y[0]", fillcolor="#e5813900"] ;
751 -> 755 ;
756 [label="entropy = 0.0\nsamples = 2\nvalue = [2, 0]\nclass = y[0]", fillcolor="#e58139ff"] ;
755 -> 756 ;
757 [label="X[0] <= 3.179\nentropy = 0.811\nsamples = 4\nvalue = [1, 3]\nclass = y[1]", fillcolor="#399de5aa"] ;
755 -> 757 ;
758 [label="entropy = 0.0\nsamples = 3\nvalue = [0, 3]\nclass = y[1]", fillcolor="#399de5ff"] ;
757 -> 758 ;
759 [label="entropy = 0.0\nsamples = 1\nvalue = [1, 0]\nclass = y[0]", fillcolor="#e58139ff"] ;
757 -> 759 ;
760 [label="X[1] <= 1.576\nentropy = 0.129\nsamples = 56\nvalue = [55, 1]\nclass = y[0]", fillcolor="#e58139fa"] ;
732 -> 760 ;
761 [label="entropy = 0.0\nsamples = 51\nvalue = [51, 0]\nclass = y[0]", fillcolor="#e58139ff"] ;
760 -> 761 ;
762 [label="X[1] <= 1.734\nentropy = 0.722\nsamples = 5\nvalue = [4, 1]\nclass = y[0]", fillcolor="#e58139bf"] ;
760 -> 762 ;
763 [label="entropy = 0.0\nsamples = 1\nvalue = [0, 1]\nclass = y[1]", fillcolor="#399de5ff"] ;
762 -> 763 ;
764 [label="entropy = 0.0\nsamples = 4\nvalue = [4, 0]\nclass = y[0]", fillcolor="#e58139ff"] ;
762 -> 764 ;
}