digraph Tree {
node [shape=box, style="filled, rounded", color="black", fontname=helvetica] ;
edge [fontname=helvetica] ;
0 [label="X[1] <= 0.137\nentropy = 0.747\nsamples = 732\nvalue = [576, 156]\nclass = y[0]", fillcolor="#e58139ba"] ;
1 [label="X[0] <= -0.498\nentropy = 0.895\nsamples = 170\nvalue = [53, 117]\nclass = y[1]", fillcolor="#399de58b"] ;
0 -> 1 [labeldistance=2.5, labelangle=45, headlabel="True"] ;
2 [label="entropy = 0.0\nsamples = 45\nvalue = [45, 0]\nclass = y[0]", fillcolor="#e58139ff"] ;
1 -> 2 ;
3 [label="X[1] <= 0.003\nentropy = 0.343\nsamples = 125\nvalue = [8, 117]\nclass = y[1]", fillcolor="#399de5ee"] ;
1 -> 3 ;
4 [label="entropy = 0.0\nsamples = 103\nvalue = [0, 103]\nclass = y[1]", fillcolor="#399de5ff"] ;
3 -> 4 ;
5 [label="X[0] <= 1.017\nentropy = 0.946\nsamples = 22\nvalue = [8, 14]\nclass = y[1]", fillcolor="#399de56d"] ;
3 -> 5 ;
6 [label="X[0] <= 0.557\nentropy = 0.961\nsamples = 13\nvalue = [8, 5]\nclass = y[0]", fillcolor="#e5813960"] ;
5 -> 6 ;
7 [label="entropy = 0.0\nsamples = 5\nvalue = [0, 5]\nclass = y[1]", fillcolor="#399de5ff"] ;
6 -> 7 ;
8 [label="entropy = 0.0\nsamples = 8\nvalue = [8, 0]\nclass = y[0]", fillcolor="#e58139ff"] ;
6 -> 8 ;
9 [label="entropy = 0.0\nsamples = 9\nvalue = [0, 9]\nclass = y[1]", fillcolor="#399de5ff"] ;
5 -> 9 ;
10 [label="X[0] <= 1.694\nentropy = 0.364\nsamples = 562\nvalue = [523, 39]\nclass = y[0]", fillcolor="#e58139ec"] ;
0 -> 10 [labeldistance=2.5, labelangle=-45, headlabel="False"] ;
11 [label="X[1] <= 0.69\nentropy = 0.252\nsamples = 546\nvalue = [523, 23]\nclass = y[0]", fillcolor="#e58139f4"] ;
10 -> 11 ;
12 [label="X[0] <= -0.483\nentropy = 0.452\nsamples = 232\nvalue = [210, 22]\nclass = y[0]", fillcolor="#e58139e4"] ;
11 -> 12 ;
13 [label="entropy = 0.0\nsamples = 97\nvalue = [97, 0]\nclass = y[0]", fillcolor="#e58139ff"] ;
12 -> 13 ;
14 [label="X[0] <= 0.7\nentropy = 0.641\nsamples = 135\nvalue = [113, 22]\nclass = y[0]", fillcolor="#e58139cd"] ;
12 -> 14 ;
15 [label="X[1] <= 0.351\nentropy = 0.924\nsamples = 62\nvalue = [41, 21]\nclass = y[0]", fillcolor="#e581397c"] ;
14 -> 15 ;
16 [label="X[1] <= 0.215\nentropy = 0.469\nsamples = 10\nvalue = [1, 9]\nclass = y[1]", fillcolor="#399de5e3"] ;
15 -> 16 ;
17 [label="entropy = 0.0\nsamples = 1\nvalue = [1, 0]\nclass = y[0]", fillcolor="#e58139ff"] ;
16 -> 17 ;
18 [label="entropy = 0.0\nsamples = 9\nvalue = [0, 9]\nclass = y[1]", fillcolor="#399de5ff"] ;
16 -> 18 ;
19 [label="X[1] <= 0.476\nentropy = 0.779\nsamples = 52\nvalue = [40, 12]\nclass = y[0]", fillcolor="#e58139b3"] ;
15 -> 19 ;
20 [label="X[0] <= 0.339\nentropy = 0.982\nsamples = 19\nvalue = [11, 8]\nclass = y[0]", fillcolor="#e5813946"] ;
19 -> 20 ;
21 [label="X[0] <= -0.294\nentropy = 0.764\nsamples = 9\nvalue = [2, 7]\nclass = y[1]", fillcolor="#399de5b6"] ;
20 -> 21 ;
22 [label="entropy = 0.0\nsamples = 2\nvalue = [2, 0]\nclass = y[0]", fillcolor="#e58139ff"] ;
21 -> 22 ;
23 [label="entropy = 0.0\nsamples = 7\nvalue = [0, 7]\nclass = y[1]", fillcolor="#399de5ff"] ;
21 -> 23 ;
24 [label="X[0] <= 0.57\nentropy = 0.469\nsamples = 10\nvalue = [9, 1]\nclass = y[0]", fillcolor="#e58139e3"] ;
20 -> 24 ;
25 [label="X[0] <= 0.471\nentropy = 0.722\nsamples = 5\nvalue = [4, 1]\nclass = y[0]", fillcolor="#e58139bf"] ;
24 -> 25 ;
26 [label="entropy = 0.0\nsamples = 4\nvalue = [4, 0]\nclass = y[0]", fillcolor="#e58139ff"] ;
25 -> 26 ;
27 [label="entropy = 0.0\nsamples = 1\nvalue = [0, 1]\nclass = y[1]", fillcolor="#399de5ff"] ;
25 -> 27 ;
28 [label="entropy = 0.0\nsamples = 5\nvalue = [5, 0]\nclass = y[0]", fillcolor="#e58139ff"] ;
24 -> 28 ;
29 [label="X[1] <= 0.596\nentropy = 0.533\nsamples = 33\nvalue = [29, 4]\nclass = y[0]", fillcolor="#e58139dc"] ;
19 -> 29 ;
30 [label="entropy = 0.0\nsamples = 19\nvalue = [19, 0]\nclass = y[0]", fillcolor="#e58139ff"] ;
29 -> 30 ;
31 [label="X[0] <= 0.606\nentropy = 0.863\nsamples = 14\nvalue = [10, 4]\nclass = y[0]", fillcolor="#e5813999"] ;
29 -> 31 ;
32 [label="X[1] <= 0.599\nentropy = 0.65\nsamples = 12\nvalue = [10, 2]\nclass = y[0]", fillcolor="#e58139cc"] ;
31 -> 32 ;
33 [label="entropy = 0.0\nsamples = 1\nvalue = [0, 1]\nclass = y[1]", fillcolor="#399de5ff"] ;
32 -> 33 ;
34 [label="X[1] <= 0.682\nentropy = 0.439\nsamples = 11\nvalue = [10, 1]\nclass = y[0]", fillcolor="#e58139e6"] ;
32 -> 34 ;
35 [label="entropy = 0.0\nsamples = 10\nvalue = [10, 0]\nclass = y[0]", fillcolor="#e58139ff"] ;
34 -> 35 ;
36 [label="entropy = 0.0\nsamples = 1\nvalue = [0, 1]\nclass = y[1]", fillcolor="#399de5ff"] ;
34 -> 36 ;
37 [label="entropy = 0.0\nsamples = 2\nvalue = [0, 2]\nclass = y[1]", fillcolor="#399de5ff"] ;
31 -> 37 ;
38 [label="X[0] <= 0.915\nentropy = 0.104\nsamples = 73\nvalue = [72, 1]\nclass = y[0]", fillcolor="#e58139fb"] ;
14 -> 38 ;
39 [label="X[0] <= 0.897\nentropy = 0.196\nsamples = 33\nvalue = [32, 1]\nclass = y[0]", fillcolor="#e58139f7"] ;
38 -> 39 ;
40 [label="entropy = 0.0\nsamples = 32\nvalue = [32, 0]\nclass = y[0]", fillcolor="#e58139ff"] ;
39 -> 40 ;
41 [label="entropy = 0.0\nsamples = 1\nvalue = [0, 1]\nclass = y[1]", fillcolor="#399de5ff"] ;
39 -> 41 ;
42 [label="entropy = 0.0\nsamples = 40\nvalue = [40, 0]\nclass = y[0]", fillcolor="#e58139ff"] ;
38 -> 42 ;
43 [label="X[0] <= -0.344\nentropy = 0.031\nsamples = 314\nvalue = [313, 1]\nclass = y[0]", fillcolor="#e58139fe"] ;
11 -> 43 ;
44 [label="X[0] <= -0.351\nentropy = 0.089\nsamples = 89\nvalue = [88, 1]\nclass = y[0]", fillcolor="#e58139fc"] ;
43 -> 44 ;
45 [label="entropy = 0.0\nsamples = 88\nvalue = [88, 0]\nclass = y[0]", fillcolor="#e58139ff"] ;
44 -> 45 ;
46 [label="entropy = 0.0\nsamples = 1\nvalue = [0, 1]\nclass = y[1]", fillcolor="#399de5ff"] ;
44 -> 46 ;
47 [label="entropy = 0.0\nsamples = 225\nvalue = [225, 0]\nclass = y[0]", fillcolor="#e58139ff"] ;
43 -> 47 ;
48 [label="entropy = 0.0\nsamples = 16\nvalue = [0, 16]\nclass = y[1]", fillcolor="#399de5ff"] ;
10 -> 48 ;
}