digraph Tree {
node [shape=box, style="filled, rounded", color="black", fontname=helvetica] ;
edge [fontname=helvetica] ;
0 [label="X[1] <= 0.167\nentropy = 0.783\nsamples = 1000\nvalue = [767, 233]\nclass = y[0]", fillcolor="#e58139b2"] ;
1 [label="X[1] <= -0.645\nentropy = 0.419\nsamples = 718\nvalue = [657, 61]\nclass = y[0]", fillcolor="#e58139e7"] ;
0 -> 1 [labeldistance=2.5, labelangle=45, headlabel="True"] ;
2 [label="X[0] <= -1.28\nentropy = 0.216\nsamples = 319\nvalue = [308, 11]\nclass = y[0]", fillcolor="#e58139f6"] ;
1 -> 2 ;
3 [label="entropy = 0.0\nsamples = 64\nvalue = [64, 0]\nclass = y[0]", fillcolor="#e58139ff"] ;
2 -> 3 ;
4 [label="X[0] <= -1.275\nentropy = 0.256\nsamples = 255\nvalue = [244, 11]\nclass = y[0]", fillcolor="#e58139f4"] ;
2 -> 4 ;
5 [label="entropy = 0.0\nsamples = 1\nvalue = [0, 1]\nclass = y[1]", fillcolor="#399de5ff"] ;
4 -> 5 ;
6 [label="X[1] <= -0.721\nentropy = 0.239\nsamples = 254\nvalue = [244, 10]\nclass = y[0]", fillcolor="#e58139f5"] ;
4 -> 6 ;
7 [label="entropy = 0.272\nsamples = 214\nvalue = [204, 10]\nclass = y[0]", fillcolor="#e58139f2"] ;
6 -> 7 ;
8 [label="entropy = 0.0\nsamples = 40\nvalue = [40, 0]\nclass = y[0]", fillcolor="#e58139ff"] ;
6 -> 8 ;
9 [label="X[0] <= 0.465\nentropy = 0.544\nsamples = 399\nvalue = [349, 50]\nclass = y[0]", fillcolor="#e58139da"] ;
1 -> 9 ;
10 [label="X[0] <= 0.079\nentropy = 0.63\nsamples = 234\nvalue = [197, 37]\nclass = y[0]", fillcolor="#e58139cf"] ;
9 -> 10 ;
11 [label="X[1] <= -0.044\nentropy = 0.505\nsamples = 161\nvalue = [143, 18]\nclass = y[0]", fillcolor="#e58139df"] ;
10 -> 11 ;
12 [label="entropy = 0.407\nsamples = 135\nvalue = [124, 11]\nclass = y[0]", fillcolor="#e58139e8"] ;
11 -> 12 ;
13 [label="entropy = 0.84\nsamples = 26\nvalue = [19, 7]\nclass = y[0]", fillcolor="#e58139a1"] ;
11 -> 13 ;
14 [label="X[1] <= -0.604\nentropy = 0.827\nsamples = 73\nvalue = [54, 19]\nclass = y[0]", fillcolor="#e58139a5"] ;
10 -> 14 ;
15 [label="entropy = 0.0\nsamples = 6\nvalue = [6, 0]\nclass = y[0]", fillcolor="#e58139ff"] ;
14 -> 15 ;
16 [label="entropy = 0.86\nsamples = 67\nvalue = [48, 19]\nclass = y[0]", fillcolor="#e581399a"] ;
14 -> 16 ;
17 [label="X[0] <= 0.69\nentropy = 0.398\nsamples = 165\nvalue = [152, 13]\nclass = y[0]", fillcolor="#e58139e9"] ;
9 -> 17 ;
18 [label="entropy = 0.0\nsamples = 40\nvalue = [40, 0]\nclass = y[0]", fillcolor="#e58139ff"] ;
17 -> 18 ;
19 [label="X[0] <= 1.571\nentropy = 0.482\nsamples = 125\nvalue = [112, 13]\nclass = y[0]", fillcolor="#e58139e1"] ;
17 -> 19 ;
20 [label="entropy = 0.544\nsamples = 104\nvalue = [91, 13]\nclass = y[0]", fillcolor="#e58139db"] ;
19 -> 20 ;
21 [label="entropy = 0.0\nsamples = 21\nvalue = [21, 0]\nclass = y[0]", fillcolor="#e58139ff"] ;
19 -> 21 ;
22 [label="X[0] <= 1.528\nentropy = 0.965\nsamples = 282\nvalue = [110, 172]\nclass = y[1]", fillcolor="#399de55c"] ;
0 -> 22 [labeldistance=2.5, labelangle=-45, headlabel="False"] ;
23 [label="X[1] <= 0.467\nentropy = 0.75\nsamples = 210\nvalue = [45, 165]\nclass = y[1]", fillcolor="#399de5b9"] ;
22 -> 23 ;
24 [label="X[0] <= -0.939\nentropy = 0.981\nsamples = 74\nvalue = [31, 43]\nclass = y[1]", fillcolor="#399de547"] ;
23 -> 24 ;
25 [label="entropy = 0.0\nsamples = 18\nvalue = [0, 18]\nclass = y[1]", fillcolor="#399de5ff"] ;
24 -> 25 ;
26 [label="X[1] <= 0.33\nentropy = 0.992\nsamples = 56\nvalue = [31, 25]\nclass = y[0]", fillcolor="#e5813931"] ;
24 -> 26 ;
27 [label="entropy = 0.908\nsamples = 34\nvalue = [23, 11]\nclass = y[0]", fillcolor="#e5813985"] ;
26 -> 27 ;
28 [label="entropy = 0.946\nsamples = 22\nvalue = [8, 14]\nclass = y[1]", fillcolor="#399de56d"] ;
26 -> 28 ;
29 [label="X[1] <= 0.732\nentropy = 0.478\nsamples = 136\nvalue = [14, 122]\nclass = y[1]", fillcolor="#399de5e2"] ;
23 -> 29 ;
30 [label="X[0] <= 0.211\nentropy = 0.687\nsamples = 60\nvalue = [11, 49]\nclass = y[1]", fillcolor="#399de5c6"] ;
29 -> 30 ;
31 [label="entropy = 0.191\nsamples = 34\nvalue = [1, 33]\nclass = y[1]", fillcolor="#399de5f7"] ;
30 -> 31 ;
32 [label="entropy = 0.961\nsamples = 26\nvalue = [10, 16]\nclass = y[1]", fillcolor="#399de560"] ;
30 -> 32 ;
33 [label="X[0] <= -0.342\nentropy = 0.24\nsamples = 76\nvalue = [3, 73]\nclass = y[1]", fillcolor="#399de5f5"] ;
29 -> 33 ;
34 [label="entropy = 0.811\nsamples = 8\nvalue = [2, 6]\nclass = y[1]", fillcolor="#399de5aa"] ;
33 -> 34 ;
35 [label="entropy = 0.111\nsamples = 68\nvalue = [1, 67]\nclass = y[1]", fillcolor="#399de5fb"] ;
33 -> 35 ;
36 [label="X[0] <= 2.774\nentropy = 0.46\nsamples = 72\nvalue = [65, 7]\nclass = y[0]", fillcolor="#e58139e4"] ;
22 -> 36 ;
37 [label="X[0] <= 1.838\nentropy = 0.219\nsamples = 57\nvalue = [55, 2]\nclass = y[0]", fillcolor="#e58139f6"] ;
36 -> 37 ;
38 [label="X[0] <= 1.821\nentropy = 0.65\nsamples = 12\nvalue = [10, 2]\nclass = y[0]", fillcolor="#e58139cc"] ;
37 -> 38 ;
39 [label="entropy = 0.439\nsamples = 11\nvalue = [10, 1]\nclass = y[0]", fillcolor="#e58139e6"] ;
38 -> 39 ;
40 [label="entropy = 0.0\nsamples = 1\nvalue = [0, 1]\nclass = y[1]", fillcolor="#399de5ff"] ;
38 -> 40 ;
41 [label="entropy = 0.0\nsamples = 45\nvalue = [45, 0]\nclass = y[0]", fillcolor="#e58139ff"] ;
37 -> 41 ;
42 [label="X[0] <= 2.954\nentropy = 0.918\nsamples = 15\nvalue = [10, 5]\nclass = y[0]", fillcolor="#e581397f"] ;
36 -> 42 ;
43 [label="X[0] <= 2.846\nentropy = 0.65\nsamples = 6\nvalue = [1, 5]\nclass = y[1]", fillcolor="#399de5cc"] ;
42 -> 43 ;
44 [label="entropy = 0.918\nsamples = 3\nvalue = [1, 2]\nclass = y[1]", fillcolor="#399de57f"] ;
43 -> 44 ;
45 [label="entropy = 0.0\nsamples = 3\nvalue = [0, 3]\nclass = y[1]", fillcolor="#399de5ff"] ;
43 -> 45 ;
46 [label="entropy = 0.0\nsamples = 9\nvalue = [9, 0]\nclass = y[0]", fillcolor="#e58139ff"] ;
42 -> 46 ;
}