digraph Tree {
node [shape=box, style="filled, rounded", color="black", fontname=helvetica] ;
edge [fontname=helvetica] ;
0 [label="X[1] <= 0.307\nentropy = 0.753\nsamples = 1433\nvalue = [1123, 310]\nclass = y[0]", fillcolor="#e58139b9"] ;
1 [label="X[0] <= -0.433\nentropy = 0.956\nsamples = 435\nvalue = [164, 271]\nclass = y[1]", fillcolor="#399de565"] ;
0 -> 1 [labeldistance=2.5, labelangle=45, headlabel="True"] ;
2 [label="X[0] <= -0.882\nentropy = 0.125\nsamples = 117\nvalue = [115, 2]\nclass = y[0]", fillcolor="#e58139fb"] ;
1 -> 2 ;
3 [label="entropy = 0.0\nsamples = 77\nvalue = [77, 0]\nclass = y[0]", fillcolor="#e58139ff"] ;
2 -> 3 ;
4 [label="X[0] <= -0.872\nentropy = 0.286\nsamples = 40\nvalue = [38, 2]\nclass = y[0]", fillcolor="#e58139f2"] ;
2 -> 4 ;
5 [label="entropy = 0.0\nsamples = 1\nvalue = [0, 1]\nclass = y[1]", fillcolor="#399de5ff"] ;
4 -> 5 ;
6 [label="X[1] <= 0.234\nentropy = 0.172\nsamples = 39\nvalue = [38, 1]\nclass = y[0]", fillcolor="#e58139f8"] ;
4 -> 6 ;
7 [label="entropy = 0.0\nsamples = 34\nvalue = [34, 0]\nclass = y[0]", fillcolor="#e58139ff"] ;
6 -> 7 ;
8 [label="entropy = 0.722\nsamples = 5\nvalue = [4, 1]\nclass = y[0]", fillcolor="#e58139bf"] ;
6 -> 8 ;
9 [label="X[1] <= -0.049\nentropy = 0.62\nsamples = 318\nvalue = [49, 269]\nclass = y[1]", fillcolor="#399de5d1"] ;
1 -> 9 ;
10 [label="entropy = 0.0\nsamples = 179\nvalue = [0, 179]\nclass = y[1]", fillcolor="#399de5ff"] ;
9 -> 10 ;
11 [label="X[0] <= 1.186\nentropy = 0.936\nsamples = 139\nvalue = [49, 90]\nclass = y[1]", fillcolor="#399de574"] ;
9 -> 11 ;
12 [label="X[0] <= 0.541\nentropy = 0.987\nsamples = 83\nvalue = [47, 36]\nclass = y[0]", fillcolor="#e581393c"] ;
11 -> 12 ;
13 [label="entropy = 0.422\nsamples = 35\nvalue = [3, 32]\nclass = y[1]", fillcolor="#399de5e7"] ;
12 -> 13 ;
14 [label="entropy = 0.414\nsamples = 48\nvalue = [44, 4]\nclass = y[0]", fillcolor="#e58139e8"] ;
12 -> 14 ;
15 [label="X[0] <= 1.487\nentropy = 0.222\nsamples = 56\nvalue = [2, 54]\nclass = y[1]", fillcolor="#399de5f6"] ;
11 -> 15 ;
16 [label="entropy = 0.567\nsamples = 15\nvalue = [2, 13]\nclass = y[1]", fillcolor="#399de5d8"] ;
15 -> 16 ;
17 [label="entropy = 0.0\nsamples = 41\nvalue = [0, 41]\nclass = y[1]", fillcolor="#399de5ff"] ;
15 -> 17 ;
18 [label="X[0] <= 1.457\nentropy = 0.238\nsamples = 998\nvalue = [959, 39]\nclass = y[0]", fillcolor="#e58139f5"] ;
0 -> 18 [labeldistance=2.5, labelangle=-45, headlabel="False"] ;
19 [label="X[1] <= 0.44\nentropy = 0.166\nsamples = 983\nvalue = [959, 24]\nclass = y[0]", fillcolor="#e58139f9"] ;
18 -> 19 ;
20 [label="X[0] <= -0.129\nentropy = 0.523\nsamples = 119\nvalue = [105, 14]\nclass = y[0]", fillcolor="#e58139dd"] ;
19 -> 20 ;
21 [label="entropy = 0.0\nsamples = 65\nvalue = [65, 0]\nclass = y[0]", fillcolor="#e58139ff"] ;
20 -> 21 ;
22 [label="X[0] <= 0.306\nentropy = 0.826\nsamples = 54\nvalue = [40, 14]\nclass = y[0]", fillcolor="#e58139a6"] ;
20 -> 22 ;
23 [label="entropy = 0.837\nsamples = 15\nvalue = [4, 11]\nclass = y[1]", fillcolor="#399de5a2"] ;
22 -> 23 ;
24 [label="entropy = 0.391\nsamples = 39\nvalue = [36, 3]\nclass = y[0]", fillcolor="#e58139ea"] ;
22 -> 24 ;
25 [label="X[1] <= 0.847\nentropy = 0.091\nsamples = 864\nvalue = [854, 10]\nclass = y[0]", fillcolor="#e58139fc"] ;
19 -> 25 ;
26 [label="X[0] <= -0.447\nentropy = 0.15\nsamples = 419\nvalue = [410, 9]\nclass = y[0]", fillcolor="#e58139f9"] ;
25 -> 26 ;
27 [label="entropy = 0.0\nsamples = 157\nvalue = [157, 0]\nclass = y[0]", fillcolor="#e58139ff"] ;
26 -> 27 ;
28 [label="entropy = 0.216\nsamples = 262\nvalue = [253, 9]\nclass = y[0]", fillcolor="#e58139f6"] ;
26 -> 28 ;
29 [label="X[1] <= 1.163\nentropy = 0.023\nsamples = 445\nvalue = [444, 1]\nclass = y[0]", fillcolor="#e58139fe"] ;
25 -> 29 ;
30 [label="entropy = 0.0\nsamples = 301\nvalue = [301, 0]\nclass = y[0]", fillcolor="#e58139ff"] ;
29 -> 30 ;
31 [label="entropy = 0.06\nsamples = 144\nvalue = [143, 1]\nclass = y[0]", fillcolor="#e58139fd"] ;
29 -> 31 ;
32 [label="entropy = 0.0\nsamples = 15\nvalue = [0, 15]\nclass = y[1]", fillcolor="#399de5ff"] ;
18 -> 32 ;
}