digraph Tree {
node [shape=box, style="filled, rounded", color="black", fontname=helvetica] ;
edge [fontname=helvetica] ;
0 [label="worst concave points <= 0.428\nentropy = 0.945\nsamples = 455\nvalue = [165, 290]\nclass = benign", fillcolor="#399de56e"] ;
1 [label="worst perimeter <= 0.021\nentropy = 0.399\nsamples = 303\nvalue = [24, 279]\nclass = benign", fillcolor="#399de5e9"] ;
0 -> 1 [labeldistance=2.5, labelangle=45, headlabel="True"] ;
2 [label="symmetry error <= -0.493\nentropy = 0.133\nsamples = 269\nvalue = [5, 264]\nclass = benign", fillcolor="#399de5fa"] ;
1 -> 2 ;
3 [label="area error <= 0.051\nentropy = 0.337\nsamples = 80\nvalue = [5, 75]\nclass = benign", fillcolor="#399de5ee"] ;
2 -> 3 ;
4 [label="worst texture <= 0.692\nentropy = 0.235\nsamples = 78\nvalue = [3, 75]\nclass = benign", fillcolor="#399de5f5"] ;
3 -> 4 ;
5 [label="entropy = 0.0\nsamples = 64\nvalue = [0, 64]\nclass = benign", fillcolor="#399de5ff"] ;
4 -> 5 ;
6 [label="entropy = 0.75\nsamples = 14\nvalue = [3, 11]\nclass = benign", fillcolor="#399de5b9"] ;
4 -> 6 ;
7 [label="entropy = 0.0\nsamples = 2\nvalue = [2, 0]\nclass = malignant", fillcolor="#e58139ff"] ;
3 -> 7 ;
8 [label="entropy = 0.0\nsamples = 189\nvalue = [0, 189]\nclass = benign", fillcolor="#399de5ff"] ;
2 -> 8 ;
9 [label="worst texture <= -0.873\nentropy = 0.99\nsamples = 34\nvalue = [19, 15]\nclass = malignant", fillcolor="#e5813936"] ;
1 -> 9 ;
10 [label="entropy = 0.0\nsamples = 11\nvalue = [0, 11]\nclass = benign", fillcolor="#399de5ff"] ;
9 -> 10 ;
11 [label="mean symmetry <= -1.05\nentropy = 0.667\nsamples = 23\nvalue = [19, 4]\nclass = malignant", fillcolor="#e58139c9"] ;
9 -> 11 ;
12 [label="entropy = 0.0\nsamples = 3\nvalue = [0, 3]\nclass = benign", fillcolor="#399de5ff"] ;
11 -> 12 ;
13 [label="mean texture <= 1.404\nentropy = 0.286\nsamples = 20\nvalue = [19, 1]\nclass = malignant", fillcolor="#e58139f2"] ;
11 -> 13 ;
14 [label="entropy = 0.0\nsamples = 19\nvalue = [19, 0]\nclass = malignant", fillcolor="#e58139ff"] ;
13 -> 14 ;
15 [label="entropy = 0.0\nsamples = 1\nvalue = [0, 1]\nclass = benign", fillcolor="#399de5ff"] ;
13 -> 15 ;
16 [label="worst perimeter <= 0.171\nentropy = 0.375\nsamples = 152\nvalue = [141, 11]\nclass = malignant", fillcolor="#e58139eb"] ;
0 -> 16 [labeldistance=2.5, labelangle=-45, headlabel="False"] ;
17 [label="worst texture <= 0.334\nentropy = 0.948\nsamples = 30\nvalue = [19, 11]\nclass = malignant", fillcolor="#e581396b"] ;
16 -> 17 ;
18 [label="worst concave points <= 1.016\nentropy = 0.964\nsamples = 18\nvalue = [7, 11]\nclass = benign", fillcolor="#399de55d"] ;
17 -> 18 ;
19 [label="area error <= -0.385\nentropy = 0.75\nsamples = 14\nvalue = [3, 11]\nclass = benign", fillcolor="#399de5b9"] ;
18 -> 19 ;
20 [label="entropy = 0.0\nsamples = 8\nvalue = [0, 8]\nclass = benign", fillcolor="#399de5ff"] ;
19 -> 20 ;
21 [label="entropy = 1.0\nsamples = 6\nvalue = [3, 3]\nclass = malignant", fillcolor="#e5813900"] ;
19 -> 21 ;
22 [label="entropy = 0.0\nsamples = 4\nvalue = [4, 0]\nclass = malignant", fillcolor="#e58139ff"] ;
18 -> 22 ;
23 [label="entropy = 0.0\nsamples = 12\nvalue = [12, 0]\nclass = malignant", fillcolor="#e58139ff"] ;
17 -> 23 ;
24 [label="entropy = 0.0\nsamples = 122\nvalue = [122, 0]\nclass = malignant", fillcolor="#e58139ff"] ;
16 -> 24 ;
}